0.008744612336158752,0.1221136748790741,-0.09188851714134216,0.007132738828659058,0.07050339877605438,-0.03964146971702576,-0.04071533679962158,0.008296951651573181,0.038870275020599365,-0.049563825130462646,-0.008383795619010925,0.033251479268074036,-0.0246802419424057,0.05263528227806091,-0.05654625594615936,0.06600210070610046,0.023809805512428284,0.0878499448299408,0.11488626897335052,0.006272837519645691,0.07879096269607544,0.037105292081832886,0.03175298869609833,0.0848110169172287,0.08584821224212646,-0.12355101108551025,-0.1114664226770401,-0.03356043994426727,0.10075801610946655,-0.009190991520881653,-0.12002016603946686,0.08678361773490906,0.06434005498886108,0.1104004830121994,0.04015748202800751,-0.0198286771774292,0.018197014927864075,-0.0517115443944931,0.06601057946681976,-0.11723169684410095,-0.08234958350658417,0.063640296459198,0.061314791440963745,-0.09511274099349976,0.10203568637371063,-0.01883336901664734,-0.02182851731777191,0.1186235100030899,-0.07552957534790039,-0.08690766990184784,0.08989143371582031,0.08409728109836578,-0.05451302230358124,0.04910723865032196,0.10647580027580261,-0.03307223320007324,0.08941920101642609,-0.10112811625003815,-0.008353814482688904,-0.0092058926820755,-0.01936519145965576,-0.08562570810317993,0.08958090841770172,-0.044713929295539856