0.16101346909999847,0.07314357906579971,0.18569441139698029,0.28860095143318176,-0.1383153796195984,0.3179553151130676,0.023977089673280716,0.2912197709083557,-0.1481044441461563,0.22627723217010498,0.2283213585615158,0.19213588535785675,-0.23956167697906494,0.016383111476898193,-0.18643228709697723,0.09162361919879913,0.20864729583263397,-0.29358378052711487,0.10653690248727798,0.18104048073291779,0.011982264928519726,-0.09370504319667816,-0.2667680084705353,0.3073909878730774,0.14752358198165894,0.06516825407743454,0.2984052002429962,-0.2163168489933014,0.3195320665836334,-0.2871147692203522,0.2578541338443756,-0.1944085657596588,-0.3031885325908661,-0.03522760048508644,0.1779206395149231,0.13425388932228088,0.2758810520172119,0.34060215950012207,0.17149370908737183,-0.14968343079090118,-0.28705430030822754,0.08655870705842972,0.10289032012224197,-0.038722794502973557,0.045717570930719376,-0.119841568171978,0.2030072957277298,-0.041554853320121765,-0.13320785760879517,-0.16738060116767883,0.10935142636299133,-0.2861189842224121,-0.06639847904443741,0.11820635944604874,-0.17916713654994965,-0.12004872411489487,-0.21711593866348267,0.267598420381546,-0.09468533843755722,-0.2551788091659546,0.03308805823326111,-0.18240919709205627,0.07619602233171463,0.2632800340652466