-0.06229075789451599,-0.03698299825191498,-0.11578111350536346,0.08087176084518433,-0.12002542614936829,-0.11776302754878998,-0.04355156421661377,0.1014670878648758,-0.03329768776893616,-0.10704948008060455,-0.03426565229892731,0.003029763698577881,0.003573477268218994,-0.050543785095214844,-0.10418716073036194,-0.10039111971855164,0.07351692020893097,0.08993901312351227,0.08383092284202576,-0.08264447748661041,0.07442167401313782,-0.0950341671705246,0.01701989769935608,-0.041185274720191956,0.023685574531555176,0.026525214314460754,-0.04029056429862976,0.09945419430732727,-0.06694838404655457,-0.05855216085910797,0.113579660654068,-0.012049227952957153,-0.11443136632442474,0.11908955872058868,-0.07780247926712036,-0.10482721030712128,-0.03426755964756012,-0.08834132552146912,0.10435177385807037,-0.0400409996509552,0.01439829170703888,0.014590427279472351,0.09657630324363708,0.06488406658172607,0.032922908663749695,-0.09204789996147156,0.008541539311408997,-0.06819342076778412,0.08970281481742859,-0.03054100275039673,0.09901836514472961,0.004841327667236328,0.06487821042537689,0.10275660455226898,-0.11683470010757446,0.016745075583457947,-0.09324201941490173,-0.0032937228679656982,-0.06160002946853638,-0.10532833635807037,0.0359114408493042,-0.034721627831459045,-0.0726042091846466,0.09132182598114014,0.10792501270771027,0.053919315338134766,-0.003801509737968445,-0.08717377483844757,0.032395586371421814,-0.10596729815006256,0.07668603956699371,0.08351698517799377,-0.12068113684654236,-0.06456288695335388,0.012206360697746277,-0.04665905237197876,0.035668835043907166,0.10379032790660858,-0.02978356182575226,-0.04211306571960449,0.004974782466888428,0.04300227761268616,0.10155822336673737,0.010921597480773926,-0.11537927389144897,0.11680561304092407,0.09545102715492249,0.0033764243125915527,0.12162218987941742,0.023758813738822937,0.11312441527843475,0.12085804343223572,0.07702167332172394,0.05885672569274902,-0.12361742556095123,-0.08271154761314392,-0.06719398498535156,0.09440888464450836,-0.040343716740608215,-0.04184970259666443,0.01149401068687439,-0.10513125360012054,-0.00019188225269317627,0.09525889158248901,0.11045297980308533,0.032270386815071106,0.07402093708515167,-0.039596155285835266,-0.02420976758003235,-0.1019507348537445,-0.030866876244544983,-0.09808352589607239,0.028404995799064636,-0.004614591598510742,-0.07343333959579468,0.008672624826431274,-0.02896822988986969,-0.04289311170578003,-0.022660985589027405,-0.10986848175525665,-0.05905728042125702,-0.012839123606681824,0.05588845908641815,0.07034185528755188,0.056363120675086975,0.11018189787864685,0.048494696617126465,-0.05511574447154999,0.009677618741989136,0.124264195561409,0.08495371043682098,-0.09485436975955963,0.04620403051376343,0.12018032371997833,-0.03411227464675903,0.01127934455871582,-0.0036651641130447388,-0.027666762471199036,-0.0958683043718338,0.057385608553886414,0.009704485535621643,-0.10311740636825562,0.051949501037597656,0.04239639639854431,0.12043748795986176,0.09055547416210175,-0.07626277208328247,-0.0846957415342331,-0.021843552589416504,0.055645957589149475,-0.07377664744853973,-0.010778501629829407,0.03855635225772858,0.04628385603427887,0.1051366776227951,0.07425659894943237,-0.1232534646987915,-0.06590674817562103,-0.07425254583358765,0.1144116222858429,0.05666428804397583,0.03217196464538574,-0.1152009516954422,-0.10159683227539062,-0.0003299415111541748,-0.07072064280509949,0.06072629988193512,0.07073266804218292,-0.07313385605812073,0.06129315495491028,-0.05897453427314758,0.03983461856842041,-0.02451494336128235,0.12115126848220825,0.055733636021614075,-0.0057479143142700195,-0.04015645384788513,-0.05995480716228485,-0.03406740725040436,0.12005235254764557,-0.016807913780212402,-0.023006275296211243,-0.024199724197387695,0.032897040247917175,-0.023771539330482483,-0.09595325589179993,-0.06118425726890564,0.10773175954818726,-0.058719560503959656,-0.08228640258312225,-0.060791999101638794,0.021907106041908264,-0.08061552047729492,-0.04812285304069519,0.12271547317504883,0.022476911544799805,-0.07394479215145111,-0.11462920904159546,-0.03212359547615051,-0.043381646275520325,-0.03183005750179291,0.08087755739688873,0.09164927899837494,-0.05267085134983063,0.06215523183345795,0.04898837208747864,0.026591330766677856,-0.10561323165893555,-0.10034699738025665,0.11976967751979828,0.07082091271877289,-0.10656574368476868,-0.08847212791442871,-0.12350307404994965,-0.07649824023246765,-0.07007390260696411,0.06336361169815063,-0.03314618766307831,0.11462366580963135,0.0356014221906662,0.03239293396472931,-0.07652819156646729,0.08910496532917023,0.0502137690782547,0.022123143076896667,0.09177099168300629,-0.0058729201555252075,-0.12487766146659851,0.07336755096912384,0.08189275860786438,-0.053269147872924805,-0.07702939212322235,0.11975884437561035,-0.04356031119823456,-0.09493203461170197,0.03446812927722931,-0.060300275683403015,-0.06637974083423615,0.0839492678642273,0.0034536123275756836,-0.027067065238952637,-0.08231043815612793,-0.058426663279533386,-0.07211261987686157,-0.09970515966415405,0.12214861810207367,-0.0991571694612503,0.03370833396911621,-0.016899526119232178,-0.06884118914604187,-0.0735430121421814,-0.12077024579048157,0.08506309986114502,-0.04209001362323761,0.11472555994987488,0.0801994800567627,0.01195208728313446,0.08450917899608612,-0.042866140604019165,-0.011579811573028564,-0.02312701940536499,-0.05181802809238434,-0.06162247061729431,-0.05875556170940399,-0.0691642016172409,0.04450640082359314,0.06602521240711212,-0.06506243348121643,-0.03904402256011963,0.024983301758766174,0.09658299386501312,0.07942923903465271,0.11410649120807648,0.08180229365825653,0.011982306838035583,-0.0976983904838562,-0.08419765532016754,-0.04595045745372772,0.10032735764980316,0.008332639932632446,-0.06484651565551758,0.0788862407207489,-0.10505105555057526,-0.06254471838474274,0.08772598206996918,0.03984174132347107,0.02451854944229126,-0.04495278000831604,-0.00022721290588378906,0.034821152687072754,0.057608187198638916,-0.055263593792915344,0.014186426997184753,-0.0021970123052597046,-0.012196004390716553,0.11164306104183197,-0.09211087226867676,-0.008882254362106323,-0.09148751199245453,0.11788223683834076,0.056995511054992676,0.04533809423446655,-0.12469156086444855,-0.045073941349983215,-0.113532155752182,0.05707418918609619,-0.06426921486854553,-0.016032904386520386,-0.0752851665019989,0.06352457404136658,-0.007267206907272339,0.08528591692447662,0.07309268414974213,0.05453673005104065,-0.10195097327232361,-0.08309778571128845,-0.10781250894069672,0.08754666149616241,0.11582352221012115,-0.082252636551857,0.01759570837020874,-0.054285332560539246,0.06660076975822449,0.1116112768650055,-0.032175734639167786,-0.026466593146324158,0.01611781120300293,0.020248278975486755,-0.07954232394695282,-0.009147778153419495,-0.028842806816101074,-0.12483207881450653,-0.07762977480888367,-0.05628448724746704,-0.11858411133289337,-0.08077172935009003,-0.0526852011680603,0.07648484408855438,0.09542351961135864,0.082628533244133,-0.06287369132041931,-0.1012788712978363,0.036421000957489014,-0.08289515972137451,-0.08999809622764587,0.013432607054710388,0.023535966873168945,0.027441591024398804,-0.07137703895568848,0.07715769112110138,-0.022955581545829773,0.12221714854240417,-0.04426741600036621,0.016597092151641846,-0.047990068793296814,0.10762681066989899,0.026343882083892822,0.11874580383300781,-0.07953964173793793,0.08910275995731354,0.10624706745147705,0.013811260461807251,-0.07922223210334778,0.059782251715660095,0.0037736892700195312,-0.007795557379722595,-0.05702255666255951,-0.11758087575435638,0.12418381869792938,0.020574837923049927,-0.04220832884311676,0.09927994012832642,0.041612982749938965,0.1021304577589035,0.03934471309185028,0.04087470471858978,0.1216346025466919,-0.07910966873168945,-0.07775729894638062,-0.0001575946807861328,0.11443302035331726,-0.049287110567092896,-0.01411902904510498,0.019481584429740906,-0.0039091557264328,-0.0738648921251297,0.03647240996360779,0.04232914745807648,-0.007898613810539246,-0.06040613353252411,0.11814470589160919,-0.05439794063568115,0.08926846086978912,-0.11658535897731781,-0.044593557715415955,-0.05697919428348541,-0.02313375473022461,0.11850975453853607,-0.022355735301971436,-0.022253617644309998,-0.0756290853023529,-0.10542552173137665,-0.08894705772399902,0.12220969796180725,0.06343123316764832,-0.09793846309185028,-0.023150533437728882,0.05361507833003998,0.02762000262737274,-0.10544836521148682,0.0643053948879242,0.039555907249450684,0.00044001638889312744,0.011173918843269348,-0.11263258755207062,0.028799742460250854,-0.004894718527793884,-0.03117986023426056,-0.12036938965320587,-0.07635043561458588,0.07962515950202942,0.08925797045230865,-0.041212260723114014,-0.002003207802772522,0.10934719443321228,0.0018528848886489868,0.04928326606750488,0.05162756145000458,0.08604906499385834,-0.07301521301269531,-0.03122781217098236,-0.06397190690040588,-0.005890563130378723,-0.10561130940914154,-0.00026726722717285156,0.03595858812332153,-0.0382561981678009,0.09516343474388123,0.02804778516292572,-0.002478167414665222,-0.05571770668029785,0.03235487639904022,0.08942079544067383,-0.01124541461467743,-0.1129857748746872,-0.059651583433151245,-0.09631828963756561,0.031808555126190186,-0.03658783435821533,-0.05542610585689545,-0.0400206595659256,-0.058649882674217224,-0.03527422249317169,0.013689190149307251,0.05864329636096954,-0.018003061413764954,-0.05396124720573425,0.043650880455970764,-0.01167064905166626,0.06082578003406525,0.10562743246555328,0.06471467018127441,-0.07143886387348175,-0.0843067318201065,-0.03473159670829773,0.013795286417007446,-0.012090310454368591,-0.08165931701660156,-0.11240243911743164,-0.08552847802639008,0.03469191491603851,-0.07982385158538818,0.0356852263212204,0.056697309017181396,-0.00754702091217041,0.03326345980167389,0.01667371392250061,0.09517335891723633,-0.11820065975189209,-0.11940144002437592,0.07625700533390045,0.031351834535598755,-0.09918951988220215,-0.0749136209487915,-0.01923239231109619,-0.02895362675189972,0.0109100341796875,0.05716733634471893,0.11372791230678558,0.09257161617279053,-0.08166156709194183,-0.05279421806335449,-0.03210735321044922,-0.09700882434844971,-0.007261395454406738,-0.03717716038227081,0.07398200035095215,0.092084601521492,-0.1139751672744751,-0.0120362788438797,-0.12247443199157715,0.10177494585514069,0.040214404463768005,-0.09984581172466278,-0.04737703502178192,-0.0036520957946777344,-0.08805012702941895,0.062269121408462524,0.11747901141643524,0.022673338651657104,0.08366377651691437,-0.11508366465568542,-0.03774835169315338,0.08276847004890442,0.07186731696128845,-0.07778604328632355,-0.09084679186344147,-0.013774305582046509,-0.12383079528808594,-0.03236691653728485,-0.006614550948143005,0.0665905773639679,0.09628091752529144,-0.005059093236923218,-0.10199691355228424,0.011366397142410278,-0.10609793663024902,0.05456690490245819,0.0851290374994278,-0.0427209734916687,-0.034173160791397095,-0.027704089879989624,0.08035662770271301,-0.09131018817424774,0.043471068143844604,-0.08299499750137329,0.020315617322921753,-0.0758027583360672,0.019488483667373657,-0.013006284832954407,-0.009346693754196167,0.08713680505752563,-0.02311183512210846,0.02748507261276245,-0.0699436217546463,0.1049100011587143,0.008040770888328552,-0.112657830119133,-0.08384393155574799,0.10128703713417053,-0.11321358382701874,-0.0871175080537796,0.11021044850349426,0.047991231083869934,-0.05984450876712799,-0.07569174468517303,-0.04237814247608185,-0.0851370096206665,0.009530812501907349,0.0020471662282943726,0.02361781895160675,-0.0700288861989975,-0.0825415700674057,0.008584931492805481,-0.11397840082645416,0.050091132521629333,-0.05582070350646973,-0.11889828741550446,-0.08051146566867828,0.06210911273956299,-0.038585349917411804,-0.12450988590717316,0.053170785307884216,-0.013584554195404053,-0.06436067819595337,0.08592240512371063,-0.12105587124824524,-0.12048962712287903,0.07533271610736847,0.020217955112457275,0.017146065831184387,0.053287893533706665,0.022382155060768127,0.05313420295715332,-0.020398348569869995,-0.0640755444765091,0.0070791095495224,-0.06124201416969299,-0.05602589249610901,0.11248329281806946,0.0015574395656585693,0.0007435530424118042,0.06400971114635468,-0.12333254516124725,0.11094403266906738,-0.02649587392807007,0.06398123502731323,0.11015073955059052,-0.02762708067893982,-0.06945803761482239,0.10179674625396729,0.014597326517105103,0.06979969143867493,0.11017028987407684,0.023917153477668762,0.06050659716129303,0.010393545031547546,-0.008638367056846619,0.11704705655574799,0.007744774222373962,0.06194709241390228,-0.017064645886421204,0.034821465611457825,0.06978312134742737,0.06715086102485657,0.040026962757110596,0.07737289369106293,0.0631653219461441,-0.0889895111322403,-0.005723521113395691,0.05471061170101166,0.11939214169979095,0.03157980740070343,-0.08826924860477448,0.02814418077468872,0.001142263412475586,-0.10773631930351257,-0.020044878125190735,0.0392027348279953,-0.08959999680519104,0.017886072397232056,-0.011679604649543762,0.08253948390483856,-0.00342346727848053,0.09165480732917786,0.12167026102542877,0.09970636665821075,-0.11196929216384888,0.05919262766838074,-0.1099327802658081,0.020011141896247864,0.002244725823402405,0.039090871810913086,0.04210132360458374,-0.07687672972679138,-0.09640929102897644,-0.026102349162101746,-0.027918100357055664,-0.057891085743904114,0.03166060149669647,0.10859367251396179,0.10491420328617096,-0.03229300677776337,0.020326420664787292,0.1120477020740509,-0.06324853003025055,-0.07393944263458252,0.07015968859195709,0.009460777044296265,-0.03146776556968689,0.09635253250598907,-0.049765825271606445,0.10121752321720123,0.11599090695381165,0.035219237208366394,-0.10664267838001251,0.04065282642841339,-0.027343139052391052,0.10927458107471466,-0.044318243861198425,0.02147965133190155,0.10736300051212311,0.10500279068946838,-0.09615075588226318,-0.06180685758590698,-0.049905985593795776,-0.06701551377773285,-0.09795346856117249,0.10065312683582306,0.012041062116622925,0.009004786610603333,-0.0635732114315033,-0.11716631054878235,-0.06577171385288239,-0.07485957443714142,0.0050427913665771484,-0.06623716652393341,-0.0484032928943634,0.0362606942653656,0.06513147056102753,-0.044016122817993164,0.1096973866224289,-0.021036401391029358,0.06321060657501221,-0.07072113454341888,0.06737290322780609,0.02518819272518158,-0.01402314007282257,-0.12080803513526917,-0.11902640759944916,-0.026849299669265747,0.032466381788253784,0.014234796166419983,-0.04982610046863556,0.010558649897575378,0.11853496730327606,0.048897162079811096,-0.0972454696893692,0.07063217461109161,0.024416208267211914,-0.06247396767139435,0.05866551399230957,-0.11853305995464325,-0.07007917761802673,-0.022823184728622437,0.09801208972930908,0.09377314150333405,0.10120981931686401,-0.019722923636436462,0.003499746322631836,0.10811764001846313,0.026484280824661255,0.03326895833015442,0.020293056964874268,0.11276662349700928,0.007351592183113098,0.043004244565963745,0.031220123171806335,0.008000999689102173,-0.09780383110046387,-0.035710543394088745,0.019145384430885315,0.04940718412399292,0.11669811606407166,0.02152031660079956,0.009338334202766418,0.11125445365905762,0.07238171994686127,-0.01599934697151184,0.030561700463294983,0.06367418169975281,-0.020895659923553467,-0.12452676892280579,-0.09585382044315338,-0.02652771770954132,0.06522437930107117,-0.07761505246162415,0.06571520864963531,-0.039493054151535034,-0.08852964639663696,0.09136432409286499,-0.02106037735939026,0.05301135778427124,0.04828523099422455,-0.12018795311450958,0.07803314924240112,-0.04731734097003937,-0.12470690906047821,-0.007672950625419617,-0.03410305082798004,0.07465699315071106,0.010479271411895752,0.1009945422410965,-0.12098135054111481,0.00880761444568634,0.07015323638916016,-0.12495361268520355,0.035251304507255554,-0.09724749624729156,0.0834595113992691,0.09207609295845032,-0.053244009613990784,-0.06071348488330841,-0.10182170569896698,0.10384628176689148,-0.06012442708015442,0.12266379594802856,0.0640656054019928,0.0567719042301178,-0.001575753092765808,0.1173865795135498,-0.05810160934925079,-0.11301976442337036,0.09594860672950745,0.1239166408777237,-0.0890427678823471,-0.0709671825170517,-0.08529795706272125,0.11623197793960571,0.0399356335401535,-0.11118367314338684,-0.05879175662994385,-0.030725300312042236,0.029271841049194336,-0.10122154653072357,-0.0253230482339859,-0.12075242400169373,0.07757830619812012,-0.027974233031272888,-0.011686325073242188,0.0782293975353241,-0.09515655040740967,0.10190513730049133,-0.03197811543941498,0.026388049125671387,-0.016668424010276794,0.042547568678855896,-0.0460066944360733,-0.08052156865596771,-0.0308447927236557,0.03881499171257019,-0.06240375339984894,0.08294788002967834,-0.020108789205551147,-0.07742248475551605,-0.08593595027923584,-0.02297765016555786,-0.08009369671344757,0.07217112183570862,-0.04808738827705383,-0.05255858600139618,0.08972512185573578,-0.08795180916786194,-0.08527308702468872,0.002701595425605774,-0.07919889688491821,-0.07548895478248596,0.027232348918914795,-0.10300858318805695,0.01158265769481659,-0.03368599712848663,-0.107235848903656,0.11379693448543549,-0.0034996718168258667,0.04083123803138733,-0.00921139121055603,-0.07317818701267242,0.10645504295825958,0.049348071217536926,-0.05586603283882141,-0.08749105036258698,0.057742223143577576,-0.08728751540184021,0.03857037425041199,-0.030359238386154175,-0.12013198435306549,-0.08048582077026367,0.011394038796424866,0.009016424417495728,-0.09356150031089783,0.12152113020420074,-0.06485125422477722,0.05109868943691254,0.06305047869682312,0.09374728798866272,-0.10776682198047638,0.02780957520008087,-0.10305963456630707,-0.1196487545967102,-0.03964650630950928,0.10843069851398468,0.05929587781429291,0.00475803017616272,0.10389861464500427,0.09494142234325409,-0.09027828276157379,-0.11494015157222748,0.06954862177371979,-0.05391980707645416,0.027674123644828796,-0.05888791382312775,0.07176010310649872,-0.095156729221344,0.07876534759998322,-0.06293235719203949,-0.12456899881362915,-0.014616727828979492,0.10135169327259064,0.038060322403907776,0.0540328323841095,0.0010821223258972168,0.012644827365875244,-0.10038772225379944,0.09882669150829315,-0.05112266540527344,0.06456422805786133,0.10669714212417603,-0.0686119943857193,-0.08893698453903198,-0.07090683281421661,-5.201995372772217e-05,-0.006425097584724426,-0.11829042434692383,-0.06476570665836334,0.10227493941783905,0.021015271544456482,0.08056250214576721,0.10263608396053314,-0.08780822157859802,0.07600289583206177,0.04910251498222351,0.09665338695049286,0.02981892228126526,-0.05948434770107269,-0.10126540064811707,-0.12163935601711273,0.011898323893547058,-0.029003888368606567,-0.043347254395484924,0.034625232219696045,0.07836611568927765,-0.031259313225746155,0.08124035596847534,0.004782930016517639,-0.10932843387126923,-0.017740294337272644,-0.08539237082004547,0.10440175235271454,-0.038529977202415466,0.08464998006820679,0.018527910113334656,-0.11785060167312622,-0.10423454642295837,0.05679221451282501,0.08179605007171631,0.11758261919021606,0.09221108257770538,-0.02875503897666931,-0.0695473849773407,-0.06447075307369232,0.0656319260597229,0.06384001672267914,0.11433890461921692,0.030424654483795166,0.0656927078962326,0.038997188210487366,0.046901583671569824,-0.11450687050819397,0.017064258456230164,0.03591504693031311,-0.11386492848396301,0.055638670921325684,-0.018968284130096436,-0.11450627446174622,-0.11074195802211761,-0.020539671182632446,0.05894358456134796,-0.025743290781974792,0.03265869617462158,0.11456723511219025,0.04629221558570862,-0.12401731312274933,-0.006348401308059692,0.02217675745487213,-0.08299712836742401,0.08863532543182373,0.05627104640007019,0.05480282008647919,0.08204309642314911,0.12426634132862091,-0.0843917727470398,0.11680391430854797,0.03854864835739136,0.06332956254482269,0.12163503468036652,-0.12090268731117249,0.11008326709270477,0.059769049286842346,-0.07905782759189606,0.020165815949440002,-0.05310472846031189,-0.03820332884788513,-0.029234275221824646,-0.05702751874923706,0.009838134050369263,-0.041355133056640625,-0.04997171461582184,-0.10449090600013733,0.09302249550819397,0.011092454195022583,0.023936182260513306,0.10749699175357819,0.12405578792095184,-0.04111260175704956,0.09115108847618103,0.091367706656456,0.011585503816604614,-0.11719846725463867,0.09171280264854431,0.09722477197647095,0.0569772869348526,0.11887352168560028,0.1149892508983612,-0.02929377555847168,-0.03731641173362732,-0.11456796526908875,-0.11664684116840363,0.011868685483932495,0.053664833307266235,0.09908783435821533,0.11656726896762848,-0.04685944318771362,-0.08702921867370605,-0.05576571822166443,-0.010205984115600586,0.02317635715007782,0.10432873666286469,-0.11485213041305542,-0.10710585117340088,-0.10395006835460663,0.07291720807552338,-0.03463184833526611,0.016515463590621948,-0.08646661043167114,0.08101564645767212,-0.035581886768341064,-0.010495424270629883,0.0275648832321167,-0.10176296532154083,0.002450123429298401,-0.022378966212272644,-0.062450990080833435,0.03039504587650299,0.08186157047748566,0.06363050639629364,-0.015091538429260254,-0.12298229336738586,0.1185169667005539,0.122031569480896,-0.04312841594219208,-0.031468138098716736,-0.058108195662498474,-0.060609400272369385,-0.11869753897190094,-0.05563053488731384,0.11548236012458801,0.08255033195018768,-0.08740253746509552,0.012612998485565186,0.004680648446083069,0.015047997236251831,0.10239526629447937,0.03679640591144562,0.08361899852752686,-0.0968816727399826,0.10634198784828186,0.07257960736751556,0.02821025252342224,-0.1178637146949768,0.10323040187358856,-0.10707974433898926,0.07943838834762573,-0.11661013960838318,-0.11775103211402893,0.05132560431957245,0.04365125298500061,0.018600091338157654,-0.09259934723377228,-0.01616518199443817,0.09633657336235046,-0.021898046135902405,0.11485733091831207,0.03939336538314819,0.060795143246650696,-0.023586124181747437,0.023123830556869507,0.0717167854309082,-0.03636857867240906,0.11523169279098511,0.06847809255123138,-0.013881206512451172,-0.10468614101409912,-0.11835697293281555,0.06778134405612946,-0.09218576550483704,0.005720064043998718,-0.03629527986049652,0.09977397322654724,0.04022751748561859,0.01748727262020111,-0.0416112095117569,-0.04723051190376282,0.05981266498565674,0.03916837275028229,0.1181585043668747,0.07486742734909058,-0.011057466268539429,0.07042643427848816,-0.015267714858055115,-0.07180541753768921,-0.07182425260543823,-0.11198340356349945,0.11878049373626709,-0.11802822351455688,0.06022654473781586,-0.0617867112159729,0.013053029775619507,-0.07668940722942352,-0.07389366626739502,-0.06941421329975128,-0.07222259044647217,-0.06890933215618134,-0.07127273082733154,-0.035109370946884155,0.0822957307100296,0.08698493242263794,0.0017982274293899536,0.06775802373886108,-0.055070772767066956,-0.11594042181968689,0.060054704546928406,0.11572055518627167,-0.00931510329246521,-0.11277860403060913,0.06309439241886139,0.09223033487796783,-0.003739386796951294,0.00717867910861969,-0.04376116394996643,0.053649961948394775,0.06140139698982239,-0.1026540994644165,-0.04986204206943512,-0.0009122937917709351,-0.0496038943529129,0.09338536858558655,-0.10039377212524414,-0.03211487829685211,0.017540335655212402,-0.08369524776935577,0.05068539083003998,0.12194716930389404,0.05960074067115784,-0.0010063797235488892,-0.02420736849308014,-0.046275705099105835,0.029473185539245605,0.0022415220737457275,0.04607607424259186,0.03234891593456268,-0.05241633951663971,0.0050329118967056274,-0.07735879719257355,-0.03460657596588135,0.10400667786598206,0.1243419349193573,0.06391087174415588,0.08067582547664642,0.0754917711019516,-0.12312071025371552,0.041734665632247925,0.05808615684509277,0.08791130781173706,-0.010424047708511353,-0.0652877688407898,0.014415323734283447,-0.11302313208580017,0.0016269534826278687,0.05275237560272217,-0.027840226888656616,-0.038505151867866516,-0.004320472478866577,-0.005769550800323486,0.06474070250988007,0.03913436830043793,0.029412895441055298,0.022594839334487915,0.03333726525306702,-0.0054742395877838135,0.023859411478042603,-0.0073629021644592285,0.10382586717605591,-0.026075422763824463,-0.0008946359157562256,-0.07370984554290771,-0.09717333316802979,0.019991695880889893,0.12440504133701324,0.011407732963562012,0.05477423965930939,0.0669679045677185,-0.04851214587688446,-0.0242186039686203,0.02120739221572876,0.10453230142593384,-0.09958994388580322,-0.011912703514099121,-0.11255010962486267,0.11482295393943787,0.0035285353660583496,-0.08855003118515015,0.07354876399040222,0.05989459156990051,-0.07946304976940155,-0.03264491260051727,-0.11343356966972351,0.053150713443756104,-0.08675049245357513,0.08752983808517456,-0.06721484661102295,0.03622451424598694,-0.0999169796705246,-0.08811074495315552,0.046688228845596313,-0.07670539617538452,-0.1064070612192154,0.11010925471782684,-0.08645342290401459,0.0978170782327652,0.07415522634983063,-0.07056596875190735,0.056033432483673096,-0.04198107123374939,-0.09169133007526398,0.05472235381603241,-0.004417330026626587,0.09001024067401886,0.12140582501888275,-0.06113263964653015,0.021316304802894592,-0.034270212054252625,-0.08035089075565338,-0.07122260332107544,0.05760142207145691,0.0852084755897522,-0.12424756586551666,-0.003459259867668152,-0.047398895025253296,0.120804563164711,0.0627397894859314,-0.005592420697212219,0.0648840069770813,0.05929003655910492,-0.11446705460548401,-0.10208006203174591,0.08148019015789032,-0.06424161791801453,-0.004951447248458862,0.12304423749446869,-0.04303447902202606,0.06377686560153961,-0.0953557938337326,-0.11238634586334229,0.0577419251203537,0.09896251559257507,0.07102599740028381,-0.055395081639289856,-0.06146886944770813,0.05359715223312378,-0.004946902394294739,-0.034971147775650024,-0.08497005701065063,0.05647750198841095,0.05660495162010193,-0.06409363448619843,-0.036964431405067444,0.08984385430812836,-0.09735210239887238,0.06334564089775085,-0.06469522416591644,0.09217236936092377,-0.08669289946556091,0.05046018958091736,-0.0985894650220871,0.09500470757484436,-0.0971488207578659,-0.11532473564147949,0.09880194067955017,0.06515549123287201,-0.07852691411972046,-0.01990494132041931,0.06357243657112122,-0.0012038499116897583,-0.11005358397960663,-0.08855144679546356,-0.04692116379737854,0.09230180084705353,0.02519780397415161,0.12180428206920624,-0.07592810690402985,0.06591126322746277,-0.06195025146007538,-0.06647360324859619,0.09481371939182281,0.09334249794483185,0.012457028031349182,0.09866119921207428,0.0720694363117218,-0.12269166111946106,-0.0726819634437561,0.047017306089401245,-0.06163214147090912,-0.07366475462913513,-0.033882156014442444,-0.05093178153038025,-0.09133420884609222,0.0277317613363266,0.10097739100456238,0.05195225775241852,-0.00034865736961364746,-0.02670346200466156,0.09689968824386597,-0.028211042284965515,-0.045944854617118835,0.1228751391172409,0.04873773455619812,-0.07194085419178009,0.03154104948043823,-0.09849567711353302,-0.11547371745109558,0.04056712985038757,0.11827796697616577,-0.023924484848976135,-0.05325344204902649,-0.030665844678878784,0.11162452399730682,0.09336249530315399,-0.06375646591186523,-0.09175358712673187,0.05544956028461456,-0.006960034370422363,0.08139905333518982,0.07013089954853058,-0.0037332624197006226,0.04824839532375336,0.0365496426820755,0.052133217453956604,-0.02021266520023346,-0.05021461844444275,-0.04023356735706329,0.08559305965900421,0.09439870715141296,-0.02843092381954193,0.09202662110328674,0.11560414731502533,-0.031644776463508606,-0.06644396483898163,0.02067364752292633,0.021291643381118774,-0.11357986927032471,0.10973884165287018,0.0048604607582092285,-0.12310603260993958,0.10534997284412384,-0.036792561411857605,0.09953485429286957,-0.01045052707195282,0.11322799324989319,0.08184441924095154,0.05828988552093506,-0.07972142100334167,-0.07927432656288147,0.04597850143909454,-0.06818409264087677,0.05900919437408447,-0.05520361661911011,-0.1209152340888977,0.12412025034427643,-0.0027071386575698853,0.0869705080986023,0.05148868262767792,-0.021833688020706177,-0.03947816789150238,-0.12136077880859375,-0.025370538234710693,-0.001479119062423706,-0.09775303304195404,-0.09222285449504852,0.04026694595813751,-0.016401469707489014,0.05187925696372986,0.040543437004089355,-0.0495591014623642,0.10976472496986389,0.09291069209575653,-0.0625973641872406,0.006787478923797607,0.07144626975059509,-0.08170004189014435,-0.05632522702217102,-0.05443091690540314,-0.037805914878845215,0.005432352423667908,-0.025246262550354004,-0.09784504771232605,0.09847971796989441,0.04835551977157593,0.11841171979904175,-0.09792514145374298,-0.010093897581100464,-0.04904592037200928,0.05295753479003906,-0.0373026579618454,-0.02650432288646698,-0.09550490975379944,0.057302579283714294,-0.06670108437538147,-0.10958382487297058,-0.08370037376880646,0.10524526238441467,0.07382050156593323,0.11474160850048065,-0.0026117414236068726,-0.11263519525527954,0.03789232671260834,-0.04369163513183594,0.040253281593322754,0.07930921018123627,-0.0022476911544799805,0.10741867125034332,0.0463155061006546,0.01706145703792572,0.09808783233165741,0.11523744463920593,0.010386079549789429,-0.03852309286594391,0.06204487383365631,0.09580239653587341,-0.1048828512430191,-0.04035264253616333,0.03765760362148285,0.09110124409198761,0.04826633632183075,0.03724034130573273,-0.02238576114177704,-0.11944080889225006,0.11126472055912018,-0.11498202383518219,0.07159782946109772,-0.02265346050262451,0.1193120926618576,0.07771250605583191,-0.071754589676857,0.0643659383058548,-0.060049474239349365,-0.0014439672231674194,0.09215253591537476,-0.0970398485660553,0.10663008689880371,-0.11283411085605621,-0.12020084261894226,0.07170608639717102,0.11853015422821045,0.007714167237281799,-0.09353648126125336,-0.07369780540466309,-0.03640483319759369,0.05751022696495056,-0.05459374189376831,-0.029430553317070007,-0.1064532995223999,-0.11811293661594391,0.09687517583370209,0.08032681047916412,-0.021777957677841187,0.11159925162792206,0.02193659543991089,-0.11417177319526672,0.0531182587146759,0.10781273245811462,0.0013704150915145874,0.07664139568805695,0.049412086606025696,0.0857800543308258,0.0317922979593277,-0.10852722823619843,0.12252624332904816,0.0183955579996109,-0.048265472054481506,-0.036844849586486816,0.0533759742975235,0.023260802030563354,-0.0908646434545517,-0.017141073942184448,0.08447976410388947,-0.09470078349113464,-0.01002289354801178,0.0356961190700531,-0.05220070481300354,0.04269653558731079,0.06100809574127197,-0.11937873065471649,-0.043498843908309937,-0.010553792119026184,-0.03894338011741638,-0.04741691052913666,-0.025624021887779236,0.10486409068107605,-0.03502032160758972,0.1220434308052063,-0.027890413999557495,-0.013737425208091736,0.10175584256649017,0.07221579551696777,-0.07959161698818207,-0.10519459843635559,-9.053945541381836e-05,0.04600679874420166,0.11324872076511383,0.1043706089258194,-0.010072216391563416,-0.0037583857774734497,-0.01836143434047699,0.0225001722574234,0.04008057713508606,-0.035204485058784485,0.04748371243476868,0.0007191747426986694,-0.10377836227416992,-0.0759381502866745,0.1225842535495758,-0.00866389274597168,0.11727683246135712,0.014713332056999207,0.0685959905385971,0.016638904809951782,0.05598209798336029,0.11741113662719727,-0.04904279112815857,-0.10633330047130585,-0.11039255559444427,-0.09233546257019043,-0.11487041413784027,0.02863869071006775,-0.04520018398761749,-0.02878434956073761,-0.007374897599220276,0.10551834106445312,0.07357148826122284,-0.06555457413196564,-0.12037451565265656,-0.1174582690000534,-0.05156990885734558,-0.04853062331676483,0.011294037103652954,0.09495413303375244,0.07585589587688446,0.03333421051502228,-0.11818432807922363,0.09118184447288513,0.033578574657440186,0.025692254304885864,-0.10628630220890045,-0.019257530570030212,0.02526840567588806,-0.05061560869216919,-0.06652384996414185,0.015902340412139893,0.12251126766204834,0.11230315268039703,0.004605397582054138,0.03341980278491974,-0.05982239544391632,0.06845530867576599,0.07686682045459747,-0.05798104405403137,-0.0591520220041275,0.07468393445014954,-0.11425280570983887,-0.06287771463394165,-0.05077928304672241,0.0778096616268158,0.10121792554855347,-0.10820280015468597,0.02725660800933838,-0.047720879316329956,-0.12095123529434204,-0.12245891988277435,0.05130228400230408,-0.12143249809741974,-0.0453188419342041,-0.11783786118030548,-0.07128067314624786,0.04794175922870636,0.04427933692932129,0.07355272769927979,0.08765771985054016,0.08063361048698425,0.010453581809997559,-0.02563394606113434,0.09241880476474762,-0.07544009387493134,0.06711621582508087,0.09382109344005585,-0.04486364126205444,0.010026708245277405,-0.00024677813053131104,0.03578510880470276,0.032257527112960815,0.08852960169315338,0.015672191977500916,-0.0029683709144592285,0.042196884751319885,0.061509087681770325,0.05334576964378357,-0.07220980525016785,-0.00326654314994812,0.09956876933574677,-0.10781542956829071,0.12480387091636658,-0.08129376173019409,0.05268953740596771,-0.05304589867591858,-0.03334587812423706,-0.029488801956176758,-0.0574478805065155,0.09716054797172546,-0.10467785596847534,-0.12489624321460724,-0.021856233477592468,0.12272617220878601,-0.005046561360359192,0.021140649914741516,0.02140238881111145,0.026759132742881775,0.012243002653121948,-0.05582723021507263,0.08832447230815887,0.0024790167808532715,0.12307514250278473,0.0034518539905548096,-0.09752576053142548,0.11569184064865112,0.07318700850009918,-0.1148894727230072,-0.08848387002944946,-0.09884090721607208,-0.01323959231376648,0.0995173454284668,0.04434160888195038,-0.016881003975868225,0.008403688669204712,-0.02309735119342804,-0.04048919677734375,-0.06593795120716095,0.07837890088558197,0.12222455441951752,0.09928116202354431,0.12218618392944336,0.11733381450176239,0.11987321078777313,0.07645100355148315,0.034998610615730286,0.10160480439662933,0.12282007932662964,-0.06466497480869293,-0.09863127768039703,-0.12110468745231628,-0.04320649802684784,-0.0325188934803009,0.09371979534626007,-0.045289501547813416,-0.11679762601852417,-0.06938134133815765,0.060551732778549194,0.08845977485179901,0.03809453547000885,-0.11924980580806732,-0.006022751331329346,-0.08384212851524353,0.051271989941596985,-0.054358839988708496,-0.11258618533611298,0.0033280253410339355,0.10961195826530457,0.031998828053474426,0.08579407632350922,0.11219421029090881,-0.09250307083129883,0.04207304120063782,0.06676673889160156,-0.1139950156211853,-0.03141923248767853,-0.022021561861038208,0.11546362936496735,0.10188460350036621,-0.10643228888511658,0.01002037525177002,0.08716607093811035,0.10686808824539185,0.054179489612579346,-0.07499881088733673,0.0919518917798996,0.05479389429092407,-0.03230451047420502,0.024212047457695007,-0.018471553921699524,-0.026610150933265686,0.09579333662986755,0.0004169940948486328,0.1129455715417862,-0.02735459804534912,-0.12210062146186829,-0.05397096276283264,0.058440521359443665,-0.06698089838027954,-0.11987778544425964,0.1020919680595398,-0.11061698198318481,0.08657693862915039,0.06262001395225525,-0.11263078451156616,0.01794596016407013,0.024164557456970215,-0.06443002820014954,0.06966575980186462,0.05507940053939819,0.07091531157493591,-0.06911593675613403,-0.06271226704120636,-0.0991990864276886,-0.03212212026119232,0.0660846084356308,0.09907156229019165,-0.11353977024555206,-0.019526183605194092,0.12297515571117401,-0.09595976769924164,0.08310042321681976,-0.08818605542182922,0.09892211854457855,0.0012515783309936523,-0.08666074275970459,0.12472352385520935,-0.02300266921520233,-0.004704579710960388,-0.05831937491893768,-0.07039164006710052,0.0774916261434555,-0.06585170328617096,0.09518830478191376,0.10964283347129822,-0.03659144043922424,0.08294022083282471,-0.11033377051353455,0.11933018267154694,0.0696982592344284,-0.07007333636283875,-0.01049049198627472,-0.03287050127983093,0.07539519667625427,0.05126945674419403,0.10171079635620117,0.10403472185134888,-0.025096282362937927,-0.02847285568714142,0.10934831202030182,-0.08771105110645294,-0.061015039682388306,0.08010251820087433,0.026716560125350952,0.04879719018936157,0.0779259204864502,-0.01013307273387909,0.09072360396385193,0.030366018414497375,-0.08588089048862457,0.1097685843706131,0.0747377872467041,-0.03578220307826996,0.11404286324977875,0.0055961161851882935,0.10918983817100525,0.08188214898109436,-0.03246024250984192,0.06629005074501038,0.031103968620300293,-0.044154271483421326,0.07270596921443939,-0.07384690642356873,-0.026536837220191956,0.0661269873380661,-0.05429711937904358,-0.040574729442596436,-0.08317963778972626,-0.026959136128425598,0.053208187222480774,-0.0016841292381286621,-0.10560066998004913,0.12178587913513184,0.110842764377594,-0.06961306929588318,0.04964892566204071,0.09214457869529724,0.09244221448898315,0.10731233656406403,0.007221490144729614,-0.09876814484596252,0.014077797532081604,0.071616530418396,0.00822421908378601,0.014391794800758362,-0.1213478147983551,0.07855665683746338,-0.10257549583911896,0.03180038928985596,0.04736906290054321,0.08496251702308655,0.06854575872421265,-0.004615187644958496,-0.09987419843673706,0.061371222138404846,-0.05329082906246185,-0.10236147046089172,0.045779258012771606,-0.08613669872283936,0.0007415860891342163,0.09804713726043701,0.0633750855922699,-0.01800912618637085,-0.017331302165985107,0.12037625908851624,0.11269104480743408,-0.060803428292274475,-0.044438108801841736,-0.029887422919273376,-0.10986700654029846,0.11213754117488861,-0.02848014235496521,-0.03335009515285492,0.030533328652381897,0.04075153172016144,-0.008353352546691895,-0.04840780794620514,0.04401928186416626,-0.09947793185710907,0.04484407603740692,-0.12148138880729675,-0.0042948126792907715,-0.05753280222415924,0.08442047238349915,0.02146013081073761,0.09125268459320068,-0.10246999561786652,-0.07439218461513519,0.07855011522769928,0.005062192678451538,0.0009268373250961304,0.09674443304538727,0.05237632989883423,-0.036773681640625,0.10350540280342102,-0.06119312345981598,-0.10282506048679352,-0.0037731975317001343,0.022282123565673828,0.030584946274757385,0.08420561254024506,-0.05323697626590729,0.04308752715587616,-0.03587363660335541,-0.07333371043205261,0.07628846168518066,-0.11575871706008911,0.021459102630615234,0.01933540403842926,-0.08276152610778809,0.05494643747806549,0.029593467712402344,0.07782681286334991,0.0903441309928894,-0.022366419434547424,0.11922794580459595,0.03861613571643829,-0.10407200455665588,0.0496743768453598,-0.06767694652080536,-0.02059440314769745,0.0174848735332489,-0.02689330279827118,0.03937055170536041,0.004743367433547974,-0.09186258912086487,-0.11066718399524689,-0.020870402455329895,-0.022427886724472046,0.03893633186817169,0.03788450360298157,-0.03241267800331116,0.09423336386680603,-0.11280389130115509,0.006559103727340698,-0.08529655635356903,-0.03306169807910919,-0.00541628897190094,0.07445424795150757,-0.0587335079908371,0.03941456973552704,-0.09752565622329712,-0.01134297251701355,-0.09907393157482147,-0.044727787375450134,-0.03717784583568573,-0.001542016863822937,-0.05285876989364624,-0.06576412916183472,-0.027278319001197815,0.08050838112831116,0.0016583800315856934,0.10235874354839325,-0.04492555558681488,0.05752702057361603,-0.10828883945941925,-0.09810806810855865,0.05917420983314514,0.056451842188835144,-0.09165337681770325,0.03457863628864288,0.004910871386528015,-0.06715215742588043,-0.061368897557258606,-0.09467591345310211,-0.09198564291000366,-0.055632829666137695,0.12254869937896729,0.0321846604347229,-0.11853162944316864,0.11484439671039581,-0.04000359773635864,0.11663225293159485,0.06298218667507172,0.09187564253807068,-0.09950877726078033,0.038383156061172485,-0.08201707899570465,-0.11952410638332367,0.10446852445602417,-0.08367575705051422,-0.06846974790096283,-0.0001748800277709961,0.06661826372146606,0.05610460042953491,-0.024927273392677307,-0.028820499777793884,-0.05046287178993225,0.08161617815494537,0.004053756594657898,0.06645971536636353,-0.053879112005233765,0.04377584159374237,0.02047833800315857,0.024687260389328003,0.0881001353263855,-0.11637835204601288,0.015848681330680847,0.02752670645713806,0.09634393453598022,-0.04648438096046448,0.09886500239372253,0.09838715195655823,0.08493958413600922,0.08395229279994965,0.04597674310207367,-0.09137730300426483,0.03990788757801056,0.08012717962265015,0.07306152582168579,-0.027701690793037415,-0.031832724809646606,-0.11825154721736908,-0.07333149015903473,-0.0632319450378418,-0.118750661611557,-0.07577979564666748,0.07949033379554749,-0.09639658033847809,0.06504878401756287,-0.10325197875499725,-0.10717779397964478,0.09107089042663574,-0.019451409578323364,0.0842636376619339,-0.04710301756858826,-0.041818588972091675,-0.1214321106672287,0.12203089892864227,0.10368044674396515,-0.10555794835090637,-0.10613968968391418,0.08495211601257324,0.09639379382133484,0.09377022087574005,-0.07254907488822937,-0.07747425138950348,-0.050555452704429626,0.08353163301944733,-0.04180474579334259,-0.05539590120315552,-0.08363507688045502,0.02014806866645813,0.081739142537117,0.10854996740818024,-0.11465397477149963,0.006631523370742798,0.09608930349349976,0.04638633131980896,0.040263980627059937,0.04654684662818909,-0.017060473561286926,-0.10984718799591064,0.0216662734746933,-0.08503876626491547,0.00238974392414093,-0.06842340528964996,0.062350913882255554,0.036864638328552246,0.09359824657440186,0.09642522037029266,0.05300144851207733,-0.01160857081413269,-0.022040680050849915,-0.002111688256263733,0.019981861114501953,0.07606406509876251,-0.05525282025337219,-0.0072867125272750854,0.0975959450006485,0.04227539896965027,0.09537538886070251,0.0464552640914917,0.10202334821224213,0.013525620102882385,0.07486322522163391,-0.028412625193595886,-0.05021817982196808,-0.12091818451881409,-0.0802193433046341,-0.11154088377952576,-0.12498384714126587,-0.01606212556362152,-0.10756537318229675,-0.05960138142108917,0.028530344367027283,-0.06997409462928772,0.12051300704479218,-0.04003933072090149,-0.02589908242225647,0.05470280349254608,0.09673148393630981,-0.017565593123435974,0.06813909113407135,0.013805612921714783,0.07424339652061462,-0.10259619355201721,0.08556661009788513,-0.010576903820037842,-0.07628923654556274,-0.033937230706214905,0.07248678803443909,0.054051145911216736,0.07055896520614624,0.03749343752861023,0.11686918139457703,0.11309638619422913,0.09089808166027069,-0.08263009786605835,-0.067769855260849,-0.0289105623960495,-0.004200264811515808,0.1116856038570404,-0.09664033353328705,0.04617564380168915,-0.018973156809806824,-0.04391631484031677,-0.0015999078750610352,0.06700830161571503,0.10975970327854156,0.07213528454303741,-0.020412608981132507,0.0006985217332839966,-0.057089343667030334,0.03240664303302765,0.007136613130569458,-0.10428623855113983,0.008871346712112427,0.07622033357620239,0.09741298854351044,0.09984730184078217,0.06120668351650238,0.007211536169052124,-0.10902397334575653,-0.11949153244495392,0.10696196556091309,-0.0769197940826416,0.052894845604896545,-0.05159793794155121,0.08649012446403503,0.05360874533653259,-0.036532431840896606,0.07761140167713165,0.07860992848873138,-0.06373186409473419,0.10477136075496674,0.07514509558677673,0.11844033002853394,-0.0710049569606781,-0.0482613742351532,-0.010786369442939758,-0.0915900319814682,-0.04413232207298279,0.04648822546005249,0.11428366601467133,-0.054507553577423096,0.027376309037208557,0.05361302196979523,-0.1073673665523529,0.007902055978775024,-0.10017609596252441,-0.016731083393096924,-0.08547733724117279,0.055594563484191895,0.0828852504491806,0.0699794590473175,-0.09952357411384583,0.011346414685249329,0.09449005126953125,-0.04593881964683533,-0.015712246298789978,0.056356415152549744,-0.1149107813835144,0.07188142836093903,-0.10837483406066895,-0.10165329277515411,0.10567882657051086,-0.0013627111911773682,-0.01457415521144867,-0.10143493115901947,-0.11196431517601013,0.06094875931739807,0.05644999444484711,-0.07276347279548645,0.061585307121276855,0.04968555271625519,0.09927673637866974,0.009760275483131409,0.1111660748720169,-0.055779099464416504,-0.007154002785682678,0.030185461044311523,-0.024482667446136475,0.09556911885738373,-0.04257155954837799,-0.10061194002628326,0.08404387533664703,0.11822667717933655,-0.10119041800498962,-0.0707453191280365,-0.08595584332942963,0.03631104528903961,0.05055105686187744,-0.1196756511926651,0.11299586296081543,-0.1084953248500824,0.057143643498420715,0.049574896693229675,-0.06492350995540619,-0.076252281665802,-0.0663222223520279,-0.00209181010723114,-0.07926307618618011,-0.068692147731781,-0.022040262818336487,-0.0893421620130539,-0.019810274243354797,0.009615004062652588,0.03257186710834503,-0.02809995412826538,-0.005862772464752197,-0.007900908589363098,-0.10154098272323608,-0.053608238697052,-0.08638004958629608,0.11559340357780457,0.09002365171909332,0.03149378299713135,0.054968178272247314,-0.05538153648376465,0.0657086968421936,0.03224903345108032,0.1108814924955368,-0.027557790279388428,-0.03571784496307373,-0.12339948117733002,-0.1136484295129776,0.01854628324508667,-0.06410734355449677,-0.09637092053890228,-0.0683109313249588,-0.11275428533554077,-0.10618947446346283,0.02817097306251526,0.12230008840560913,0.10436658561229706,-0.024757564067840576,-0.04911932349205017,0.06695875525474548,0.02335032820701599,-0.04348437488079071,0.09358206391334534,-0.10901619493961334,0.11104808747768402,-0.11966145038604736,-0.11010503768920898,-0.00018158555030822754,-0.10624130070209503,0.08042848110198975,-0.041772544384002686,0.07813791930675507,0.1045123040676117,-0.1212792694568634,-0.066950723528862,-0.009558483958244324,0.07571572065353394,0.06568853557109833,0.042239993810653687,-0.08800716698169708,-0.06256173551082611,0.11963632702827454,-0.124178946018219,-0.10914565622806549,-0.09797684848308563,0.07168374955654144,0.09891475737094879,0.07614673674106598,0.020183861255645752,-0.010898619890213013,-0.061119407415390015,0.00916607677936554,-0.050880178809165955,-0.06896720826625824,0.05696567893028259,-0.02169264853000641,-0.019283220171928406,-0.08687952160835266,-0.04546916484832764,0.10819609463214874,0.10138972103595734,0.03371270000934601,-0.06751596927642822,0.09279356896877289,-0.11872053146362305,-0.06367911398410797,-0.06179499626159668,-0.0603410005569458,0.08115281164646149,-0.08934761583805084,-0.07953064143657684,-0.04770728945732117,-0.07041281461715698,0.06390383839607239,0.00877690315246582,0.05250072479248047,-0.031975314021110535,-0.06873875856399536,-0.007537335157394409,0.05517163872718811,0.08446747064590454,0.010904952883720398,-0.034304603934288025,-0.025864705443382263,-0.08772756159305573,-0.049396395683288574,0.0017024427652359009,-0.07321608066558838,-0.11738476157188416,-0.09966123104095459,0.011061757802963257,0.11019891500473022,0.04347698390483856,-0.0484931617975235,-0.005304262042045593,-0.04461200535297394,0.07571588456630707,-0.0816095769405365,0.06299427151679993,-0.11837251484394073,0.11564809083938599,-0.09128005802631378,0.091761514544487,-0.0818212628364563,-0.02487531304359436,-0.11508169770240784,0.04251165688037872,0.11183398962020874,0.05465179681777954,-0.11207005381584167,-0.10066351294517517,-0.1043233573436737,-0.011736288666725159,-0.02639414370059967,0.11230278015136719,-0.03769189119338989,-0.07554323971271515,0.035472214221954346,0.020822778344154358,0.10784779489040375,-0.08281974494457245,-0.06450672447681427,0.05969749391078949,-0.05512969195842743,0.0003678351640701294,0.03436043858528137,0.11866018176078796,-0.11312013864517212,0.043761879205703735,-0.05172668397426605,-0.0926414430141449,0.07444740831851959,0.12437775731086731,-0.04165998101234436,-0.01141628623008728,0.05685324966907501,0.03625693917274475,-0.11530356109142303,-0.12172503769397736,-0.11998690664768219,0.08396267890930176,0.07963469624519348,-0.04626882076263428,-0.09743699431419373,0.117408886551857,-0.09114640951156616,0.027118965983390808,-0.01773272454738617,0.03713257610797882,0.0767500251531601,0.09022162854671478,-0.10843773186206818,-0.03943902254104614,-0.01329357922077179,0.08510877192020416,-0.04926510155200958,0.044226258993148804,-0.07891811430454254,-0.05873970687389374,-0.01588711142539978,0.10699722170829773,0.022363990545272827,0.019833579659461975,-0.08810226619243622,0.0660780519247055,0.04614384472370148,-0.12358243763446808,0.09264646470546722,-0.10472854971885681,0.03937213122844696,0.0997413694858551,0.05148465931415558,-0.04698246717453003,-0.08317562937736511,0.10276025533676147,0.03668396174907684,-0.006556227803230286,-0.11404697597026825,-0.07869257032871246,-0.07307696342468262,0.09709271788597107,-0.08505801856517792,-0.08486708998680115,0.03576916456222534,-0.011185303330421448,-0.002392321825027466,0.10708975791931152,0.06004303693771362,0.08624203503131866,0.029868558049201965,-0.05205738544464111,-0.050024330615997314,-0.11613599956035614,-0.06363412737846375,-0.1237025111913681,0.053661614656448364,-0.05973343551158905,-0.05294984579086304,0.0771772712469101,0.04153601825237274,-0.12404601275920868,0.08867944777011871,-0.04880455136299133,0.019436657428741455,-0.022323966026306152,0.029831305146217346,-0.016598790884017944,-0.10976341366767883,-0.05628255009651184,-0.10033711791038513,-0.12280015647411346,0.0048513263463974,-0.008938834071159363,-0.07186189293861389,-0.05857826769351959,0.06867194175720215,-0.029690638184547424,-0.07437530159950256,0.10586267709732056,0.11230063438415527,-0.09692317247390747,-0.1158575564622879,0.11479586362838745,-0.08913399279117584,-0.07906496524810791,-0.015070274472236633,0.04198405146598816,-0.12068431079387665,0.10909527540206909,0.014623239636421204,0.007020816206932068,-0.032203927636146545,-0.05651523172855377,-0.11285050213336945,0.024853497743606567,-0.0835125744342804,-0.08682920038700104,-0.05437561869621277,-0.11260995268821716,0.09220461547374725,0.11113426089286804,-0.0006573200225830078,0.061524808406829834,0.03974662721157074,0.11715826392173767,0.04110163450241089,-0.12337557971477509,-0.046296730637550354,0.07361185550689697,0.041906699538230896,0.10763019323348999,0.04201596975326538,0.026497215032577515,-0.10310642421245575,0.023654788732528687,0.053126707673072815,-0.09983055293560028,-0.11249786615371704,-0.07874538004398346,-0.11137573421001434,-0.04486803710460663,-0.09833408892154694,0.11408843100070953,-0.0422968715429306,-0.032963916659355164,0.07796250283718109,-0.018038764595985413,-0.0923721045255661,-0.01274612545967102,-0.07815676927566528,-0.0857851654291153,-0.08969263732433319,-0.06479033827781677,-0.11731182038784027,-0.06851273775100708,-0.030481860041618347,-0.07889772951602936,0.12387798726558685,0.10778959095478058,-0.005959466099739075,0.09591378271579742,0.05730658769607544,-0.08671952784061432,0.09395784139633179,0.007907599210739136,0.04441925883293152,0.01942358911037445,0.029089927673339844,0.06619000434875488,-0.02214314043521881,0.0062634944915771484,0.11654095351696014,0.0655696839094162,-0.0509067177772522,0.09691984951496124,0.12358909845352173,0.09125703573226929,-0.05252434313297272,-0.10759098827838898,-0.11663898825645447,-0.12381082773208618,-0.03584519028663635,0.09317201375961304,-0.08902862668037415,-0.07954719662666321,0.10333675146102905,0.05912292003631592,-0.050606027245521545,-0.1006774753332138,0.1091461181640625,-0.10622909665107727,-0.03419232368469238,0.10113033652305603,-0.04247651994228363,0.11799682676792145,-0.07109136879444122,0.010614067316055298,0.04599085450172424,-0.042047083377838135,-0.008353084325790405,0.08916011452674866,0.07852247357368469,0.0885024219751358,0.05734921991825104,0.034295618534088135,0.12284250557422638,0.05479517579078674,0.09410335123538971,-0.10672783851623535,-0.07549895346164703,0.028999492526054382,0.07245075702667236,0.018205374479293823,-0.06373204290866852,-0.10273759067058563,0.11134149134159088,0.07057708501815796,0.08745847642421722,0.014418467879295349,0.05017271637916565,0.04138028621673584,0.006508097052574158,0.04394085705280304,-0.002100840210914612,0.007553726434707642,0.0987497866153717,0.05694463849067688,-0.07491904497146606,-0.0656941831111908,0.06740091741085052,0.06465697288513184,0.08512678742408752,0.07152090966701508,0.04701754450798035,0.08852420747280121,-0.06267556548118591,0.1007598489522934,-0.015824317932128906,0.10568356513977051,-0.05933472514152527,0.07148468494415283,-0.05500440299510956,0.09489531815052032,0.007012128829956055,0.09125882387161255,-0.10638377070426941,-0.0704386830329895,-0.007010698318481445,-0.06334841251373291,0.0840722918510437,-0.06253357231616974,-0.04544024169445038,0.017221882939338684,0.04248720407485962,0.06429725885391235,-0.023610919713974,0.05053427815437317,0.04976819455623627,-0.07079705595970154,-0.0626220554113388,-0.002665698528289795,0.11727702617645264,0.057523325085639954,0.020920470356941223,0.0682058036327362,0.06664241850376129,0.03361862897872925,-0.039028242230415344,0.07646220922470093,-0.11981093883514404,0.12199443578720093,0.08678510785102844,0.10438258945941925,-0.030266746878623962,-0.09906913340091705,-0.11207486689090729,-0.1116691529750824,-0.06123027205467224,0.03517031669616699,0.061089858412742615,0.051461681723594666,0.12289731204509735,0.09517799317836761,0.09676739573478699,0.0813484638929367,0.000863194465637207,0.010126933455467224,0.05397555232048035,0.1034260243177414,0.06640368700027466,0.02203419804573059,-0.04047928750514984,0.07116463780403137,-0.027715325355529785,-0.09138955175876617,0.11182084679603577,0.011149808764457703,-0.04342931509017944,-0.10731241106987,-0.09228631854057312,0.12028944492340088,-0.0746806412935257,-0.049062639474868774,-0.034569308161735535,0.013692736625671387,-0.11023767292499542,0.09468500316143036,-0.06907449662685394,-0.11937946081161499,0.0351044237613678,-0.036650627851486206,-0.11202669143676758,0.10653863847255707,-0.12242230772972107,-0.09244759380817413,-0.11625944077968597,0.003612011671066284,-0.05263671278953552,0.02995564043521881,0.09460750222206116,-0.07718189060688019,-0.11532367765903473,-0.06527994573116302,-0.08837197721004486,0.08015784621238708,0.11827071011066437,-0.0952015072107315,0.037000760436058044,-0.05347737669944763,-0.07422222197055817,0.04859636723995209,-0.025160297751426697,-0.0746510922908783,-0.11346876621246338,0.020346179604530334,-0.02565537393093109,0.09530164301395416,0.04123134911060333,0.09348045289516449,0.02593664824962616,-0.10783989727497101,0.09613814949989319,0.10785618424415588,-0.04556109011173248,-0.12406167387962341,0.036566361784935,-0.046688079833984375,-0.11662277579307556,0.07203280925750732,-0.05570109188556671,-0.0732789933681488,0.09981916844844818,-0.02444283664226532,-0.06388361752033234,-0.02587057650089264,0.06849940121173859,0.11277806758880615,-0.0779101699590683,-6.382167339324951e-05,-0.04131673276424408,0.003774479031562805,-0.022797763347625732,-0.014559432864189148,0.07607051730155945,0.11889968812465668,-0.04111017286777496,0.11401775479316711,-0.11842846870422363,0.11984264850616455,0.048507362604141235,-0.11766213178634644,-0.01716218888759613,0.09309302270412445,-0.0346507728099823,0.03733183443546295,-0.07575388252735138,0.04305000603199005,-0.09461705386638641,-0.08412331342697144,-0.07821348309516907,-0.12353773415088654,0.12497946619987488,-0.09563104808330536,-0.11043864488601685,0.0986451804637909,-0.12497690320014954,0.12221834063529968,-0.1109309196472168,0.11470471322536469,0.07463094592094421,-0.1224326640367508,0.09765145182609558,-0.09428782761096954,-0.02098877727985382,0.04123970866203308,-0.08652451634407043,0.048740118741989136,0.08832801878452301,-0.12212729454040527,-0.029999569058418274,-0.05760617554187775,0.03497786819934845,-0.024047255516052246,-0.02048693597316742,0.09149718284606934,-0.049661263823509216,0.03492501378059387,0.04807257652282715,0.011461064219474792,-0.019713103771209717,0.04351513087749481,-0.025906875729560852,0.01570652425289154,0.09109778702259064,-0.026432499289512634,0.04486262798309326,-0.003089040517807007,0.02799917757511139,-0.0047941505908966064,0.0028282999992370605,-0.09189358353614807,-0.04486164450645447,0.12330703437328339,0.04641060531139374,0.0683305561542511,0.10327880084514618,0.04775102436542511,-0.05291096866130829,0.09252661466598511,-0.08944976329803467,-0.09932531416416168,0.11533041298389435,-0.09948405623435974,0.07234779000282288,0.0564081072807312,-0.013174012303352356,-0.006760463118553162,0.002467140555381775,0.09397684037685394,0.028011873364448547,0.06211797893047333,-0.09932057559490204,-0.06598260998725891,-0.08866798877716064,0.05435454845428467,-0.05864374339580536,0.09668214619159698,0.028708472847938538,0.04373916983604431,0.09378047287464142,0.040989965200424194,-0.10796722769737244,0.11610645055770874,-0.048288390040397644,-0.0875287652015686,-0.006422877311706543,0.0018014013767242432,0.0560893714427948,-0.03171892464160919,0.05686686933040619,0.08581538498401642,-0.015470504760742188,0.09689213335514069,-0.027326300740242004,-0.05854363739490509,0.09763027727603912,-0.012781962752342224,0.06771399080753326,-0.06283488869667053,0.08076590299606323,0.09088253974914551,-0.07958218455314636,0.033055320382118225,-0.025924280285835266,-0.0596364289522171,0.10336501896381378,0.04224526882171631,0.10174359381198883,0.043427661061286926,0.10598774254322052,-0.1164051741361618,0.12104125320911407,0.03742797672748566,0.018795877695083618,0.043939292430877686,-0.046214714646339417,0.09626160562038422,0.05813312530517578,-0.004203468561172485,-0.10112860798835754,0.024328917264938354,-0.015543460845947266,-0.08012525737285614,0.02027009427547455,0.0030442029237747192,0.01441781222820282,0.06382381916046143,0.055313512682914734,0.06403075158596039,-0.04496011137962341,-0.04120573401451111,-0.03182877600193024,-0.11977720260620117,-0.06655266880989075,-0.08350367844104767,-0.023249924182891846,-0.08699484169483185,0.008090227842330933,0.006908804178237915,-0.018049776554107666,0.07445481419563293,0.023747518658638,0.0780780017375946,0.0878223180770874,-0.09305459260940552,0.04587365686893463,0.10413594543933868,-0.05703151226043701,0.06464333832263947,0.04661773145198822,-0.021537601947784424,0.03637866675853729,0.0953955203294754,-0.11966586112976074,-0.013296902179718018,0.08276231586933136,-0.020265981554985046,-0.0039940327405929565,0.061732590198516846,-0.086026132106781,0.09470139443874359,-0.03816530108451843,0.06938885152339935,0.09414713084697723,-0.11317278444766998,-0.02861294150352478,0.11021173000335693,-0.09157967567443848,0.04480279982089996,0.07957074046134949,0.04235990345478058,-0.029602214694023132,0.07204265892505646,0.0949021726846695,-0.09717260301113129,-0.08215758204460144,0.004868954420089722,0.09817549586296082,0.09227609634399414,-0.009354323148727417,0.05176818370819092,-0.12347312271595001,-0.10825589299201965,-0.047119155526161194,0.037307679653167725,-0.09053552150726318,-0.027094587683677673,-0.03186558187007904,0.11703436076641083,0.08862493932247162,0.09850229322910309,0.0124053955078125,0.08194093406200409,-0.11036841571331024,-0.009670674800872803,-0.11150872707366943,-0.061243340373039246,0.06169690191745758,0.06776176393032074,-0.03293338418006897,0.10121582448482513,0.1173878014087677,0.1111377477645874,-0.09750288724899292,0.005178585648536682,-0.05619324743747711,-0.015458598732948303,0.0423557311296463,0.05498300492763519,-0.1103791743516922,-0.06048361957073212,-0.055834874510765076,-0.0813860297203064,-0.06652624905109406,-0.05443570017814636,0.020426571369171143,0.06740100681781769,-0.03323994576931,-0.09387664496898651,-0.07626365125179291,0.11156098544597626,-0.10122379660606384,0.03940533101558685,-0.11751668155193329,0.12377282977104187,-0.11640793085098267,-0.07430785894393921,-0.022163227200508118,0.0510631799697876,-0.08530151844024658,-0.04150901734828949,-0.08939456939697266,-0.05718608200550079,-0.05224333703517914,0.10947690904140472,0.1212845891714096,0.12427973747253418,0.09853273630142212,-0.0040312260389328,0.0026950985193252563,0.11955225467681885,-0.06698364019393921,-0.12387026846408844,0.11146204173564911,0.09347091615200043,0.032162413001060486,0.057778000831604004,0.06712311506271362,0.06123705208301544,0.10223561525344849,0.062145233154296875,0.10166211426258087,0.1143527626991272,0.07545545697212219,-0.05111856758594513,0.08596697449684143,0.08182962238788605,-0.11096347868442535,-0.07583814859390259,-0.06451264023780823,0.0489499568939209,0.01915554702281952,0.05170145630836487,-0.049371957778930664,-0.12451094388961792,0.10609932243824005,-0.11614494025707245,-0.003689095377922058,0.06421521306037903,0.012748241424560547,-0.07160556316375732,0.008521825075149536,0.1074933260679245,0.016263872385025024,-0.1060546487569809,0.11359886825084686,-0.06609457731246948,-0.08664862811565399,0.11682432889938354,0.057718053460121155,0.07954283058643341,-0.06636722385883331,-0.0662749856710434,-0.016511812806129456,-0.07957853376865387,0.06357775628566742,0.06793215870857239,0.1047443151473999,-0.005157023668289185,-0.0369829386472702,-0.028635293245315552,-0.12200278043746948,0.0654975026845932,-0.10406516492366791,0.029089942574501038,-0.11584712564945221,-0.10842500627040863,0.03816172480583191,0.053893208503723145,-0.005134314298629761,0.06486894190311432,0.0844942182302475,-0.09571477770805359,-0.01589110493659973,-0.0052153319120407104,-0.03887975215911865,0.12410876154899597,0.035429567098617554,0.029247760772705078,0.0984109491109848,0.054657116532325745,-0.10285308957099915,-0.0034011751413345337,0.020772457122802734,0.10335254669189453,-0.0026757270097732544,-0.002932712435722351,0.052616119384765625,-0.04587744176387787,-0.060320064425468445,-0.026252344250679016,-0.030973032116889954,-0.01622191071510315,-0.08560605347156525,-0.11891654133796692,0.08816426992416382,0.08646178245544434,-0.0254686176776886,0.0398215651512146,-0.07406289875507355,0.012353092432022095,0.04133819043636322,-0.09845471382141113,0.01195661723613739,0.11498653888702393,0.01166372001171112,-0.11232918500900269,0.06259343028068542,0.12322965264320374,-0.10544848442077637,-0.09605289995670319,-0.01084427535533905,0.06377334892749786,-0.04762573540210724,-0.08271834254264832,-0.033964067697525024,0.12433686852455139,-0.009912580251693726,0.05917873978614807,-0.03119717538356781,0.09848414361476898,0.04689010977745056,0.08730866014957428,0.03649717569351196,-0.08237496018409729,0.006976336240768433,0.03393609821796417,0.037454113364219666,0.025492385029792786,0.06519511342048645,0.055747464299201965,-0.10679760575294495,-0.05907708406448364,-0.11735545098781586,0.014002710580825806,0.11998049914836884,0.07219459116458893,0.03864362835884094,0.05834135413169861,0.042028605937957764,-0.009507864713668823,0.03402876853942871,-0.04018847644329071,0.11114685237407684,0.0456354022026062,0.06624799966812134,-0.009198561310768127,-0.04116727411746979,0.03011856973171234,-0.059058815240859985,-0.012851163744926453,0.06413479149341583,-0.07515271008014679,0.1041259616613388,-0.0013752281665802002,0.06712606549263,-0.11843949556350708,0.007102951407432556,-0.08902181684970856,-0.1191190630197525,0.009184569120407104,-0.11043111979961395,0.0383685827255249,0.08204406499862671,0.00993858277797699,0.08455760776996613,0.09022103250026703,-0.011389687657356262,0.029894009232521057,0.09979182481765747,-0.03788113594055176,0.06921885907649994,-0.0185089111328125,0.043215975165367126,0.12078504264354706,0.10394880175590515,0.08619266748428345,-0.009692668914794922,0.03400386869907379,0.052437856793403625,0.044429272413253784,-0.0980030745267868,0.0008680522441864014,-0.06319083273410797,-0.042835742235183716,0.051706209778785706,0.027144625782966614,0.00630614161491394,-0.033802539110183716,0.08585706353187561,0.06110005080699921,0.047132670879364014,0.05107802152633667,-0.11320129036903381,0.02710650861263275,0.08122101426124573,-0.12407103180885315,-0.0850195437669754,0.11273927986621857,0.10654154419898987,-0.06878384947776794,-0.061413198709487915,0.06816688179969788,0.06992071866989136,0.013087108731269836,-0.10203658044338226,0.08602970838546753,-0.04251047968864441,-0.06132729351520538,0.013371095061302185,-0.11808367073535919,0.05752640962600708,0.018542781472206116,-0.08292385935783386,0.007120922207832336,-0.10421979427337646,0.006688863039016724,0.06734901666641235,-0.030107706785202026,-0.03404417634010315,-0.02188803255558014,-0.05611032247543335,-0.05827134847640991,0.08273807168006897,0.08836275339126587,0.05625738203525543,0.05145227909088135,-0.0836559385061264,0.04833514988422394,-0.06659890711307526,-0.07156023383140564,0.08992156386375427,0.03639417886734009,-0.08347149193286896,-0.04475359618663788,0.08102205395698547,0.017804265022277832,-0.04937748610973358,0.06519670784473419,-0.07179407775402069,0.045837581157684326,0.044604793190956116,0.05663125216960907,4.433095455169678e-05,0.12035365402698517,-0.1039654016494751,-0.001979053020477295,-0.08428464829921722,0.11410550773143768,-0.09320083260536194,-0.045869648456573486,0.12049347162246704,0.0977882593870163,-0.08100195229053497,0.05917114019393921,0.09190160036087036,0.05099278688430786,-0.016353264451026917,0.024754926562309265,0.060687288641929626,0.04366357624530792,0.0010019540786743164,0.05605913698673248,-0.09014138579368591,0.0932028591632843,-0.06471696496009827,0.09662370383739471,0.03333348035812378,-0.01334334909915924,0.0727025717496872,-0.05241081118583679,0.10335010290145874,-0.07703807950019836,-0.08886796236038208,0.025585994124412537,-0.10496185719966888,-0.10948212444782257,0.03254154324531555,0.12315528094768524,-0.0714607834815979,-0.03514847159385681,-0.007464513182640076,-0.07812793552875519,-0.0673454999923706,0.08999428153038025,-0.02883833646774292,0.038567885756492615,0.07691590487957001,-0.02436445653438568,-0.12206809222698212,-0.09342941641807556,-0.09761287271976471,0.01990826427936554,0.040449127554893494,0.10695706307888031,0.04594351351261139,-0.032867565751075745,0.065473273396492,0.090907022356987,0.044047147035598755,-0.11658509075641632,-0.08267730474472046,-0.120351642370224,0.08267217874526978,0.0648009181022644,0.011684343218803406,-0.050869137048721313,0.051384374499320984,0.09059345722198486,0.04203297197818756,-0.06758138537406921,0.022405296564102173,0.039056167006492615,-0.0009972155094146729,-0.11759600043296814,0.055800244212150574,-0.019961848855018616,0.034084856510162354,0.09727229177951813,0.011024147272109985,-0.06787481904029846,-0.03933537006378174,0.02241399884223938,0.08624975383281708,-0.06495459377765656,-0.09069174528121948,-0.007593438029289246,0.021067634224891663,-0.09213732182979584,-0.10294993221759796,0.09527115523815155,-0.05306488275527954,0.005412936210632324,-0.1202121376991272,0.034268349409103394,0.01165415346622467,0.08461791276931763,-0.05552709102630615,0.052000537514686584,-0.007564708590507507,0.12289789319038391,0.009165778756141663,0.06902718544006348,0.008162200450897217,-0.0508820116519928,-0.057651370763778687,0.10603699088096619,-0.04064686596393585,-0.11583632230758667,0.1091090589761734,0.04024018347263336,0.03415907919406891,-0.03962185978889465,0.04533933103084564,-0.07371547818183899,0.10423758625984192,0.045487359166145325,0.10701040923595428,-0.09405213594436646,0.007080569863319397,0.027674272656440735,0.0919402688741684,0.05355587601661682,-0.07592952251434326,0.04602861404418945,-0.0010897070169448853,-0.05508360266685486,-0.1151115894317627,0.05947531759738922,-0.01399579644203186,-0.005623519420623779,-0.08796784281730652,0.04809087514877319,-0.06866408884525299,0.11730334162712097,0.030073896050453186,-0.01022396981716156,0.02854306995868683,0.02711571753025055,-0.03732581436634064,0.10713982582092285,0.03392620384693146,0.09645199775695801,-0.00225280225276947,0.11693330109119415,0.025192096829414368,-9.88394021987915e-05,-0.06223534047603607,-0.040553539991378784,-0.06626974046230316,0.06902517378330231,-0.09143677353858948,0.11185654997825623,0.11446735262870789,-0.07887369394302368,-0.06189848482608795,0.0806368887424469,-0.06621377170085907,-0.07106368243694305,-0.05444249510765076,0.11176407337188721,-0.06449359655380249,-0.032249435782432556,0.003074437379837036,0.051021233201026917,-0.039220258593559265,-0.037472113966941833,-0.06571732461452484,0.08092021942138672,-0.02894619107246399,-0.005487337708473206,0.11806333065032959,0.10696007311344147,-0.0027738213539123535,-0.11263562738895416,-0.04099811613559723,-0.05146843194961548,0.09045101702213287,0.09273618459701538,0.028105363249778748,-0.0954308956861496,0.045669227838516235,-0.07590100169181824,-0.04053816199302673,-0.05882939696311951,-0.0012775957584381104,0.04977697134017944,-0.06681370735168457,0.04724439978599548,0.10556705296039581,0.0392083078622818,-0.037653908133506775,0.07950089871883392,-0.10896030068397522,0.0226002037525177,-0.03214620053768158,0.030184969305992126,-0.09501457214355469,0.04689262807369232,-0.10913333296775818,0.05665202438831329,0.010263532400131226,-0.007134974002838135,0.07098625600337982,-0.10081392526626587,0.016365543007850647,-0.07109402120113373,-0.050274163484573364,0.05634060502052307,-0.08205720782279968,-0.12053149938583374,-0.042420580983161926,-0.10564370453357697,0.033486783504486084,0.08508750796318054,-0.12186993658542633,0.10440956056118011,-0.08578211069107056,0.013232052326202393,0.09668098390102386,-0.06693576276302338,-0.024419337511062622,0.08889520168304443,0.08840179443359375,0.027228236198425293,-0.040425658226013184,-0.12437617778778076,0.10735462605953217,0.04044333100318909,-0.05406069755554199,-0.09382183849811554,0.03122381865978241,0.0811491310596466,-0.1092744916677475,0.10982167720794678,-0.07841698825359344,0.0655968189239502,-0.008524671196937561,-0.10069526731967926,-0.03827916085720062,0.07250611484050751,0.031034931540489197,0.042424097657203674,0.09913212060928345,-0.05674371123313904,-0.031971827149391174,0.06882983446121216,-0.041555240750312805,0.12444105744361877,0.05519464612007141,0.07678687572479248,-0.009175717830657959,0.10065062344074249,-0.024095043540000916,0.026318296790122986,0.05747117102146149,0.061659783124923706,-0.1099558174610138,-0.025404319167137146,-0.08090840280056,0.038088858127593994,0.008586540818214417,-0.11174970865249634,0.06584015488624573,-0.11079323291778564,-0.07379128038883209,-0.0863504707813263,-0.011046260595321655,-0.09365299344062805,0.017490312457084656,0.03917863965034485,0.06620724499225616,-0.0624699592590332,-0.03575021028518677,-0.01400098204612732,0.057205215096473694,0.055781811475753784,-0.03393629193305969,0.07495245337486267,0.07565197348594666,-0.039522841572761536,0.06460987031459808,0.06893914937973022,0.06091441214084625,-0.04174982011318207,-0.06207363307476044,0.012324601411819458,-0.0879163146018982,0.12455372512340546,-0.05077272653579712,0.009472444653511047,0.10983830690383911,0.10546745359897614,0.0483856201171875,0.0575033575296402,-0.09532275795936584,-0.11068178713321686,-0.06882071495056152,-0.10343566536903381,0.060744449496269226,-0.010226473212242126,-8.150935173034668e-05,-0.002279996871948242,-0.09916675090789795,0.048573076725006104,0.06205590069293976,0.015178725123405457,-0.08661828935146332,-0.07405947148799896,-0.0018435865640640259,0.005643323063850403,0.006698966026306152,-0.09798246622085571,0.08519567549228668,0.022820383310317993,-0.1158185601234436,0.04578620195388794,-0.0534454882144928,0.010962188243865967,-0.043465763330459595,-0.11310131847858429,-0.1091817319393158,0.03581175208091736,-0.016022861003875732,0.09480664134025574,-0.06560713052749634,-0.10467830300331116,0.03400805592536926,0.043855130672454834,-0.05057042837142944,-0.11397267878055573,-0.02155129611492157,-0.10821937024593353,-0.11042766273021698,0.047945886850357056,0.07830771803855896,0.12360361218452454,-0.05207344889640808,0.024677857756614685,0.11641958355903625,-0.032688021659851074,-0.10590605437755585,0.04903210699558258,0.12419688701629639,0.11539311707019806,-0.08873055875301361,-0.04753744602203369,0.020079880952835083,-0.10444556176662445,0.014176413416862488,-0.11031858623027802,0.0029609352350234985,-0.05044552683830261,0.07308845221996307,0.09248951077461243,-0.049623146653175354,-0.07392896711826324,0.05217447876930237,-0.009537875652313232,0.11576373875141144,-0.07539881765842438,0.01589357852935791,-0.0921507179737091,-0.046434953808784485,-0.1000281423330307,-0.0010901838541030884,0.09089994430541992,0.08591398596763611,-0.05575329065322876,0.014731183648109436,-0.09913326799869537,-0.12454979121685028,-0.06648668646812439,-0.03521387279033661,0.09097003936767578,-0.10065504908561707,-0.10646259784698486,0.015755370259284973,0.09499491751194,-0.010964006185531616,-0.05705198645591736,-0.001729816198348999,-0.09445750713348389,-0.03398074209690094,-0.07627780735492706,-0.027342304587364197,0.0006597638130187988,-0.036981478333473206,-0.00044286251068115234,-0.03083835542201996,-0.0039149075746536255,-0.0037836581468582153,-0.06560589373111725,-0.004267066717147827,-0.018655523657798767,0.037930116057395935,-0.007584169507026672,-0.0629071295261383,-0.03305728733539581,-0.018978193402290344,-0.10927139222621918,0.01970793306827545,0.07175908982753754,-0.023849964141845703,0.11876647174358368,-0.07799513638019562,0.09168002009391785,-0.08963164687156677,-0.012041166424751282,-0.04647214710712433,0.06663328409194946,0.09490685164928436,0.07259248197078705,0.120155468583107,0.05019952356815338,0.01628011465072632,-0.08087329566478729,-0.0911034345626831,-0.03331443667411804,-0.11047030985355377,0.0805649608373642,-0.07425972819328308,0.08426706492900848,0.03444306552410126,0.07956722378730774,0.11638137698173523,0.018418729305267334,0.04747451841831207,-0.12492725253105164,-0.10658033192157745,0.09542682766914368,-0.026206091046333313,0.039209842681884766,-0.02172192931175232,0.1098034679889679,0.1204226016998291,0.01458829641342163,-0.10029667615890503,-0.04795731604099274,-0.11984159052371979,-0.06274446845054626,0.10109584033489227,0.10921400785446167,0.026840105652809143,0.022226467728614807,-0.10278034210205078,-0.02235308289527893,-0.10806606709957123,-0.03976923227310181,-0.007453590631484985,0.11879339814186096,-0.029922664165496826,-0.033803388476371765,-0.03910200297832489,0.08882133662700653,-0.10415878891944885,0.0686202198266983,0.09455753862857819,0.08114680647850037,0.05926050245761871,-0.07502999901771545,-0.06206133961677551,0.008997470140457153,-0.06620949506759644,-0.11910572648048401,0.038407519459724426,0.042083367705345154,-0.06160658597946167,0.046559274196624756,-0.02426530420780182,0.0014944374561309814,-0.015232130885124207,-0.01634560525417328,-0.08296240866184235,0.03657755255699158,-0.05665835738182068,-0.10496310889720917,0.05959013104438782,0.07181665301322937,-0.04453904926776886,-0.0772266536951065,0.027828872203826904,0.10977615416049957,-0.01449643075466156,-0.03765736520290375,0.022837847471237183,0.10882551968097687,-0.030712857842445374,0.06715552508831024,-0.051286473870277405,-0.047255173325538635,0.06575024127960205,0.04014924168586731,-0.07953093945980072,-0.048249900341033936,-0.020998314023017883,0.040528953075408936,0.023010864853858948,0.10640238225460052,-0.08675965666770935,-0.07538549602031708,0.06166926026344299,0.007253751158714294,0.013798892498016357,-0.06126636266708374,0.06929346919059753,0.04565703868865967,-0.03775015473365784,-0.04750284552574158,0.006791263818740845,0.04714585840702057,-0.052275970578193665,0.08496464788913727,-0.11910377442836761,-0.049884095788002014,-0.006559193134307861,0.07223369181156158,0.1200145035982132,-0.06480926275253296,-0.008953362703323364,-0.11546692252159119,0.09229858219623566,-0.11439037322998047,-0.022144436836242676,-0.012486830353736877,0.05177685618400574,0.04651516675949097,0.07432325184345245,-0.09244515001773834,-0.07317796349525452,-0.039909735321998596,0.06894291937351227,0.10240474343299866,0.05194413661956787,0.08315137028694153,-0.050288498401641846,-0.07600155472755432,-0.0694102942943573,-0.0747251957654953,0.017261385917663574,-0.03491620719432831,0.09945559501647949,0.09848637878894806,-0.017033889889717102,0.04174739122390747,-0.0068259090185165405,0.0516984760761261,-0.019338950514793396,-0.04174180328845978,0.1205587387084961,-0.1224527359008789,-0.030642032623291016,-0.040331125259399414,0.06377196311950684,0.012459129095077515,-0.02168308198451996,-0.09499247372150421,-0.04702341556549072,0.021682634949684143,0.024584203958511353,0.03964224457740784,0.08569255471229553,0.0540023148059845,-0.1244383156299591,-0.11417873203754425,-0.09359648823738098,-0.018313273787498474,0.003287598490715027,0.07690954208374023,-0.11683352291584015,0.09049472212791443,-0.03819391131401062,-0.06401084363460541,-0.09512872993946075,0.08292034268379211,-0.0005080252885818481,0.037100598216056824,-0.047470927238464355,-0.11084872484207153,-0.07322169840335846,-0.022399812936782837,-0.0828493982553482,-0.11321666836738586,0.05424471199512482,-0.05554121732711792,0.07320937514305115,0.02585124969482422,-0.09842529892921448,-0.12042684853076935,0.02153240144252777,-0.07097683846950531,-0.03995193541049957,-0.10817936062812805,0.03988581895828247,0.07935266196727753,-0.1216520369052887,0.025937318801879883,-0.057970255613327026,-0.10518600046634674,0.056000858545303345,-0.10479933023452759,9.171664714813232e-05,0.062437206506729126,0.05159667134284973,-0.08409357070922852,0.07617223262786865,-0.05811023712158203,0.07483841478824615,0.08787846565246582,0.07960629463195801,0.026976436376571655,-0.03777949512004852,-0.06033955514431,-0.0029208511114120483,-0.10718540847301483,0.0505867600440979,-0.05146695673465729,-0.039832159876823425,-0.003924250602722168,0.07702930271625519,-0.09197184443473816,0.006920516490936279,0.027268409729003906,0.1157032698392868,-0.07947614789009094,-0.07377299666404724,-0.052892014384269714,0.03907416760921478,0.027321279048919678,-0.08013255894184113,-0.08725464344024658,-0.018153905868530273,0.0966121107339859,0.07161079347133636,-0.09947274625301361,-0.014147132635116577,-0.007033392786979675,0.10576044023036957,0.09799198806285858,-0.08416768908500671,-0.03143158555030823,-0.05979295074939728,-0.03709949553012848,0.017694547772407532,-0.05684381723403931,-0.04299391806125641,0.08280552923679352,-0.07343119382858276,0.05130681395530701,0.09457364678382874,0.09055279195308685,0.015468791127204895,-0.11372798681259155,0.023106053471565247,0.01304037868976593,-0.03821389377117157,-0.09031407535076141,-0.11664819717407227,0.11373062431812286,0.023023530840873718,0.06526857614517212,0.00828656554222107,-0.0036018937826156616,0.052352845668792725,-0.005860477685928345,0.11814157664775848,-0.0018232613801956177,0.12093012034893036,-0.02134336531162262,-0.022154539823532104,-0.015156283974647522,-0.10795730352401733,0.049260661005973816,0.05161274969577789,-0.08470435440540314,-0.11573763191699982,0.025323450565338135,0.018018454313278198,0.0910026878118515,-0.047032952308654785,-0.12036576867103577,-0.111960768699646,0.07045775651931763,0.11765995621681213,-0.11354462802410126,-0.07950656116008759,-0.046123355627059937,0.11650146543979645,0.03491559624671936,-0.07016246020793915,-0.06906870007514954,0.024311408400535583,0.04391053318977356,0.011081472039222717,-0.010596886277198792,0.03802216053009033,0.10739302635192871,0.10976998507976532,-0.10522647202014923,0.06661832332611084,-0.01890765130519867,-0.0145016610622406,0.03355799615383148,0.05277073383331299,-0.10390976071357727,-0.03910014033317566,-0.11199387907981873,0.041604310274124146,-0.07876600325107574,0.013265222311019897,0.014886334538459778,-0.05273924767971039,-0.022569671273231506,-0.03711788356304169,0.049460723996162415,0.030956149101257324,-0.042727380990982056,-0.010875299572944641,0.12231861054897308,-0.0623244047164917,-0.12051847577095032,0.03813183307647705,0.01127694547176361,0.12306927144527435,-0.09065406024456024,-0.11137832701206207,-0.0859648585319519,0.01138448715209961,0.09842026233673096,0.11944195628166199,0.07034924626350403,0.0415235310792923,0.06534169614315033,-0.1136472076177597,0.0277850478887558,-0.07666932046413422,-0.01286761462688446,-0.046422362327575684,0.01677180826663971,0.09877631068229675,0.06567902863025665,-0.07701317965984344,0.04199206829071045,0.10951338708400726,-0.10170939564704895,-0.07969638705253601,0.0903521478176117,-0.1132366955280304,-0.021737873554229736,0.10862880945205688,0.025850728154182434,-0.02916252613067627,-0.01588277518749237,0.12413626909255981,0.04017329216003418,0.11522987484931946,-0.0938841700553894,0.018916219472885132,-0.056087225675582886,0.0845310389995575,0.050530314445495605,0.11696727573871613,-0.04948320984840393,0.0513933002948761,0.08842051029205322,-0.0076227933168411255,0.11525282263755798,0.01599036157131195,-0.010726496577262878,0.08150559663772583,0.06540048122406006,-0.045837998390197754,0.03729851543903351,0.0978277176618576,-0.06838604807853699,0.10730637609958649,-0.03362607955932617,-0.031702920794487,0.05259576439857483,-0.0610395222902298,0.0514153391122818,0.026776298880577087,-0.0077588558197021484,-0.018504559993743896,-0.06693005561828613,-0.0038775205612182617,0.02044987678527832,0.10764074325561523,-0.007608518004417419,-0.01221601665019989,0.06397970020771027,0.1086195707321167,0.08170914649963379,-0.025061026215553284,0.03513576090335846,0.07012531161308289,-0.012395426630973816,0.12476420402526855,-0.07632718980312347,0.06326164305210114,0.0405401736497879,-0.021613240242004395,0.05805400013923645,0.0872565507888794,0.05693180859088898,-0.04876382648944855,-0.029983684420585632,-0.08650575578212738,0.011474639177322388,0.06919856369495392,0.06942197680473328,-0.01893267035484314,0.11304984986782074,0.062483444809913635,-0.06156022846698761,0.052515909075737,-0.0524507611989975,0.029222965240478516,-0.08763788640499115,0.07210452854633331,-0.016656309366226196,-0.0599759966135025,-0.04877147078514099,0.017191335558891296,-0.11801348626613617,-0.025753334164619446,-0.050953254103660583,0.08472038805484772,0.06736160814762115,0.04396522045135498,-0.06790605187416077,-0.007893979549407959,0.11138442158699036,-0.0228421688079834,0.04150131344795227,-0.09671171009540558,-0.07822196185588837,-0.11345401406288147,-0.1033819317817688,0.003763049840927124,-0.06874582171440125,0.034696489572525024,0.05926312506198883,0.012205004692077637,0.0620003342628479,-0.06155407428741455,0.08706691861152649,-0.06366391479969025,0.024662330746650696,-0.06643944978713989,0.0018139481544494629,-0.04251682758331299,-0.013537734746932983,-0.04622286558151245,0.11824631690979004,-0.07310467958450317,0.028349637985229492,0.09617260098457336,0.023393884301185608,0.020198538899421692,-0.06930001080036163,0.010008767247200012,-0.09232735633850098,-0.11566118896007538,0.04456274211406708,-0.008044511079788208,0.12105132639408112,0.049551501870155334,0.11255227029323578,0.0367000550031662,-0.05466859042644501,0.03773902356624603,-0.10070760548114777,0.06631125509738922,-0.0742710679769516,-0.02754884958267212,0.07522721588611603,0.04525396227836609,0.03168970346450806,-0.01785188913345337,0.044367507100105286,-0.11528855562210083,-0.1016477644443512,0.06714658439159393,0.050223857164382935,0.0335066020488739,-0.11360979080200195,-0.06656111776828766,-0.017885342240333557,-0.11221207678318024,-0.054149508476257324,0.018546566367149353,-0.05966348946094513,0.05835674703121185,0.00889904797077179,0.06686311960220337,0.03992484509944916,-0.09019720554351807,0.024226069450378418,0.0677182525396347,-0.09790624678134918,-0.01732492446899414,0.09048658609390259,0.08713708817958832,-0.10894827544689178,0.03207109868526459,0.08635495603084564,-0.0657806545495987,0.0075298696756362915,0.023330003023147583,-0.01728034019470215,0.07683639228343964,-0.045156046748161316,0.08331596851348877,0.03819407522678375,0.021235093474388123,-0.042840227484703064,-0.06500846147537231,0.03501655161380768,0.0028819888830184937,0.10097712278366089,0.03907431662082672,0.09296102821826935,0.08982184529304504,-0.04936857521533966,-0.0484052449464798,0.005740255117416382,-0.12317635118961334,0.06529252231121063,0.08600711822509766,0.025664478540420532,-0.06587406992912292,-0.03847949206829071,-0.034121617674827576,0.10190998017787933,0.08131831884384155,-0.022175773978233337,0.03517557680606842,0.05448484420776367,-0.038146793842315674,0.07185235619544983,-0.12092496454715729,0.09785591065883636,-0.002351030707359314,0.06026121973991394,-3.241002559661865e-05,-0.06556177139282227,0.061893031001091,0.06496144831180573,0.10138864815235138,0.1067177951335907,-0.10963326692581177,-0.0013985633850097656,-0.07746782898902893,-0.040778160095214844,0.08297668397426605,0.034826844930648804,0.11152669787406921,0.024603500962257385,0.012227922677993774