0.07191652059555054,-0.10593971610069275,0.096646249294281,-0.05686546862125397,0.011879324913024902,-0.011076390743255615,0.05966193974018097,-0.034353747963905334,-0.0957186222076416,-0.11004960536956787,-0.04557916522026062,-0.07840938866138458,0.029174447059631348,-0.09851987659931183,0.09554965794086456,0.10853694379329681,-0.11928723752498627,0.0816890150308609,-0.09303416311740875,0.11777377128601074,-0.04164935648441315,-0.11424003541469574,0.026784762740135193,-0.09797674417495728,-0.0252780020236969,-0.016204893589019775,-0.005080953240394592,-0.005869120359420776,0.03783869743347168,0.03964145481586456,-0.06742128729820251,0.07932625710964203,-0.09108786284923553,0.05245198309421539,0.013201534748077393,0.09557244181632996,-0.08720657229423523,0.012055382132530212,0.03199900686740875,-0.05822591483592987,0.08042006194591522,-0.0057387202978134155,-0.026021331548690796,0.02008800208568573,0.034251585602760315,0.09561328589916229,0.030091270804405212,-0.016476884484291077,0.09312126040458679,-0.010531097650527954,-0.10985735058784485,-0.0052801817655563354,0.037396833300590515,0.009024247527122498,0.03399200737476349,-0.06420135498046875,-0.05411836504936218,-0.11068353056907654,-0.025771915912628174,0.026111498475074768,0.11495812237262726,-0.06757573783397675,-0.009606406092643738,0.034941673278808594