0.11291693150997162,0.023727312684059143,0.014807820320129395,-0.09970082342624664,-0.12014879286289215,0.016395822167396545,0.02244839072227478,0.07108230888843536,-0.09090010821819305,0.01618160307407379,-0.0750221312046051,0.05460160970687866,-0.0868704617023468,-0.10755245387554169,0.07326450943946838,0.0661933571100235,0.04236176609992981,0.12389819324016571,-0.10113771259784698,-0.019902348518371582,0.018240347504615784,0.05266566574573517,-0.04650963842868805,0.034931480884552,0.007493570446968079,-0.02905943989753723,0.07089142501354218,-0.09089821577072144,0.12286122143268585,0.10428643226623535,-0.02001194655895233,0.06466223299503326,-0.01329505443572998,0.10892947018146515,0.11965993046760559,-0.07027000188827515,0.12231336534023285,-0.07641007006168365,0.06786787509918213,-0.10580085217952728,-0.10566845536231995,0.10001872479915619,-0.03845319151878357,-0.037701889872550964,0.051756009459495544,-0.006212756037712097,-0.03366287052631378,-0.05822034180164337,-0.11814458668231964,-0.053560346364974976,-0.10149276256561279,-0.12143675982952118,0.05066336691379547,0.05868630111217499,0.09502848982810974,0.05010175704956055,-0.10408444702625275,-0.017834603786468506,-0.05020816624164581,-0.08151471614837646,-0.08003158867359161,0.09393583238124847,0.052767038345336914,-0.02881653606891632