-0.04692785441875458,-0.01028449833393097,-0.07383976876735687,-0.0243958979845047,0.052408307790756226,-0.1193968802690506,-0.08291876316070557,-0.04224763810634613,0.11762703955173492,0.08151328563690186,0.009818807244300842,-0.035002708435058594,0.021792441606521606,0.033357784152030945,0.05839131772518158,-0.10510507225990295,-0.013264626264572144,-0.09473894536495209,-0.11786213517189026,-0.07708455622196198,-0.05590914189815521,-0.0537274032831192,0.11156436800956726,0.0779016762971878,-0.06895370781421661,0.09066016972064972,0.05512489378452301,0.034743085503578186,-0.02320699393749237,-0.03422662615776062,-0.0826312005519867,0.11851109564304352,-0.0968533605337143,0.09216222167015076,0.06898503005504608,-0.04763531684875488,0.061002299189567566,0.005376711487770081,0.04833938181400299,0.10422064363956451,-0.010235428810119629,0.03592903912067413,0.04549504816532135,-0.08071434497833252,-0.03588953614234924,0.06417112052440643,0.007866054773330688,-0.01743312180042267,-0.10669925808906555,-0.06447510421276093,-0.12459899485111237,-0.0020750761032104492,0.07555896043777466,-0.04169292747974396,0.07081851363182068,0.11381451785564423,-0.12490485608577728,-0.11100378632545471,0.02148441970348358,0.060271039605140686,0.09252896904945374,-0.002229154109954834,0.015334203839302063,0.08013403415679932