-0.08303573727607727,0.33194220066070557,0.16556933522224426,-0.3376988470554352,-0.33454856276512146,-0.30307477712631226,-0.029934165999293327,0.2513117790222168,-0.08127893507480621,-0.15934985876083374,0.0022623164113610983,0.2840053141117096,-0.2973792254924774,-0.02748737297952175,0.2194586843252182,0.20088477432727814,0.30228373408317566,0.016273487359285355,-0.2830590009689331,-0.23472051322460175,-0.021397238597273827,-0.022876298055052757,0.15545278787612915,0.040386080741882324,-0.12862539291381836,0.3261213004589081,0.2928464412689209,-0.32585135102272034,0.01948031596839428,0.05677361786365509,-0.32704201340675354,-0.0055048419162631035,-0.16102485358715057,-0.13302797079086304,-0.2129443734884262,0.24587872624397278,-0.159829780459404,-0.21391405165195465,-0.01327495090663433,-0.12126141041517258,-0.07509927451610565,-0.06475665420293808,-0.34039610624313354,0.04332464188337326,-0.10311268270015717,0.26366305351257324,0.10107695311307907,0.1397838145494461,0.2934345304965973,0.15924318134784698,0.035150639712810516,-0.3214626610279083,0.26633405685424805,0.13964982330799103,0.2682568430900574,-0.06215973198413849,0.12224773317575455,0.19901522994041443,-0.2822740375995636,0.09506162256002426,-0.06588032841682434,-0.3121475577354431,-0.030287230387330055,0.07518728077411652