-0.28387200832366943,-0.16561178863048553,-0.2849213182926178,-0.06985355168581009,-0.019905872642993927,0.1765529364347458,-0.1302482932806015,0.208158940076828,-0.251382440328598,-0.09855475276708603,0.332242876291275,-0.03337528929114342,0.21455636620521545,-0.2615703046321869,-0.17513595521450043,-0.3434562683105469,-0.10655751824378967,-0.05346466600894928,0.21776027977466583,-0.22488196194171906,-0.1815614104270935,0.03707839548587799,-0.3263438940048218,-0.2536599040031433,0.29491549730300903,-0.3113473653793335,-0.008645541034638882,0.21823975443840027,0.24059797823429108,-0.182961568236351,-0.12102252244949341,0.2822723090648651,-0.010333564132452011,-0.20037361979484558,-0.2840135395526886,0.09131190180778503,-0.24177488684654236,-0.028387924656271935,-0.017465611919760704,0.32722732424736023,-0.05663912743330002,0.3526930809020996,-0.2617013156414032,-0.13268421590328217,-0.09415323287248611,0.28918322920799255,-0.0964181199669838,0.06175212934613228,-0.00514174671843648,-0.1505623161792755,-0.2544873356819153,0.0157480426132679,0.28933873772621155,-0.2700836658477783,0.0915679857134819,-0.008324592374265194,-0.20675431191921234,0.15970882773399353,-0.15445837378501892,0.05911533907055855,0.22683261334896088,0.2815438210964203,0.018988925963640213,0.10886438190937042