-0.12247245013713837,-0.004095315933227539,-0.030420958995819092,0.11489023268222809,-0.06318654119968414,-0.0024055391550064087,-0.11657720804214478,-0.041868388652801514,-0.07901376485824585,-0.1136203408241272,-0.10305951535701752,0.0743449330329895,0.06440135836601257,-0.06824567914009094,0.046177372336387634,-0.0762045830488205,0.03258906304836273,-0.03613629937171936,0.039469167590141296,0.08731615543365479,-0.010730788111686707,0.03562149405479431,0.11476543545722961,-0.04171951115131378,0.11026541888713837,0.04987753927707672,0.10075636208057404,-0.006575837731361389,0.03556342422962189,-0.04575642943382263,-0.10517239570617676,-0.02091313898563385,0.011792317032814026,-0.10052905976772308,-0.03807413578033447,-0.002128496766090393,-0.10166718065738678,0.048991650342941284,-0.014227405190467834,-0.0691957175731659,0.04836547374725342,-0.07155753672122955,0.04984743893146515,0.11126932501792908,-0.08972716331481934,-0.11001451313495636,0.052336275577545166,0.057660460472106934,-0.017015591263771057,0.006489381194114685,-0.075258269906044,0.08981555700302124,-0.10499002039432526,-0.028992846608161926,0.05806152522563934,0.01809529960155487,-0.07562291622161865,-0.032396554946899414,0.010102033615112305,0.08336743712425232,0.004792526364326477,0.12176945805549622,0.08252596855163574,-0.04348275065422058,0.11199833452701569,0.0705014020204544,0.031803205609321594,-0.07111755013465881,0.032083526253700256,-0.05598178505897522,0.03659434616565704,-0.10286952555179596,-0.10833966732025146,-0.06228826940059662,0.10553348064422607,-0.09626688063144684,0.0021153539419174194,-0.05252014100551605,-0.10304619371891022,-0.06727038323879242,0.01580911874771118,-0.03407453000545502,0.06685858964920044,0.10862712562084198,-0.07826243340969086,-0.1158699095249176,-0.09729184210300446,-0.07885348796844482,0.055220216512680054,-0.09889675676822662,-0.05833715200424194,0.03611719608306885,0.10523954033851624,0.0031502246856689453,0.011790886521339417,0.11657233536243439,0.07502670586109161,-0.037480682134628296,-0.08007076382637024,0.040800973773002625,0.12355440855026245,-0.08834294974803925,-0.02818797528743744,-0.08169174194335938,0.11866132915019989,0.09368105232715607,-0.0274345725774765,0.03759057819843292,0.045218467712402344,-0.08896137773990631,-0.12459604442119598,0.12010134756565094,-0.12360557913780212,-0.03856024146080017,-0.08192011713981628,-0.05017194151878357,0.06253421306610107,0.09203998744487762,-0.031828805804252625,0.10231390595436096,0.05900605022907257,-0.03252221643924713,-0.04083593189716339,0.01043286919593811,0.010934129357337952,0.0901104062795639,0.11205630004405975,-0.11383283138275146,0.044329747557640076,0.12274801731109619,0.11215530335903168,-0.10410858690738678,0.02142108976840973,-0.08018285036087036,0.10132138431072235,0.009486973285675049,0.09914052486419678,0.12486329674720764,-0.12031592428684235,-0.1157955527305603,-0.001443818211555481,0.07914069294929504,-0.042728930711746216,-0.05896200239658356,-0.015139281749725342,0.0968102365732193,0.041292011737823486,-0.062132447957992554,0.10863533616065979,-0.1249331533908844,0.0066918134689331055,-0.02847631275653839,0.04611538350582123,0.06086301803588867,0.07292290031909943,0.12403319776058197,-0.057561904191970825,-0.11929245293140411,-0.09653909504413605,-0.05624774098396301,0.06582051515579224,-0.0665382444858551,0.06847521662712097,-0.11849094927310944,0.06013292074203491,-0.05021713674068451,0.008436501026153564,0.0984034538269043,0.06727103888988495,0.01175650954246521,0.03069460391998291,-0.015546813607215881,0.07118377089500427,-0.011580735445022583,-0.11071157455444336,-0.033457472920417786,0.07410140335559845,0.047201499342918396,-0.07565852999687195,0.0527389794588089,0.09315086901187897,-0.022526532411575317,-0.036664530634880066,-0.0003527998924255371,-0.029166758060455322,-0.0927119106054306,0.12194347381591797,0.04864943027496338,0.03283119201660156,0.011053860187530518,-0.11904045939445496,-0.0859910100698471,-0.052342504262924194,0.05567541718482971,0.021053418517112732,0.08958818018436432,-0.10829076170921326,0.11664225161075592,-0.07961399853229523,0.045541971921920776,-0.020396292209625244,-0.08306780457496643,-0.07131169736385345,-0.002604767680168152,0.06641137599945068,0.061753496527671814,-0.07324209809303284,-0.05667896568775177,-0.11640763282775879,0.0001477450132369995,0.04921691119670868,0.0037189722061157227,0.0773543268442154,-0.04008020460605621,0.015720680356025696,0.09269830584526062,-0.07393945753574371,0.00019560754299163818,-0.05662517249584198,-0.07487115263938904,0.10854931175708771,0.11904443800449371,-0.0226222425699234,0.07064060866832733,-0.010345458984375,-0.0995890200138092,-0.07900312542915344,-0.10480302572250366,-0.0014324188232421875,0.08596150577068329,-0.11406488716602325,0.10359492897987366,-0.10900667309761047,-0.055560871958732605,-0.11427652835845947,0.11265090107917786,0.09063409268856049,0.038682594895362854,-0.014348775148391724,0.06453880667686462,0.07872015237808228,0.01771998405456543,0.09643568098545074,-0.10087062418460846,0.0025022029876708984,-0.026683703064918518,-0.05964954197406769,0.10071295499801636,-0.07059308886528015,0.029456451535224915,0.12332890927791595,0.05823807418346405,-0.0246889591217041,0.08895730972290039,-0.09882284700870514,-0.06981748342514038,-0.08532243967056274,-0.039193376898765564,0.06675617396831512,-0.03081691265106201,0.08767655491828918,0.030899211764335632,-0.12016832828521729,-0.09034696221351624,0.11978040635585785,0.07158653438091278,-0.015182331204414368,-0.1036304384469986,-0.11923173069953918,-0.040439069271087646,-0.0437791645526886,0.01739196479320526,0.06989303231239319,-0.12018339335918427,0.011633336544036865,0.08820097148418427,0.023265451192855835,-0.05485929548740387,0.001922696828842163,-0.05614219605922699,0.027894869446754456,-0.07986859977245331,-0.03690585494041443,0.09166337549686432,0.0032358318567276,-0.05408087372779846,0.029491767287254333,0.0028724074363708496,-0.10799698531627655,0.11683394014835358,0.010769069194793701,0.01459994912147522,0.11881256103515625,0.12479302287101746,0.10306680202484131,-0.07218025624752045,0.08250713348388672,0.07193773984909058,0.08469240367412567,0.0965239405632019,0.027525126934051514,0.10517750680446625,-0.041957512497901917,0.07113838195800781,0.016894057393074036,-0.10275192558765411,-0.039521828293800354,0.02588498592376709,0.006887614727020264,-0.05581839382648468,-0.06397970020771027,0.05731603503227234,-0.024907156825065613,0.08272504806518555,0.044866666197776794,-0.022117823362350464,0.09524562954902649,0.0182085782289505,-0.07763050496578217,0.05975128710269928,-0.05194208025932312,0.11968639492988586,-0.07779604196548462,-0.0073674023151397705,0.08618831634521484,-0.11807818710803986,0.01709790527820587,0.03985072672367096,0.07313713431358337,-0.12360714375972748,-0.0940236747264862,-0.05473001301288605,-0.08193075656890869,0.01550552248954773,0.04850545525550842,-0.10854193568229675,0.033110857009887695,-0.04336853325366974,0.07503768801689148,-0.03538593649864197,0.08415348827838898,-0.10070110857486725,-0.044091224670410156,0.05477073788642883,-0.04767961800098419,-0.07099474966526031,0.12262405455112457,-0.04135411977767944,-0.04342326521873474,-0.041831403970718384,-0.06844106316566467,0.09546494483947754,-0.06065909564495087,0.0760108232498169,-0.10082681477069855,-0.02793806791305542,0.09221340715885162,-0.10568168759346008,0.054855719208717346,-0.055863410234451294,-0.03666667640209198,0.08781538903713226,0.03574490547180176,0.11148254573345184,-0.04424591362476349,-0.11687052249908447,-0.08928121626377106,-0.021827951073646545,-0.08321672677993774,-0.08542925119400024,0.07779495418071747,0.0016035884618759155,-0.0435483455657959,-0.09953846037387848,0.12402278184890747,0.01444949209690094,0.06429146230220795,-0.07116235792636871,-0.08835592865943909,-0.04685768485069275,-0.04720187187194824,0.03924553096294403,-0.09672057628631592,0.054567769169807434,-0.024776935577392578,-0.015571683645248413,-0.03173844516277313,-0.07970958948135376,0.026993677020072937,0.05887417495250702,-0.09820829331874847,0.09626555442810059,0.0068980008363723755,0.09047049283981323,0.10391587018966675,-0.03042908012866974,0.026010572910308838,0.010893434286117554,0.01936820149421692,-0.03769455850124359,0.038455039262771606,0.10984720289707184,0.11311933398246765,0.09625688195228577,0.046038925647735596,0.03570377826690674,-0.06493248045444489,-0.10097098350524902,0.02266785502433777,-0.059250637888908386,0.10167241096496582,0.08251161873340607,0.025789812207221985,-0.09822814166545868,-0.08948937058448792,-0.001354902982711792,0.00927683711051941,-0.1006854772567749,0.027412593364715576,-0.04904109239578247,-0.05213850736618042,0.03414556384086609,-0.019454672932624817,-0.08921082317829132,-0.08226968348026276,0.11156570911407471,-0.037703633308410645,-0.06734645366668701,0.016001716256141663,0.054575398564338684,0.07556325197219849,0.06271466612815857,0.09489770233631134,0.08189073204994202,0.11616779863834381,0.12483660876750946,-0.09441305696964264,0.053496941924095154,0.01653119921684265,-0.028265878558158875,0.09681396186351776,0.04218268394470215,-0.018658891320228577,0.05091731250286102,-0.08555231988430023,-0.0737670361995697,-0.075587198138237,0.08548489212989807,-0.10514898598194122,-0.11270205676555634,-0.045800402760505676,-0.06887948513031006,0.06229981780052185,-0.0831838846206665,-0.07982048392295837,-0.03396506607532501,0.11258679628372192,0.09396591782569885,0.028902441263198853,0.04490451514720917,0.11202535033226013,-0.11912859976291656,-0.08684371411800385,-0.11557801067829132,-0.03150691092014313,-0.011522635817527771,0.03924861550331116,0.06520706415176392,0.011221200227737427,-0.09420911967754364,-0.10854938626289368,0.014140427112579346,0.04427386820316315,0.09948386251926422,-0.031336069107055664,0.05249565839767456,-0.060378313064575195,-0.10848458111286163,-0.02962137758731842,0.12166351079940796,-0.07940253615379333,0.08291774988174438,0.01815079152584076,0.060062751173973083,-0.031472206115722656,-0.0922662764787674,-0.02568773925304413,-0.027515605092048645,-0.0626600980758667,-0.04813374578952789,-0.0996583104133606,0.001843571662902832,-0.07560257613658905,0.09722119569778442,0.08316761255264282,-0.041647180914878845,-0.050049737095832825,-0.021402135491371155,-0.08959363400936127,0.08159634470939636,-0.00023117661476135254,-0.11326436698436737,0.009154409170150757,0.05277125537395477,-0.039993032813072205,0.10349726676940918,-0.0033297687768936157,-0.03808872401714325,0.022609010338783264,-0.12247753143310547,0.01644018292427063,0.03523595631122589,0.04605533182621002,-0.052816957235336304,0.02563755214214325,0.03106696903705597,0.01686657965183258,0.08531078696250916,-0.1068849265575409,-0.10662923753261566,0.12288342416286469,-0.005707010626792908,0.11047177016735077,0.08093501627445221,0.08115921914577484,0.10405561327934265,0.00130443274974823,-0.12024453282356262,-0.016186892986297607,-0.09696492552757263,0.06448622047901154,-0.008509323000907898,0.063797727227211,-0.10886263847351074,-0.04810976982116699,0.1167563945055008,0.0050112903118133545,-0.05588050186634064,-0.022868767380714417,0.011091277003288269,0.0060415565967559814,0.028099000453948975,-0.08469825983047485,0.03805997967720032,-0.03676044940948486,-0.05696471035480499,-0.042645394802093506,0.05469559133052826,0.004237279295921326,-0.032761991024017334,-0.12017360329627991,0.05232973396778107,-0.0006657838821411133,-0.06824415922164917,0.030590832233428955,0.11927743256092072,0.052886322140693665,0.00013449788093566895,0.013262346386909485,-0.0980834811925888,-0.04359327256679535,0.11198773980140686,0.02369581162929535,0.08745697140693665,0.02220815420150757,0.0826086699962616,0.05398783087730408,-0.10871413350105286,-0.020182490348815918,0.10830053687095642,-0.062420159578323364,-0.005947962403297424,-0.10708209872245789,0.11147291958332062,-0.010858148336410522,-0.0007642656564712524,-0.12129874527454376,-0.07366947829723358,0.11198361217975616,0.029608651995658875,0.0893937200307846,-0.06357891857624054,0.06374786794185638,0.02802310883998871,0.018519088625907898,0.03545822203159332,0.02319195866584778,-0.06962527334690094,0.013457968831062317,-0.00524960458278656,0.05270479619503021,0.009189888834953308,0.01934303343296051,0.12465798854827881,-0.08634668588638306,-0.023763611912727356,-0.02826656401157379,-0.029804542660713196,-0.0023460984230041504,0.015356600284576416,-0.04724055528640747,-0.08190356194972992,0.12108142673969269,-0.07661302387714386,0.03009939193725586,0.10670943558216095,0.0646963119506836,-0.04655873775482178,0.020642027258872986,-0.07826949656009674,0.10731883347034454,0.01948419213294983,-0.04655812680721283,0.030360907316207886,0.124940425157547,-0.11868242919445038,0.011983439326286316,0.0375034362077713,-0.08685596287250519,0.11028563976287842,-0.12492309510707855,-0.008843004703521729,0.050277307629585266,-0.0951397567987442,0.08621996641159058,0.034021973609924316,-0.08262792229652405,-0.09301604330539703,0.08069796860218048,-0.07317624986171722,0.1036142110824585,0.1051497757434845,-0.027623668313026428,-0.07194963097572327,0.02113056182861328,0.05721607804298401,0.09216132760047913,0.0165899395942688,0.08268971741199493,0.019873976707458496,-0.07214072346687317,0.07455402612686157,-0.04953788220882416,0.048593997955322266,-0.09178018569946289,0.00985322892665863,-0.10550443828105927,-0.03907644748687744,-0.032749488949775696,-0.10888519883155823,-0.06662611663341522,0.0984092652797699,0.04249776899814606,-0.060634419322013855,0.05407227575778961,0.03521622717380524,0.09377191960811615,0.004926800727844238,0.10089269280433655,-0.09318196773529053,0.12197768688201904,-0.07410240173339844,-0.008250623941421509,-0.0494610071182251,0.0824279636144638,0.09882830083370209,0.10344341397285461,-0.012806624174118042,0.022554785013198853,0.024951443076133728,-0.07710802555084229,0.03290373086929321,-0.08184315264225006,0.07579903304576874,-0.04120627045631409,-0.01802597939968109,0.12271779775619507,0.048823848366737366,0.015086621046066284,-0.10956060886383057,-0.032691627740859985,0.06160221993923187,0.09983010590076447,0.017168983817100525,-0.0904492735862732,-0.003292083740234375,0.09499327838420868,-0.11643984913825989,0.033880650997161865,0.07459540665149689,0.11549343168735504,-0.11488606035709381,0.0452691912651062,-0.023601725697517395,0.0019676685333251953,0.055443406105041504,0.060600459575653076,-0.10808411240577698,0.04996839165687561,0.00518643856048584,0.020478129386901855,-0.09036774933338165,0.06770960986614227,0.010214120149612427,-0.010709032416343689,0.04748310148715973,-0.07487852871417999,0.0674365907907486,0.09033580124378204,-0.12049445509910583,0.11504097282886505,0.017231330275535583,0.0031236112117767334,0.11807608604431152,0.033098265528678894,-0.048412859439849854,0.04346153140068054,0.023074299097061157,-0.047239989042282104,-0.06442201137542725,-0.03084692358970642,0.07923494279384613,-0.07574068009853363,0.08834394812583923,-0.001527532935142517,0.013261541724205017,-0.11720111966133118,0.04894267022609711,-0.07850968837738037,-0.1009465754032135,-0.011382624506950378,0.09341214597225189,0.0363851934671402,-0.0001585930585861206,0.11611790955066681,0.09382295608520508,-0.12351372838020325,-0.07947193086147308,-0.12463104724884033,-0.020728155970573425,-0.10172398388385773,-0.05854302644729614,0.1231873631477356,0.05146986246109009,0.07789726555347443,0.06315590441226959,0.09613978862762451,0.11294585466384888,0.04451139271259308,-0.022518590092658997,0.03990177810192108,0.05768349766731262,0.07697542011737823,0.062102317810058594,0.06626658141613007,0.0280744731426239,-0.04361185431480408,0.07790933549404144,0.09236985445022583,-0.08184881508350372,-0.015431851148605347,-0.08569593727588654,0.015635833144187927,-0.0674842894077301,0.08153147995471954,0.039857417345047,0.11366710066795349,-0.1137426495552063,-0.02290475368499756,0.018792584538459778,0.10811717808246613,-0.06486772000789642,0.03426826000213623,0.0110769122838974,-0.04347175359725952,-0.032603099942207336,-0.015288710594177246,0.050179675221443176,-0.02772746980190277,0.024697288870811462,0.0668962299823761,0.0013673901557922363,-0.07040524482727051,-0.04981027543544769,0.055126920342445374,0.0543479323387146,0.09777712821960449,-0.05291977524757385,0.04952053725719452,0.056054651737213135,0.007733955979347229,-0.11076171696186066,0.03741087019443512,0.045050591230392456,-0.0072294920682907104,-0.10169285535812378,-0.07897487282752991,-0.10679957270622253,-0.011530309915542603,0.01117745041847229,0.08418132364749908,-0.07882198691368103,0.01787114143371582,0.03403712809085846,-0.10149113833904266,0.01010333001613617,-0.016030162572860718,-0.01138390600681305,-0.07404331862926483,-0.03681698441505432,0.09460119903087616,0.06807045638561249,-0.09846633672714233,-0.030183449387550354,-0.11442145705223083,0.038508325815200806,0.06119553744792938,0.05530363321304321,0.04273653030395508,-0.006008073687553406,0.0028651952743530273,-0.117754265666008,0.011479049921035767,0.007991179823875427,0.06746536493301392,-0.043219193816185,0.11994947493076324,0.039235711097717285,0.07206130027770996,-0.10478898882865906,0.10283750295639038,0.1003333181142807,-0.03440539538860321,0.09602849185466766,0.050784528255462646,0.022896811366081238,-0.02810448408126831,0.019962579011917114,0.12419134378433228,-0.12150309979915619,-0.09989754855632782,0.11333046853542328,-0.014783456921577454,0.02677708864212036,0.03337046504020691,-0.06794390082359314,0.023994356393814087,-0.10896477103233337,-0.021087735891342163,-0.111655592918396,0.05787871778011322,0.039230331778526306,0.08189788460731506,0.04424604773521423,-0.048668667674064636,0.002643287181854248,-0.08988997340202332,0.018997833132743835,0.11630812287330627,-0.06662647426128387,0.1170092523097992,-0.017017394304275513,0.041564419865608215,-0.07035206258296967,-0.042286649346351624,0.0373690128326416,-0.06659284234046936,0.10281039774417877,-0.11278697848320007,-0.09986889362335205,-0.03209637105464935,0.11421266198158264,0.02029132843017578,-0.024233445525169373,-0.08921439945697784,-0.054125502705574036,-0.06826676428318024,0.027887821197509766,-0.11194252967834473,-0.044236958026885986,0.12377966940402985,-0.09314990043640137,0.0472295880317688,-0.07454679906368256,-0.05032818019390106,0.09853671491146088,-0.026967674493789673,-0.11356543004512787,-0.008399531245231628,0.04766362905502319,-0.08369408547878265,0.04331694543361664,-0.04145476222038269,-0.06626448035240173,0.10886237025260925,-0.09655076265335083,0.06157274544239044,-0.08004079759120941,-0.02099643647670746,0.0546647310256958,0.03855052590370178,-0.05084045231342316,-0.03639066219329834,0.06554301083087921,0.08362261950969696,-0.1185886412858963,0.021929815411567688,0.00830736756324768,0.03278832137584686,-0.06958730518817902,-0.06008797883987427,0.002353563904762268,-0.06836345791816711,-0.039356932044029236,-0.052457526326179504,-0.10262908041477203,-0.06593644618988037,0.07737921178340912,-0.10137037932872772,-0.017013326287269592,-0.04090070724487305,0.05480445921421051,-0.045573458075523376,0.041148602962493896,0.09728366136550903,0.08939720690250397,-0.09461010992527008,0.06632614135742188,-0.024026736617088318,0.06112319231033325,-0.09163416922092438,0.04696081578731537,-0.007499709725379944,0.029787108302116394,0.044453054666519165,-0.04347841441631317,0.09530700743198395,0.01767924427986145,-0.06307065486907959,-0.1075676828622818,-0.11375433206558228,-0.122317835688591,-0.016104772686958313,-0.07987894117832184,0.12080822885036469,0.1056772917509079,0.009397804737091064,0.08143658936023712,0.014747262001037598,0.08703574538230896,0.10555407404899597,-0.09342092275619507,0.05192066729068756,0.05790381133556366,-0.05834212899208069,0.11933131515979767,-0.003518924117088318,0.1036827564239502,0.04546070098876953,-0.025129616260528564,-0.1162780225276947,0.017964884638786316,0.09107792377471924,-0.002602696418762207,0.05734074115753174,-0.07648910582065582,0.04496090114116669,-0.0958714485168457,0.01555602252483368,0.11917100846767426,-0.08386357128620148,0.012907415628433228,0.04284612834453583,-0.01809266209602356,0.0030464529991149902,-0.08938638865947723,-0.049126654863357544,-0.07634575664997101,0.017184704542160034,-0.061697885394096375,0.11329422891139984,-0.024144768714904785,0.06580553948879242,-0.0682244747877121,-0.07298539578914642,0.049494072794914246,0.004360586404800415,-0.0724853128194809,0.10979282855987549,0.11981146037578583,-0.07508710026741028,-0.06719452142715454,0.10520042479038239,0.035241588950157166,-0.11865735054016113,0.07796064019203186,-0.12471888959407806,-0.040776386857032776,0.05921095609664917,0.03380750119686127,0.09052501618862152,0.0572441965341568,-0.10329248011112213,-0.07839682698249817,0.07350723445415497,0.05148737132549286,0.09708094596862793,-0.0410127192735672,0.07077820599079132,0.08588719367980957,-0.06703630089759827,-0.03207994997501373,0.08540098369121552,-0.06302154064178467,-0.09277451038360596,0.09942026436328888,0.04222722351551056,-0.07771578431129456,0.10639652609825134,0.04792685806751251,-0.03827093541622162,-0.005737215280532837,0.0914989709854126,0.004713669419288635,-0.023738786578178406,-0.035113394260406494,-0.12327635288238525,-0.04041674733161926,-0.036205559968948364,0.014829903841018677,-0.058675020933151245,-0.10891838371753693,-0.07914257049560547,0.10538288950920105,-0.09571516513824463,0.045586392283439636,0.060699447989463806,0.04311534762382507,-0.05871671438217163,-0.0398707389831543,-0.08774398267269135,0.035677969455718994,-0.014174088835716248,-0.0596403032541275,0.013017937541007996,-0.06984125077724457,-0.07645455002784729,-0.08808085322380066,0.08454814553260803,-0.03561687469482422,0.10829325020313263,-0.08436530828475952,0.03282290697097778,-0.04188297688961029,0.03987303376197815,-0.11749756336212158,-0.0881730318069458,-0.09843721985816956,-0.10528872907161713,-0.040274471044540405,0.0716286301612854,-0.08203639090061188,0.0017205476760864258,0.11799417436122894,0.03366844356060028,-0.009388506412506104,-0.06312817335128784,-0.04077449440956116,-0.11456534266471863,0.06854431331157684,0.0014768391847610474,-0.0025295913219451904,0.11613743007183075,0.08935441076755524,-0.03361210227012634,0.047181859612464905,-0.04040826857089996,-0.10522502660751343,-0.09745429456233978,-0.07023876905441284,-0.11465872824192047,-0.06264092028141022,0.11514455080032349,-0.11817756295204163,0.10495957732200623,-0.036397263407707214,0.05374220013618469,0.09718921780586243,0.08155743777751923,0.12379539012908936,-0.029326945543289185,0.005180880427360535,0.12097343802452087,-0.019307628273963928,-0.010982215404510498,-0.10200417041778564,0.06710180640220642,-0.10776852071285248,0.004092544317245483,0.04137834906578064,0.04258662462234497,-0.04374651610851288,-0.0357368141412735,-0.09839953482151031,-0.002914533019065857,0.05667877197265625,0.05233049392700195,0.03274506330490112,-0.04342329502105713,-0.11102652549743652,-0.021298378705978394,-0.11447156965732574,-0.006445720791816711,-0.07110503315925598,0.11237876117229462,-0.021393269300460815,-0.0566881000995636,-0.03420668840408325,9.094178676605225e-05,-0.023686319589614868,0.03720197081565857,-0.02998994290828705,-0.10276968777179718,0.029903307557106018,0.08119632303714752,0.04115346074104309,-0.10158582031726837,-0.08591267466545105,0.10403679311275482,-0.04368872940540314,-0.06923481822013855,-0.11073091626167297,-0.11676083505153656,-0.108353391289711,-0.0037931203842163086,0.03508494794368744,-0.09723487496376038,0.0386526882648468,0.0314871221780777,0.10527129471302032,-0.0038500726222991943,-0.07061997056007385,-0.11066760122776031,-0.002929866313934326,-0.09074898064136505,0.060480281710624695,0.016439348459243774,-0.027367055416107178,-0.00016911327838897705,-0.015435323119163513,-0.03632679581642151,0.008485078811645508,-0.03845144808292389,-0.05771031975746155,-0.021464139223098755,-0.11765740811824799,0.04085724055767059,-0.04773335158824921,-0.05647929012775421,-0.02166658639907837,-0.040908083319664,0.03179977834224701,0.058032602071762085,-0.05205175280570984,0.02128802239894867,-0.05009128153324127,-0.12205876410007477,-0.03697553277015686,-0.04869361221790314,0.10004889965057373,-0.04062102735042572,0.06935861706733704,0.01847606897354126,-0.026379287242889404,0.0406976193189621,0.06603491306304932,0.03888292610645294,0.06455548107624054,0.041867226362228394,0.07840615510940552,0.020292043685913086,0.0667385458946228,0.06117270886898041,0.08690664172172546,-0.003765612840652466,-0.05952844023704529,0.03288672864437103,0.0880221575498581,-0.09606653451919556,0.0834936797618866,-0.07152321934700012,-0.03805409371852875,0.11919870972633362,0.07172341644763947,-0.10107177495956421,0.11345373094081879,0.051472797989845276,-0.00642019510269165,-0.09229463338851929,-0.05429169535636902,0.12178914248943329,0.11750063300132751,-0.019942507147789,-0.07967713475227356,0.0547197163105011,0.05497269332408905,-0.1120227724313736,-0.03290638327598572,0.05535277724266052,-0.025001466274261475,0.050681620836257935,-0.08858926594257355,-0.020457521080970764,-0.12007054686546326,-0.0009655505418777466,0.03177252411842346,-0.035249099135398865,0.04473547637462616,-0.004767298698425293,-0.11401334404945374,0.09648023545742035,0.0910930335521698,-0.03442901372909546,0.0697382390499115,-0.12074717879295349,0.022786542773246765,-0.020710960030555725,0.06528310477733612,-0.07747338712215424,-0.05925104022026062,0.03394322097301483,0.08226132392883301,-0.11364997923374176,-0.00484853982925415,-0.024811148643493652,-0.036016181111335754,-0.11476512253284454,0.08155348896980286,-0.02467098832130432,-0.08730199933052063,0.0772925317287445,-0.0007368624210357666,0.0013642162084579468,0.05578155815601349,-0.0634949803352356,-0.10059252381324768,0.029521018266677856,-0.05739995837211609,0.014298707246780396,-0.01657852530479431,0.07578867673873901,-0.06369175016880035,0.11504584550857544,0.05325418710708618,0.04186064004898071,-0.08552335202693939,-0.023153215646743774,0.02900788187980652,-0.00210435688495636,-0.05783313512802124,-0.12275640666484833,-0.033392488956451416,0.10535567998886108,-0.06107674539089203,-0.1103094071149826,0.034011900424957275,0.0341818630695343,-0.06323571503162384,0.10485726594924927,0.08860258758068085,-0.033499494194984436,-0.09310270845890045,-0.008284538984298706,0.09949712455272675,-0.08668559789657593,-0.026780635118484497,-0.03293682634830475,-0.09925612807273865,0.07822935283184052,-0.10445614159107208,0.04103092849254608,0.0306834876537323,0.005439877510070801,0.05752080678939819,0.052474528551101685,0.12126253545284271,0.04446113109588623,0.06579355895519257,-0.10705503821372986,-0.03644128143787384,0.008510291576385498,0.06104664504528046,0.04231688380241394,-0.10886828601360321,0.028823643922805786,-0.11697517335414886,0.014397874474525452,0.08863668143749237,-0.09775170683860779,0.11730946600437164,-0.09324263036251068,0.0206509530544281,-0.044989049434661865,-0.03508859872817993,0.11878149211406708,-0.005984976887702942,0.040165722370147705,0.009771838784217834,-0.04789692163467407,0.11271518468856812,0.013643413782119751,0.03650926053524017,0.06261737644672394,0.09494657814502716,-0.03136594593524933,0.11489845812320709,0.01639316976070404,-0.07687576115131378,-0.0855000764131546,0.11587148904800415,-0.11052528023719788,0.11110876500606537,-0.010875388979911804,0.013689562678337097,-0.03160408139228821,-0.12230071425437927,-0.061122119426727295,0.052456557750701904,-0.12290413677692413,0.03752365708351135,0.11326946318149567,0.07349230349063873,0.06879261136054993,0.09246985614299774,-0.1145578920841217,-0.03986355662345886,-0.0969148576259613,0.12448589503765106,-0.026636436581611633,-0.07451459765434265,-0.08557499945163727,-0.014195412397384644,0.045230865478515625,0.012138068675994873,0.09779839217662811,0.007363751530647278,-0.07125408947467804,-0.05246362090110779,0.05917024612426758,0.11530882120132446,0.039027243852615356,-0.10019047558307648,-0.12258505821228027,0.04107387363910675,-0.04839995503425598,0.039241060614585876,0.05204072594642639,-0.03157040476799011,-0.014785334467887878,0.10724757611751556,-0.004183098673820496,-0.04695390164852142,-0.007945403456687927,0.08256654441356659,0.016456380486488342,-0.09296290576457977,0.04328371584415436,-0.018602833151817322,0.08383604884147644,-0.060353800654411316,-0.12444797158241272,-0.08692805469036102,-0.06994487345218658,0.08280371129512787,0.016160354018211365,0.10899454355239868,-0.012649431824684143,-0.059762001037597656,-0.0220748633146286,-0.07468028366565704,-0.10929487645626068,0.0810471773147583,-0.07820333540439606,0.0735667496919632,0.07875154912471771,-0.039044544100761414,0.09690098464488983,0.005394473671913147,0.08732908964157104,-0.10881412029266357,0.05039265751838684,0.11522015929222107,0.059215396642684937,0.03249382972717285,0.03291569650173187,0.0192221999168396,0.03571709990501404,-0.011599898338317871,0.06941121816635132,0.007348939776420593,0.024164944887161255,0.0034412145614624023,-0.08717316389083862,0.018046021461486816,0.031131386756896973,-0.11329124867916107,0.00781320035457611,-0.11738307774066925,-0.08440186083316803,-0.05325986444950104,-0.032232820987701416,-0.03293465077877045,-0.022995054721832275,0.0781182199716568,-0.05131860077381134,0.08490130305290222,0.04946523904800415,0.1197887659072876,0.12191140651702881,0.06319919228553772,0.006519615650177002,0.11579039692878723,-0.08010916411876678,0.08668792247772217,-0.04006399214267731,0.0888296514749527,0.0576724112033844,0.009214013814926147,0.04284800589084625,-0.04472650587558746,-0.025439143180847168,0.05069877207279205,-0.09512193500995636,-0.10011698305606842,-0.010518789291381836,-0.04754719138145447,-0.1094575971364975,0.0105743408203125,0.04403056204319,-0.08652666211128235,0.02981853485107422,-0.04740472137928009,0.08589939773082733,0.008967041969299316,-0.10872907936573029,-0.11043094098567963,-0.046800702810287476,0.04954719543457031,-0.0004532337188720703,-0.04588715732097626,0.10288852453231812,-0.07292988896369934,0.11670757830142975,0.07555754482746124,-0.05171145498752594,0.07371626794338226,-0.058499664068222046,0.10826742649078369,-0.011179760098457336,0.05581183731555939,-0.05032762885093689,-0.020547881722450256,-0.006638377904891968,-0.007214933633804321,0.08350822329521179,-0.0837264209985733,0.012792780995368958,0.12174785137176514,0.10051791369915009,0.11506469547748566,-0.03079277276992798,0.06072743237018585,0.11893990635871887,-0.025048181414604187,-0.11089882254600525,0.013508856296539307,-0.08296471834182739,0.023255661129951477,0.1186005026102066,-0.0974937230348587,0.006269201636314392,0.028982684016227722,-0.007579192519187927,0.09602904319763184,0.040640369057655334,-0.017926156520843506,-0.017383217811584473,0.09541310369968414,-0.07525165379047394,0.06493845582008362,0.06596499681472778,-0.09122790396213531,-0.03269366919994354,0.1111716777086258,0.015521243214607239,-0.0776517391204834,0.11588861048221588,0.00437559187412262,0.014259397983551025,0.09879939258098602,0.1165580302476883,-0.033315613865852356,0.11557339131832123,-0.04712747037410736,-0.07468096911907196,0.027545511722564697,-0.10903362929821014,-0.04371848702430725,0.017788022756576538,0.06731747090816498,-0.03830176591873169,-0.06649911403656006,-0.09171247482299805,0.0672561377286911,0.004210531711578369,0.07844889163970947,0.09340643882751465,-0.05069996416568756,0.07842536270618439,-0.09817513823509216,-0.05482576787471771,-0.051271095871925354,0.06516470015048981,-0.07759419083595276,-0.026221156120300293,-0.05859048664569855,-0.08644811809062958,-0.06976364552974701,0.11936813592910767,0.010268718004226685,-0.11891403794288635,0.10287442803382874,0.11471728980541229,-0.12234269082546234,0.11628702282905579,-0.02133600413799286,0.07185196876525879,-0.11797045171260834,0.11898612976074219,0.05717422068119049,0.054280251264572144,0.015988528728485107,-0.039273932576179504,0.04994875192642212,-0.07208167016506195,-0.09722189605236053,0.08275638520717621,0.09996500611305237,0.08536989986896515,-0.012597262859344482,-0.05817270278930664,0.10918764770030975,0.03508256375789642,0.010854974389076233,-0.07976087927818298,0.011730551719665527,0.11954306066036224,-0.11038006842136383,-0.05332517623901367,0.047399625182151794,0.11823451519012451,-0.01908355951309204,-0.09956704080104828,-0.021728739142417908,-0.024882405996322632,-0.014538317918777466,-0.11132749915122986,0.09551133215427399,-0.06737005710601807,-0.06474067270755768,-0.01789569854736328,0.10583563148975372,0.07316230237483978,0.07824134826660156,0.11049774289131165,0.07957156002521515,-0.10679157078266144,0.12360154092311859,-0.10586832463741302,-0.008972421288490295,-0.11655353009700775,0.07941979169845581,-0.12151923775672913,0.008984819054603577,-0.013489201664924622,0.11410108208656311,-0.11730124056339264,-0.002396121621131897,-0.0849251002073288,-0.0892130583524704,0.0359242707490921,0.11184889078140259,-0.03866139054298401,-0.09036681056022644,0.027224674820899963,-0.074533611536026,-0.03707146644592285,0.08759580552577972,-0.12283797562122345,-0.07853394746780396,0.057306259870529175,-0.11132363975048065,0.08659891784191132,-0.030666247010231018,0.11083477735519409,-0.04680190980434418,-0.015063852071762085,0.03696969151496887,0.09474781155586243,0.01174752414226532,0.10248540341854095,-0.0704699158668518,-0.0797329843044281,-0.11230920255184174,-0.03512480854988098,-0.0006865710020065308,0.03952819108963013,0.00461326539516449,-0.12072911858558655,0.038202300667762756,-0.05429084599018097,0.005728229880332947,0.043223753571510315,0.12246479094028473,0.11887706816196442,6.747245788574219e-05,0.0460769385099411,-0.036307111382484436,-0.11068534851074219,0.10445705056190491,-0.044925302267074585,-0.10417628288269043,-0.053595975041389465,0.019918635487556458,0.027660861611366272,0.017003387212753296,-0.08600176870822906,0.09127397835254669,0.02728024125099182,0.12433688342571259,0.025470256805419922,-0.11556869745254517,0.062200143933296204,0.0997188538312912,0.06427112221717834,0.07116727530956268,0.0286862850189209,0.03146819770336151,-0.0866454541683197,-0.09041330218315125,-0.08983667194843292,0.09612391889095306,-0.1219271570444107,-0.030594393610954285,0.08977699279785156,-0.04041571915149689,0.03791487216949463,0.025131478905677795,0.08343692123889923,0.09580285847187042,0.10762143135070801,-0.050455138087272644,-0.005975767970085144,0.024252891540527344,0.09742707014083862,0.03778065741062164,0.09692054986953735,-0.0018405914306640625,-0.08378706872463226,0.049676984548568726,-0.05898691713809967,-0.06543339788913727,-0.027440905570983887,-0.03882618248462677,0.06946483254432678,0.0548996776342392,-0.030130237340927124,0.0014445483684539795,0.03832744061946869,-0.0031895339488983154,-0.03391706943511963,-0.019614756107330322,0.005140706896781921,0.07838864624500275,-0.05667214095592499,-0.09027715027332306,-0.0260637104511261,-0.030062079429626465,-0.02767758071422577,-0.10668329894542694,0.02952633798122406,0.0650119036436081,0.0481991171836853,0.12381963431835175,0.12236031889915466,-0.03461447358131409,0.07485683262348175,0.09984341263771057,-0.05568772554397583,-0.08067537844181061,-0.009399637579917908,-0.028429940342903137,-0.016027674078941345,0.0381140261888504,0.002191305160522461,-0.0721827894449234,-0.015328004956245422,-0.026723727583885193,0.07937771081924438,0.08924447000026703,-0.03295941650867462,0.015080317854881287,0.11311483383178711,-0.12258659303188324,0.1002199649810791,0.08859175443649292,-0.0006543546915054321,-0.019552797079086304,-0.11335286498069763,0.06796538829803467,-0.017904266715049744,0.032120659947395325,0.10694432258605957,-0.02936956286430359,0.015351995825767517,-0.11653852462768555,-0.041738539934158325,0.036227986216545105,-0.0346703976392746,0.030827566981315613,0.05315084755420685,0.02994324266910553,-0.06166572868824005,-0.12036566436290741,-0.014544904232025146,0.06056138873100281,-0.06689463555812836,-0.04332238435745239,0.05749779939651489,0.08559015393257141,-0.07351049780845642,0.006813377141952515,-0.06888741254806519,0.06486429274082184,-0.043643876910209656,0.04145723581314087,0.03609876334667206,-0.12365731596946716,0.056558698415756226,0.04456198215484619,0.01107509434223175,0.014160290360450745,-0.09866036474704742,-0.10438624024391174,-0.09055745601654053,0.009923294186592102,0.12497405707836151,-0.025985166430473328,-0.04843197762966156,0.06977187097072601,0.05721382796764374,-0.11794021725654602,0.07916213572025299,-0.016648128628730774,0.07175323367118835,0.10719381272792816,-0.006532952189445496,-0.01760774850845337,0.11717711389064789,0.07881636917591095,-0.07230909168720245,0.024448886513710022,0.018372133374214172,0.10178960859775543,0.12120349705219269,-0.03622432053089142,-0.07777442038059235,-0.03713887929916382,-0.016002625226974487,-0.05790628492832184,0.101528599858284,0.07328984141349792,0.09205612540245056,0.06995169818401337,0.01947157084941864,0.012589290738105774,-0.08350098133087158,-0.006051406264305115,-0.03596414625644684,-0.005197972059249878,0.08109554648399353,0.1147516667842865,-0.10202100872993469,0.03482857346534729,-0.04690226912498474,-0.05236715078353882,0.03788088262081146,0.022105976939201355,-0.11306500434875488,-0.06472884118556976,-0.08548146486282349,0.04228278994560242,-0.08292324841022491,-0.046447157859802246,0.008153989911079407,-0.0401768684387207,0.0481216162443161,0.03773251175880432,0.05741362273693085,0.05227567255496979,0.06980520486831665,-0.0886354148387909,0.11111246049404144,-0.04168899357318878,-0.11693422496318817,0.06524926424026489,0.028196409344673157,0.11984185874462128,-0.0072059184312820435,-0.12021955847740173,0.10354101657867432,-0.09332655370235443,-0.11547350883483887,-0.11391499638557434,-0.07073891162872314,-0.009980514645576477,0.0541996955871582,-0.037285685539245605,0.12364742159843445,0.12241971492767334,-0.032191529870033264,-0.1006375104188919,0.08237466216087341,-0.007866069674491882,-0.020090699195861816,-0.011813461780548096,0.10415957868099213,0.09590224921703339,0.02157193422317505,0.0636061280965805,-0.05676010251045227,0.008855953812599182,-0.05422861874103546,0.009919092059135437,0.10382139682769775,-0.019139930605888367,-0.07068338990211487,0.003967359662055969,-0.08489497005939484,-0.06986835598945618,-0.03516685962677002,0.10616305470466614,-0.03480149805545807,0.05047154426574707,0.05890388786792755,-0.11897170543670654,-0.07540267705917358,-0.01873759925365448,0.040540650486946106,0.0897814929485321,-0.10649074614048004,-0.055085644125938416,0.09850169718265533,0.09093432128429413,0.06326743960380554,0.019805043935775757,0.09792692959308624,-0.024305135011672974,0.015191033482551575,-0.019928425550460815,0.038036614656448364,-0.0806117057800293,-0.05004949867725372,0.026677235960960388,-0.07678563892841339,0.1228100061416626,-0.025751620531082153,-0.1039036363363266,0.002376943826675415,-0.09339044988155365,0.04133419692516327,0.0740797370672226,0.07962977886199951,-0.1026102602481842,0.10685791075229645,0.11345981061458588,0.11016614735126495,0.03989562392234802,-0.12143157422542572,0.10566814243793488,0.013711735606193542,-0.03848391771316528,0.07927189767360687,-0.04530519247055054,-0.08673469722270966,-0.04014526307582855,-0.07614488899707794,-0.018601015210151672,-0.007893234491348267,-0.030430734157562256,0.09132368862628937,-0.050702109932899475,0.08610184490680695,-0.11562518775463104,0.11976617574691772,-0.05252109467983246,0.09131817519664764,0.08131535351276398,0.009899809956550598,-0.12258252501487732,0.1020391434431076,-0.0861336886882782,-0.07963676750659943,0.1091623604297638,-0.0808599442243576,-0.10035286843776703,0.055875152349472046,0.06280116736888885,-0.09698115289211273,-0.10711555182933807,0.046308934688568115,0.1247018575668335,0.10560989379882812,0.12056596577167511,0.1161491721868515,-6.552040576934814e-05,-0.047882869839668274,0.050362855195999146,0.06748026609420776,0.11552131175994873,-0.09423120319843292,0.12308800220489502,0.11137579381465912,-0.06700915098190308,0.09082895517349243,-0.08201120793819427,-0.10051697492599487,-0.05990883708000183,0.0658518522977829,-0.023531556129455566,-0.06227429211139679,0.09905971586704254,0.04651613533496857,-0.03974856436252594,0.0715520828962326,0.011306732892990112,-0.10243932902812958,0.06667409837245941,-0.023915275931358337,-0.05875730514526367,0.028314650058746338,0.06381797790527344,0.04911801218986511,0.009585902094841003,-0.10442198812961578,-0.04980313777923584,-0.0524589866399765,0.0352969616651535,-0.023320093750953674,-0.05652253329753876,0.08016267418861389,0.05537661910057068,0.10649079084396362,0.02940353751182556,-0.07383260130882263,0.008132517337799072,-0.002920299768447876,0.04592597484588623,0.08837269246578217,-0.0019440799951553345,0.10229775309562683,-0.037191733717918396,-0.008679643273353577,-0.12449684739112854,-0.0655340701341629,0.02222783863544464,0.042535752058029175,0.05523142218589783,0.11315971612930298,-0.11425399780273438,-0.07234519720077515,-0.06716278195381165,0.11878089606761932,0.03498774766921997,-0.0694858580827713,0.09297296404838562,0.08157479763031006,-0.023908644914627075,0.05510638654232025,-0.002975970506668091,-0.10462987422943115,-0.02724801003932953,-0.06230755150318146,-0.0664985328912735,-0.014091655611991882,0.11761195957660675,0.08326506614685059,-0.11359529197216034,0.013751298189163208,-0.028487250208854675,-0.02086198329925537,-0.11570431292057037,-0.07005888223648071,-0.08278127014636993,0.05236484110355377,0.07529670000076294,-0.002233937382698059,-0.038648635149002075,-0.10858702659606934,0.06421107053756714,0.03656463325023651,-0.09236845374107361,-0.09419550001621246,-0.08497191965579987,-0.054164156317710876,-0.07918383181095123,0.04256443679332733,-0.014758214354515076,-0.08386354148387909,0.004641011357307434,-0.11273367702960968,-0.09868621826171875,0.0857374370098114,0.08042432367801666,0.12025481462478638,0.03128845989704132,-0.039114877581596375,-0.08258196711540222,-0.0012401044368743896,-0.03529703617095947,-0.07835087180137634,0.038973987102508545,0.071366086602211,-0.0015254467725753784,0.11847017705440521,-0.015808984637260437,0.025542959570884705,0.0829857587814331,-0.06687460839748383,-0.07879070937633514,0.06955510377883911,0.030408188700675964,0.06718266010284424,0.09453725814819336,-0.011116757988929749,0.006731480360031128,-0.09811815619468689,-0.1158890575170517,-0.08587390184402466,-0.04557877779006958,0.10598428547382355,-0.08985213935375214,-0.12038889527320862,0.051298633217811584,0.024892300367355347,0.10032519698143005,-0.052921757102012634,0.11411719024181366,0.04572992026805878,0.0568169504404068,-0.05996786057949066,-0.03271953761577606,0.004514619708061218,0.08453302085399628,-0.0034889429807662964,-0.12233242392539978,0.07814930379390717,-0.12415188550949097,-0.06202837824821472,0.06111443042755127,0.09131409227848053,0.043622225522994995,-0.05370323359966278,-0.10911613702774048,-0.020538464188575745,-0.050836727023124695,0.06249350309371948,0.07948684692382812,0.03513386845588684,-0.11947779357433319,0.018443837761878967,-0.0357217937707901,0.03445197641849518,-0.06300565600395203,0.11795178055763245,0.01535402238368988,0.11297309398651123,0.04261679947376251,-0.041142240166664124,0.08711518347263336,-0.04734449088573456,0.12484276294708252,-0.046374157071113586,0.08098392188549042,-0.011628761887550354,0.07995481789112091,-0.047190114855766296,0.0532182902097702,0.020906269550323486,-0.11137615144252777,0.098541259765625,0.04942965507507324,0.0792132019996643,-0.04679398238658905,0.09159731864929199,0.06709374487400055,-0.014421209692955017,0.01692439615726471,-0.07611468434333801,0.0422951877117157,-0.013805299997329712,0.04007057845592499,-0.03643691539764404,-0.09578602015972137,-0.03200094401836395,-0.014919281005859375,-0.09241916239261627,0.04769007861614227,-0.005746796727180481,-0.10064074397087097,-0.07661139965057373,0.018682405352592468,0.1168527752161026,-0.021739885210990906,0.07760943472385406,-0.006822869181632996,-0.12252634763717651,0.07056325674057007,-0.007919415831565857,0.08444181084632874,0.12460863590240479,-0.003924176096916199,-0.048267513513565063,0.03947368264198303,-0.1013207882642746,0.04018999636173248,-0.06879854202270508,-0.06573490798473358,-0.04634140431880951,0.04750619828701019,-0.022137582302093506,0.11627815663814545,0.058541521430015564,-0.08933602273464203,0.0984567403793335,-0.011766940355300903,0.12484040856361389,0.02000264823436737,-0.07002823054790497,-0.024546802043914795,0.050676003098487854,-0.04900294542312622,-0.10648143291473389,0.05593651533126831,-0.02029353380203247,-0.03224305808544159,0.10057629644870758,-0.09902876615524292,-0.08189292252063751,-0.043588414788246155,-0.1221362054347992,-0.03260190784931183,-0.10195396840572357,-0.1181860864162445,-0.09903287887573242,-0.11128446459770203,-0.12062996625900269,-0.04090756177902222,-0.10885071754455566,-0.06811213493347168,-0.04077234864234924,0.030512556433677673,-0.09376183152198792,0.0031408071517944336,0.04148782789707184,0.11186906695365906,0.06792236864566803,0.045334115624427795,0.07493863999843597,-0.03647784888744354,0.06239241361618042,-0.03344374895095825,0.0912255197763443,-0.02331562340259552,-0.030242666602134705,0.028903424739837646,-0.06970073282718658,-0.11279241740703583,0.10960133373737335,0.10950802266597748,0.07702019810676575,0.07351408898830414,-0.06754350662231445,-0.09140245616436005,-0.11873351037502289,-0.08566002547740936,0.02449744939804077,0.12158353626728058,-0.06909678876399994,0.04998590052127838,-0.045342475175857544,0.01393766701221466,-0.003454938530921936,-0.037555769085884094,0.08982484042644501,0.0026399195194244385,-0.12101145088672638,-0.02745559811592102,-0.0817098617553711,-0.08107006549835205,-0.06347008049488068,0.08668215572834015,-0.05506111681461334,-0.073610320687294,-0.07762683928012848,0.04710133373737335,-0.10668860375881195,-0.0680047869682312,-0.09993989765644073,-0.09720529615879059,-0.02409803867340088,-0.10102680325508118,-0.09680987894535065,0.04315337538719177,-0.03892268240451813,-0.006932079792022705,-0.06793002784252167,-0.0998493880033493,0.014444589614868164,0.07495801150798798,0.05882707238197327,0.05197030305862427,0.04833267629146576,-0.12165738642215729,0.10717503726482391,0.037411391735076904,0.019969359040260315,-0.06556308269500732,0.10868926346302032,0.029843926429748535,0.031507715582847595,-0.11167843639850616,0.07748512923717499,-0.07259106636047363,0.10233129560947418,-0.09948217868804932,0.055498361587524414,0.05395480990409851,-0.040163591504096985,4.9754977226257324e-05,-0.056133732199668884,0.01908692717552185,-0.009190782904624939,-0.08996120095252991,0.020264729857444763,0.09537070989608765,-0.07460370659828186,0.044008731842041016,-0.06720373034477234,0.04277655482292175,0.08922219276428223,-0.12341882288455963,0.05201806128025055,0.021877989172935486,0.051919206976890564,-0.12094993889331818,0.01158130168914795,0.09745216369628906,-0.022249728441238403,0.12424059212207794,-0.05345800518989563,0.010608315467834473,-0.014448195695877075,0.07832324504852295,0.007022753357887268,0.07095180451869965,0.08621948957443237,-0.050715118646621704,0.11160843074321747,-0.023109138011932373,0.00700649619102478,0.0763903558254242,0.030625328421592712,-0.01662735641002655,0.05818949639797211,-0.023889169096946716,-0.09911377727985382,0.042862653732299805,-0.10629227757453918,-0.01332557201385498,-0.08461269736289978,0.02428215742111206,-0.10001860558986664,-0.12022559344768524,-0.07505623996257782,0.07774747908115387,0.01131807267665863,-0.05667491257190704,0.08268082141876221,-0.10119651257991791,-0.074506476521492,-0.025716572999954224,-0.016204193234443665,-0.05692535638809204,-0.08789923787117004,0.007284969091415405,0.10726003348827362,0.03593830764293671,-0.12222200632095337,-0.024868085980415344,0.058247730135917664,0.08565869927406311,0.05216020345687866,0.026457473635673523,-0.067507803440094,-0.09079155325889587,0.03822445869445801,0.007274195551872253,-0.007471442222595215,-0.027354300022125244,-0.03319728374481201,-0.023905932903289795,0.09771373867988586,-0.013418838381767273,-0.009027734398841858,-0.034007638692855835,-0.0029591619968414307,-0.09218941628932953,0.11723312735557556,-0.09358413517475128,0.0743272602558136,0.0046945661306381226,0.03659309446811676,-0.028100743889808655,-0.02694036066532135,-0.029892727732658386,0.06008896231651306,-0.11666995286941528,-0.08351853489875793,0.1166137307882309,-0.08560073375701904,0.07150347530841827,-0.10117772221565247,0.0921826958656311,-0.030849993228912354,0.06890667974948883,-0.044684335589408875,0.0731886774301529,-0.0576028972864151,0.028723448514938354,0.11650441586971283,-0.11583547294139862,0.047267019748687744,-0.004010051488876343,-0.04930068552494049,-0.07050907611846924,-0.018660977482795715,0.10053293406963348,-0.12055966258049011,-0.07961671054363251,-0.08627025783061981,0.0033272206783294678,-0.11546096205711365,0.067662313580513,-0.10106255114078522,0.05455440282821655,0.11929631233215332,-0.020140573382377625,-0.061179086565971375,0.029006406664848328,0.0995296984910965,0.0466221421957016,0.0654086172580719,0.11039629578590393,-0.07951734960079193,0.03660586476325989,0.052957549691200256,0.038708046078681946,-0.017648711800575256,-0.019267305731773376,0.058095380663871765,-0.09544485807418823,-0.03899015486240387,0.008747875690460205,-0.007585123181343079,0.07966026663780212,-0.05489952862262726,0.06552940607070923,-0.09270092844963074,0.11188757419586182,-0.0501839816570282,-0.0774092972278595,0.11109542846679688,-0.03724181652069092,-0.03499799966812134,0.11285126209259033,0.007659658789634705,0.10772879421710968,0.05531175434589386,0.06790073215961456,-0.03750742971897125,0.04082925617694855,-0.07430534064769745,0.012719407677650452,-0.016321450471878052,0.04293796420097351,-0.05200986564159393,-0.10012587904930115,-0.03419150412082672,-0.09730410575866699,-0.10326531529426575,0.11251085996627808,-0.10953226685523987,-0.11864912509918213,0.014122962951660156,0.019600391387939453,-0.00827731192111969,-0.04241262376308441,-0.09509491920471191,-0.12383586168289185,0.017104312777519226,0.09779918193817139,-0.048499733209609985,0.09984874725341797,-0.10196608304977417,-0.10015344619750977,-0.12077686190605164,0.07330802083015442,-0.09577617049217224,-0.041423946619033813,0.10265742242336273,-0.09412389993667603,0.07343360781669617,0.07881158590316772,-0.09079988300800323,0.05162195861339569,0.09093312919139862,0.10716529190540314,0.03637076914310455,-0.02732183039188385,0.07296356558799744,0.029424592852592468,0.09613257646560669,-0.08404496312141418,0.031554073095321655,0.08134698867797852,0.042411282658576965,-0.04093159735202789,0.07084286212921143,0.11361460387706757,-0.038866087794303894,0.03224541246891022,0.08093923330307007,0.05106012523174286,0.057317301630973816,-0.08516693115234375,-0.028601691126823425,-0.035423487424850464,0.046237513422966,-0.018851354718208313,0.054509133100509644,0.03640925884246826,0.044577792286872864,0.09546320140361786,0.005508333444595337,0.0772022157907486,0.12467139959335327,0.03008747100830078,0.12209929525852203,0.04561278223991394,-0.0377042293548584,0.0823570191860199,-0.12156380712985992,-0.06101489067077637,-0.022651493549346924,-0.04932212829589844,0.08136141300201416,-0.016521647572517395,0.04745975136756897,-0.052649930119514465,0.09652014076709747,-0.08347591757774353,-0.11698755621910095,0.10049214959144592,-0.09321649372577667,0.0789300948381424,-0.015361279249191284,0.07964402437210083,0.058467864990234375,-0.02522929012775421,-0.018209651112556458,-0.08822959661483765,-0.11484615504741669,-0.08290332555770874,0.01651906967163086,-0.05211688578128815,0.044114112854003906,0.03583380579948425,0.024665936827659607,0.04611353576183319,0.09012681245803833,0.02584080398082733,-0.04431740939617157,0.01854662597179413,0.03435841202735901,0.011289641261100769,0.016242653131484985,-0.12456001341342926,0.08390164375305176,0.10618552565574646,-0.09556606411933899,-0.11287471652030945,-0.032274603843688965,-0.009623274207115173,-0.02182583510875702,-0.12474068999290466,0.07666419446468353,-0.06641995906829834,-0.10798750817775726,-0.0317315012216568,-0.09630259871482849,-0.03065723180770874,-0.04155433177947998,0.03959833085536957,0.11430048942565918,0.0887388288974762,-0.015985801815986633,0.056103602051734924,-0.11599014699459076,0.008934035897254944,-0.10313665866851807,-0.12318778038024902,0.08023497462272644,-0.11294451355934143,0.07507462799549103,-0.09737804532051086,-0.08508066833019257,-0.01914934813976288,-0.08989976346492767,-0.03138980269432068,-0.07931259274482727,-0.009530171751976013,-0.10703274607658386,-0.10138110816478729,-0.08775971829891205,0.07007245719432831,0.07004715502262115,-0.002938508987426758,0.09684638679027557,-0.04745548963546753,0.08901466429233551,-0.1159689724445343,0.04620605707168579,-0.019163906574249268,-0.09567302465438843,-0.0011391788721084595,0.10350018739700317,-0.05796991288661957,0.08886559307575226,-0.01788446307182312,-0.08169429004192352,0.12103112041950226,-0.01647414267063141,0.11281287670135498,-0.04054613411426544,0.045800626277923584,0.0442059189081192,-0.02823801338672638,0.006236091256141663,-0.10570269823074341,-0.0539749413728714,0.11485226452350616,0.10470309853553772,0.12346790730953217,-0.09775501489639282,0.08385603129863739,-0.060899361968040466,0.03926897048950195,-0.0425436794757843,-0.05407330393791199,0.08978806436061859,0.11820538341999054,-0.07771393656730652,-0.039565399289131165,0.018379241228103638,-0.06761433184146881,0.10437686741352081,0.1119481772184372,0.03537982702255249,-0.12430374324321747,-0.049805909395217896,0.0805506706237793,0.0304097980260849,-0.08498980104923248,-0.08305773138999939,-0.07364414632320404,0.09507223963737488,0.09325569868087769,-0.012211665511131287,0.02913495898246765,0.009165644645690918,-0.043510645627975464,0.06974151730537415,-0.10600964725017548,0.04674074053764343,-0.07243719696998596,0.008717387914657593,0.0390269011259079,0.08549967408180237,0.032214149832725525,0.11724846065044403,-0.12345081567764282,0.0938299149274826,-0.0123816579580307,0.06396061182022095,0.0970788449048996,0.10410510003566742,-0.04534804821014404,-0.12438322603702545,-0.07236537337303162,-0.07882162928581238,-0.08318495750427246,-0.027812033891677856,0.08284953236579895,0.09758210182189941,-0.03979519009590149,0.10723474621772766,0.03321550786495209,0.04834212362766266,-0.09170068800449371,0.02794468402862549,-0.05493535101413727,0.07628025114536285,0.07424880564212799,-0.0014954358339309692,0.08688913285732269,-0.0752793550491333,0.09929552674293518,0.06346504390239716,-0.04729349911212921,-0.07016974687576294,0.1193825900554657,0.0748462826013565,-0.0014990568161010742,0.014988258481025696,0.053389281034469604,-0.006916031241416931,0.009527459740638733,-0.06391869485378265,-0.021643295884132385,0.10499940812587738,0.02131626009941101,0.10160520672798157,-0.081557497382164,0.027638137340545654,-0.09857615828514099,-0.09441500902175903,-0.06788930296897888,0.09307436645030975,-0.07423262298107147,-0.07388004660606384,-0.011902987957000732,0.12312951683998108,0.0288095623254776,-0.12408606708049774,-0.049917012453079224,0.015937060117721558,-0.08145609498023987,0.007954612374305725,-0.03588049113750458,0.08304953575134277,0.07755181193351746,-0.03938274085521698,-0.06824842095375061,0.1060439795255661,-0.08978615701198578,-0.1065174788236618,-0.11633460223674774,-0.07869581878185272,-0.09917797148227692,0.04826100170612335,-0.0016793161630630493,-0.07109825313091278,0.09605729579925537,-0.07082544267177582,0.04988302290439606,0.10624086856842041,0.08545820415019989,0.0800706297159195,-0.08615407347679138,-0.016779154539108276,-0.004209578037261963,0.08737872540950775,-0.03349831700325012,-0.042605265974998474,0.012631624937057495,-0.0675746351480484,-0.02064843475818634,-0.07127660512924194,-0.09993372857570648,-0.09986512362957001,-0.06109662353992462,0.10437880456447601,0.032078132033348083,0.10677120089530945,0.12393075227737427,-0.002445802092552185,0.0020053088665008545,-0.005523383617401123,0.11436077952384949,-0.027479514479637146,-0.04871301352977753,0.07295091450214386,0.03624536097049713,-0.03271190822124481,-0.034292370080947876,-0.003972440958023071,-0.0753096342086792,0.1025656908750534,0.06518667936325073,0.03071478009223938,0.09020845592021942,-0.06635679304599762,-0.0612725168466568,-0.008362576365470886,-0.021302074193954468,-0.09440238773822784,0.08947548270225525,-0.010146304965019226,0.07163985073566437,0.09674067795276642,0.10519111156463623,-0.0475308895111084,0.07385385036468506,-0.043929606676101685,0.0548979789018631,-0.09372586011886597,-0.02105756103992462,-0.10636670887470245,0.04548630118370056,0.06766554713249207,-0.011946365237236023,0.03209127485752106,-0.0497010201215744,0.055366724729537964,-0.007954627275466919,0.011247456073760986,0.0183221697807312,0.05665700137615204,-0.026420727372169495,0.04474426805973053,0.08053210377693176,-0.0030370354652404785,-0.007298290729522705,-0.0026177167892456055,-0.08858311176300049,0.09644129872322083,-0.027346596121788025,0.03595323860645294,-0.07590830326080322,0.09757156670093536,-0.019702225923538208,0.021312355995178223,-0.014573514461517334,-0.04112479090690613,-0.0610048770904541,0.11354519426822662,-0.022203832864761353,-0.10949650406837463,0.0910666286945343,-0.10661987960338593,0.10693906247615814,-0.015773072838783264,0.014652743935585022,0.061681732535362244,0.09482510387897491,-0.027166038751602173,-0.07409334182739258,-0.03875817358493805,0.1208423376083374,-0.06345127522945404,-0.07577116787433624,0.040170297026634216,-0.09714573621749878,0.11189797520637512,0.09352754056453705,0.03817349672317505,0.06254573166370392,-0.046068087220191956,-0.029239922761917114,-0.02424687147140503,-0.004693478345870972,0.08288784325122833,-0.010044470429420471,-0.11402696371078491,-0.09961095452308655,-0.058808133006095886,0.10964389145374298,-0.05737052857875824,0.04252997040748596,-0.055606186389923096,0.06560470163822174,-0.12036845088005066,-0.011693879961967468,0.09637854993343353,0.11329472064971924,0.0923641175031662,-0.016650095582008362,0.09012043476104736,0.05268290638923645,-0.1225769966840744,-0.041720181703567505,-0.10672396421432495,-0.09224559366703033,-0.09934122860431671,0.08357712626457214,-0.0930839329957962,-0.05632029473781586,-0.09692572057247162,0.023366928100585938,-0.10242313146591187,-0.04355938732624054,0.09726016223430634,0.017248496413230896,0.10051888227462769,0.08127178251743317,0.046419575810432434,0.0644267201423645,0.06252579391002655,-0.07922303676605225,0.10110597312450409,0.072161465883255,-0.048829540610313416,0.025700747966766357,-0.12068350613117218,0.04008498787879944,0.09268130362033844,0.021770194172859192,-0.047222331166267395,0.10309752821922302,0.05703434348106384,0.09106975793838501,0.08495758473873138,0.0792933851480484,0.07803718745708466,-0.07889793813228607,-0.0520605593919754,0.010472685098648071,0.09465663135051727,-0.10639509558677673,0.05294446647167206,-0.03970126807689667,0.018376976251602173,-0.07299591600894928,-0.053462982177734375,0.04604350030422211,-0.05162341892719269,0.12340891361236572,-0.0780942291021347,-0.10794639587402344,0.0032079368829727173,-0.022777125239372253,-0.01885990798473358,-0.11116866767406464,0.09251417219638824,0.05568118393421173,-0.038643598556518555,-0.07245875895023346,0.057081952691078186,0.09370175004005432,-0.04684670269489288,-0.026302218437194824,0.0479920357465744,0.07017549872398376,0.06032663583755493,0.049877241253852844,-0.10883666574954987,0.087686687707901,0.09566748142242432,-0.10378551483154297,-0.10649783909320831,0.03440028429031372,0.1131066381931305,0.00623774528503418,-0.028842061758041382,0.016535669565200806,-0.10999062657356262,-0.07480020821094513,-0.09915784001350403,0.08816538751125336,-0.05511090159416199,0.06156718730926514,-0.05531875789165497,0.025150805711746216,0.025050371885299683,0.09129828214645386,-0.0699506551027298,0.040011927485466,-0.11765255033969879,-0.017954140901565552,0.012881174683570862,-0.01233711838722229,-0.01898042857646942,0.02694542706012726,-0.0165872722864151,-0.02994425594806671,0.11084114015102386,-0.059404075145721436,0.08362932503223419,-0.08692744374275208,-0.014061197638511658,-0.016130998730659485,0.0007234513759613037,0.08041010797023773,-0.027640536427497864,0.033304363489151,0.0239553302526474,-0.0029334574937820435,-0.013553574681282043,-0.10002581775188446,-0.11585041880607605,0.043938636779785156,0.0940466970205307,-0.042966797947883606,0.047532424330711365,-0.08891212940216064,-0.11490209400653839,-0.040602728724479675,0.12494860589504242,-0.11569353938102722,0.022804826498031616,-0.000986143946647644,0.056876614689826965,-0.10547137260437012,0.009031444787979126,0.03807227313518524,-0.07192085683345795,-0.09435692429542542,0.031089186668395996,-0.0989493727684021,-0.10050621628761292,0.05264335870742798,-0.040662676095962524,0.05856837332248688,-0.12273713946342468,0.1106640100479126,-0.025291800498962402,0.07790979743003845,0.09747055172920227,-0.09733648598194122,-0.013418525457382202,0.0577487051486969,0.029633253812789917,-0.04348170757293701,-0.047380074858665466,0.05412919819355011,0.00238664448261261,-0.10192260146141052,-0.02731965482234955,0.04901424050331116,0.0499342679977417,-0.010840117931365967,0.02494072914123535,-0.027113378047943115,-0.03156404197216034,0.0031307190656661987,0.0057366639375686646,-0.025178134441375732,0.008773073554039001,0.04682925343513489,-0.03352634608745575,-0.04562754929065704,0.0010591596364974976,-0.07468947768211365,0.07088571786880493,0.10150434076786041,0.06424756348133087,0.025670915842056274,-0.05343736708164215,-0.0030364990234375,0.10570837557315826,0.041967228055000305,-0.041706159710884094,-0.0004151761531829834,-0.0009711235761642456,0.019597724080085754,-0.04687981307506561,-0.062405943870544434,0.021695271134376526,0.03485181927680969,-0.12317575514316559,-0.01779104769229889,0.013576328754425049,0.025777116417884827,0.04057633876800537,0.0011502653360366821,0.10806699097156525,-0.0075982362031936646,0.07762601971626282,0.017702803015708923,0.07419511675834656,0.0006542503833770752,-0.10060609877109528,0.034344494342803955,0.0943351536989212,-0.006060272455215454,0.11018110811710358,-0.10959234833717346,-0.0946577787399292,-0.05578850209712982,-0.062107428908348083,-0.08392451703548431,0.050540417432785034,-0.1137848049402237,0.013726815581321716,0.0028920769691467285,0.04308502376079559,-0.07169586420059204,-0.09410236775875092,-0.06066647171974182,-0.01958693563938141,-0.12227281928062439,0.09961585700511932,-0.05595211684703827,-0.05515207350254059,-0.009147092700004578,-0.11850212514400482,0.10185271501541138,0.0004438459873199463,-0.01239381730556488,-0.0074324458837509155,-0.005056604743003845,0.026041284203529358,0.032844558358192444,0.05333423614501953,0.11776165664196014,0.04978393018245697,0.0069884806871414185,0.004330039024353027,0.07728812098503113,0.011125832796096802,0.08634281158447266,-0.060559213161468506,-0.08458545804023743,-0.07661084830760956,0.028603702783584595,0.07283513247966766,0.03381754457950592,-0.06579680740833282,-0.09577278792858124,-0.0413905531167984,0.09456983208656311,0.019955158233642578,-0.043286487460136414,0.04480545222759247,-0.06321580708026886,0.08456829190254211,-0.0993003100156784,0.06775473058223724,0.031339287757873535,-0.10948547720909119,-0.05131499469280243,0.08594425022602081,0.05398237705230713,-0.04261608421802521,-0.09377549588680267,0.07044941186904907,-0.08345383405685425,-0.0721016377210617,-0.058487892150878906,0.027115270495414734,-0.05682414770126343,-0.07788549363613129,0.03420694172382355,-0.0017884522676467896,-0.07446534931659698,-0.09764882922172546,-0.03864744305610657,-0.12391237914562225,0.03974279761314392,-0.1155230700969696,0.014447525143623352,0.001420438289642334,-0.04569344222545624,0.016469404101371765,-0.08582191169261932,0.027667924761772156,0.06240110099315643,-0.04617573320865631,0.10475988686084747,-0.10129983723163605,0.09715016186237335,0.09691931307315826,-0.09617707133293152,-0.09792332351207733,0.10088557004928589,-0.0241357684135437,0.026636868715286255,-0.10698334872722626,-0.010141193866729736,-0.054659828543663025,-0.1205960363149643,0.023072674870491028,0.07495835423469543,0.1105734258890152,-0.00762958824634552,0.04394981265068054,-0.022447988390922546,-0.024210557341575623,0.000997781753540039,-0.020305603742599487,0.11396229267120361,-0.03940436244010925,-0.1130809336900711,-0.11029763519763947,0.07187128067016602,-0.11053745448589325,0.06107422709465027,-0.06376613676548004,-0.040683314204216,-0.11864092946052551,0.08506126701831818,0.0028815120458602905,0.03557439148426056,0.07162714004516602,0.0220823734998703,0.1227203756570816,0.005099460482597351,0.034381553530693054,0.09596693515777588,-0.012318417429924011,0.011140778660774231,-0.10117252171039581,-0.006465315818786621,-0.05136445164680481,-0.0776967704296112,0.021975338459014893,-0.08429627120494843,-0.12358002364635468,-0.05392727255821228,0.016736701130867004,0.09809941053390503,-0.10789087414741516,-0.10022614896297455,0.10523498058319092,-0.013195931911468506,-0.012809261679649353,-0.008705347776412964,0.09108023345470428,-0.00598202645778656,0.08051919937133789,0.11288498342037201,0.05666610598564148,0.051095396280288696,-0.020922750234603882,-0.024597346782684326,-0.10828424990177155,0.04716527462005615,0.11989796161651611,0.10825887322425842,0.1049686074256897,-0.10830436646938324,-0.08565834164619446,-0.07782337069511414,-0.06743544340133667,-0.00987003743648529,-0.045643895864486694,0.05080081522464752,0.05622003972530365,0.044774413108825684,0.09259448945522308,0.052890583872795105,-0.08039671182632446,0.07348878681659698,0.0995655506849289,0.06756585836410522,0.10878521203994751,0.045909583568573,-0.07213221490383148,0.061014771461486816,0.09309206902980804,-0.03909672796726227,0.03550952672958374,-0.05329287052154541,-0.08824524283409119,0.06358598172664642,0.08094573020935059,-0.014545276761054993,-0.020464405417442322,-0.11037252843379974,-0.10155405104160309,-0.07142294943332672,-0.06767450273036957,0.04659251868724823,-0.09065163135528564,-0.02489607036113739,-0.05964837968349457,-0.09539997577667236,0.11992165446281433,-0.08207450807094574,0.028839409351348877,0.0455174446105957,-0.060184821486473083,0.02142299711704254,-0.0717429518699646,-0.0959199070930481,0.021113574504852295,0.1075005829334259,-0.12482514977455139,0.08672353625297546,0.09980103373527527,0.03876984119415283,0.05759258568286896,0.09683705866336823,0.0527486652135849,0.09165845811367035,0.03798772394657135,0.04370850324630737,-0.03227822482585907,-0.12309055030345917,0.003760725259780884,0.02099175751209259,-0.007475227117538452,-0.019705891609191895,0.010693132877349854,-0.051516368985176086,0.028877556324005127,-0.10080479085445404,0.09351719915866852,0.06845955550670624,0.00834701955318451,0.07045280933380127,0.07708191871643066,0.00031194090843200684,-0.10892082750797272,-0.11975033581256866,0.07977484166622162,-0.08363175392150879,-0.1018187552690506,-0.06090742349624634,-0.071351557970047,-0.01035335659980774,-0.0459272563457489,0.05663838982582092,0.10943998396396637,0.08650746941566467,0.10272642970085144,-0.07248620688915253,0.06973513960838318,0.01035231351852417,0.10100065171718597,0.0076811909675598145,0.047370120882987976,0.058209314942359924,-0.11377790570259094,0.0267193466424942,-0.036102622747421265,0.09007063508033752,0.06147956848144531,-0.1081843376159668,-0.12054967880249023,-0.06386698782444,-0.05147738754749298,0.08269272744655609,0.0954628735780716,0.017392829060554504,0.0259333997964859,0.04286624491214752,-0.014538124203681946,0.012931600213050842,0.003573372960090637,0.11090978980064392,0.020907506346702576,0.05886197090148926,-0.09402534365653992,-0.02604973316192627,-0.015211790800094604,-0.05832625925540924,0.08819833397865295,-0.019939273595809937,0.07642604410648346,-0.023966267704963684,-0.12419945001602173,0.007784441113471985,-0.10779590904712677,-0.1042928546667099,-0.099246084690094,0.03964151442050934,0.11943946778774261,0.0707281231880188,-0.09337790310382843,0.08567969501018524,0.07447618246078491,0.03745537996292114,-0.009540960192680359,-0.09758588671684265,0.11992374062538147,0.07388292253017426,0.10308991372585297,0.044310182332992554,0.10127672553062439,0.051513463258743286,-0.07754726707935333,0.07281152904033661,0.07371529936790466,-0.11774991452693939,-0.0510583221912384,-0.11380982398986816,0.09724552929401398,-0.09860439598560333,0.11558738350868225,-0.05393800139427185,0.10911519825458527,0.03598129749298096,0.07017786800861359,0.0022293180227279663,0.08812826871871948,0.010529875755310059,0.006324678659439087,0.08625559508800507,-0.07132071256637573,0.015382125973701477,0.009082809090614319,-0.12484459578990936,-0.02921205759048462,-0.025620952248573303,0.11006191372871399,-0.09748043119907379,-0.11088575422763824,-0.02359183132648468,-0.008849933743476868,-0.10315291583538055,-0.03626403212547302,0.0363897830247879,-0.11573216319084167,-0.046264320611953735,-0.04842379689216614,0.05446226894855499,0.09130804240703583,-0.024929732084274292,-0.11350904405117035,0.08779272437095642,0.031096145510673523,0.0688151866197586,0.08403818309307098,0.04378293454647064,0.05835027992725372,0.03418444097042084,-0.02710042893886566,0.05458219349384308,-0.001600712537765503,-0.05055481195449829,-0.10495172441005707,-0.09624119102954865,-0.10667158663272858,0.0673401802778244,0.09937947988510132,0.061901360750198364,-0.07096405327320099,-0.08338284492492676,0.11141666769981384,0.021271318197250366,-0.04904851317405701,0.0072084516286849976,0.030946210026741028,-0.05364514887332916,-0.1183169037103653,-0.026058673858642578,0.016037598252296448,0.05582450330257416,0.07030622661113739,-0.12295971810817719,-0.12380148470401764,0.07850080728530884,0.10051113367080688,0.02206219732761383,0.011970579624176025,0.006199702620506287,0.11998289823532104,0.059579163789749146,0.019312366843223572,-0.12345120310783386,-0.03810666501522064,-0.021270722150802612,-0.07900696992874146,-0.07340401411056519,0.10353647172451019,0.011160582304000854,-0.11881940066814423,-0.061516016721725464,0.05110651254653931,0.05625031888484955,-0.09346714615821838,-0.04520155489444733,0.0934765487909317,0.022363290190696716,0.04102790355682373,0.02424393594264984,-0.025616392493247986,-0.036076322197914124,-0.06053231656551361,0.07823394238948822,-0.03562724590301514,-0.10332149267196655,0.08853046596050262,0.1057438850402832,-0.04837755858898163,0.11242394149303436,0.013741448521614075,0.0886194258928299,-0.09410473704338074,-0.043392688035964966,-0.07128272950649261,0.10940930247306824,-0.019353464245796204,-0.06315457820892334,0.10180051624774933,0.10812772810459137,-0.11880059540271759,0.004156231880187988,-0.03925494849681854,0.0024128705263137817,0.04775454103946686,0.11361494660377502,-0.019554421305656433,0.03043125569820404,-0.08025401830673218,0.053220927715301514,-0.01711268723011017,0.05107435584068298,-0.07818828523159027,-0.10393114387989044,-0.06850869953632355,0.0021289288997650146,0.0208510160446167,0.04407317936420441,-0.09104892611503601,-0.047231271862983704,-0.11797420680522919,-0.04238368570804596,0.07806764543056488,-0.028311118483543396,-0.08543704450130463,-0.11185701191425323,-0.02345407009124756,0.0950959175825119,0.05394686758518219,0.10912148654460907,-0.048773109912872314,0.09898851811885834,-0.1020389199256897,0.024554967880249023,0.011830970644950867,-0.09019221365451813,-0.05649867653846741,0.059924960136413574,0.09516476094722748,-0.01064234972000122,0.045671477913856506,0.06963223218917847,-0.02222120761871338,0.03874996304512024,0.10622166097164154,-0.11998488008975983,0.020980820059776306,-0.07343509793281555,0.01924799382686615,-0.03797052800655365,-0.08326560258865356,-0.06059339642524719,0.08687278628349304,-0.04056249558925629,0.005533739924430847,-0.020572543144226074,0.05670836567878723,0.12431882321834564,-0.06245090067386627,0.03871223330497742,0.07936368882656097,0.005126744508743286,0.0015372633934020996,-0.1206187754869461,0.010296210646629333,0.04583357274532318,0.01706567406654358,0.08762040734291077,-0.05978831648826599,0.04246802628040314,-0.09798839688301086,-0.1187402755022049,-0.09589783847332001,0.12107723951339722,-0.0070656538009643555,-0.013464853167533875,-0.10886743664741516,-0.020383909344673157,-0.08572527766227722,0.024354562163352966,0.0002040565013885498,-0.02026335895061493,-0.01334303617477417,0.08738057315349579,-0.016784310340881348,0.00347745418548584,0.024256080389022827,0.11653582751750946,-0.12356351315975189,-0.09466928243637085,0.10204575955867767,0.007956266403198242,-0.04549933969974518,0.0009106844663619995,-0.04838778078556061,-0.04672554135322571,-0.09948423504829407,0.08144423365592957,-0.0859002023935318,-0.027924448251724243,-0.03639417886734009,0.11020255088806152,0.10359673202037811,0.012778177857398987,-0.11496967077255249,0.06463350355625153,0.02194400131702423,0.0028868019580841064,0.010784134268760681,-0.003301456570625305,-0.013197749853134155,0.03695836663246155,-0.037065550684928894,0.039311811327934265,0.06381075084209442,-0.01781928539276123,0.057746246457099915,0.09278368949890137,-0.072080597281456,0.015801653265953064,-0.0275716632604599,-0.06816451251506805,0.046999603509902954,0.017146334052085876,0.08530214428901672,0.08895356953144073,0.024745941162109375,0.045441240072250366,-0.10687322914600372,-0.09108144044876099,-0.11530190706253052,-0.1017274409532547,0.011017009615898132,-0.09998944401741028,0.07166582345962524,-0.014539912343025208,-0.028299912810325623,0.005257308483123779,-0.03003215789794922,-0.0681799054145813,-0.09317994117736816,0.08656328916549683,-0.1102764904499054,-0.06614123284816742,-0.08588981628417969,-0.03203721344470978,0.07716535031795502,-0.06797726452350616,0.08256824314594269,-0.059334591031074524,0.017509564757347107,-0.08864277601242065,0.05743527412414551,0.08374044299125671,-0.07065673172473907,-0.05460257828235626,-0.04289911687374115,-0.08487704396247864,-0.08706513047218323,0.0035718679428100586,0.060166895389556885,0.10628016293048859,0.10338403284549713,0.03394804894924164,-0.01665768027305603,0.02994348108768463,-0.12225508689880371,0.03011181950569153,0.005595281720161438,0.027706041932106018,-0.11478888988494873,0.048901066184043884,-0.08079297840595245,-0.01824238896369934,0.006715178489685059,-0.04882687330245972,0.008471250534057617,-0.10346314311027527,-0.048902615904808044,0.06707620620727539,-0.023387104272842407,-0.023974284529685974,-0.06819891929626465,-0.019010111689567566,-0.02143383026123047,-0.07781508564949036,-0.06637588143348694,0.04796089231967926,0.005543321371078491,-0.0489732027053833,0.09218823909759521,-0.07189182937145233,0.06652005016803741,-0.026049494743347168,0.03765136003494263,-0.07041080296039581,-0.09452593326568604,0.02887284755706787,-0.05166466534137726,-0.0714607685804367,0.08738283812999725,0.0061563849449157715,0.07284240424633026,0.001957505941390991,0.033638566732406616,0.11783197522163391,-0.10243469476699829,0.0777016133069992,0.03931552171707153,-0.10656830668449402,-0.018742024898529053,-0.06950798630714417,-0.12429328262805939,0.03314749896526337,0.07369019091129303,0.07603657245635986,-0.07791736721992493,0.011926844716072083,-0.00785277783870697,-0.009751513600349426,-0.09969452023506165,0.09294359385967255,-0.0338468998670578,0.022854313254356384,-0.03628858923912048,-0.051881030201911926,-0.08810880780220032,0.04158264398574829,0.024989843368530273,0.055316150188446045,-0.11460945010185242,0.03274543583393097,-0.05614936351776123,-0.03904359042644501,0.052955955266952515,0.10050548613071442,-0.056965142488479614,-0.017365574836730957,-0.05173987150192261,0.12267367541790009,-0.05333156883716583,0.04439648985862732,0.07920606434345245,-0.03781332075595856,0.08980438113212585,0.09067577123641968,-0.035873234272003174,0.034109681844711304,0.11605852842330933,-0.007272198796272278,0.028093338012695312,-0.03274784982204437,0.09613507986068726,-0.000567898154258728,0.04057258367538452,0.07841479778289795,-0.04856009781360626,0.03959605097770691,0.12167181074619293,-0.010425865650177002,0.05078256130218506,0.035564690828323364,0.08452551066875458,0.06799532473087311,0.11012604832649231,0.10489106178283691,-0.10749879479408264,-0.09491080045700073,0.03104531764984131,0.062399253249168396,-0.05403931438922882,-0.04718595743179321,0.0775931179523468,0.0021777451038360596,0.047595128417015076,0.11056269705295563,-0.006393998861312866,-0.09784409403800964,-0.12164032459259033,-0.022819161415100098,-0.10244281589984894,0.04987330734729767,-0.05753794312477112,-0.08024774491786957,-0.11108379065990448,-0.002709135413169861,0.04653821885585785,0.02465417981147766,0.015533030033111572,0.05773407220840454,-0.02667306363582611,-0.019662365317344666,0.09751789271831512,-0.03856378793716431,-0.022017285227775574,-0.011830449104309082,0.1215737909078598,0.10150736570358276,0.00932338833808899,-0.04253301024436951,-0.0710238665342331,0.07234886288642883,-0.10875143110752106,-0.08049546182155609,-0.00772431492805481,-0.05710993707180023,0.042444199323654175,0.11146102845668793,-0.07330413162708282,-0.07792462408542633,0.09538117051124573,0.053596094250679016,0.09578226506710052,-0.11081704497337341,-0.074522465467453,-0.08666758239269257,0.08623813092708588,-0.10045526921749115,-0.09796862304210663,-0.014434605836868286,0.04490971565246582,0.04728202521800995,-0.09490877389907837,-0.09856364130973816,0.12472474575042725,0.12085683643817902,0.05151103436946869,-0.035986751317977905,-0.0838724821805954,-0.0573505163192749,-0.11636444926261902,0.02713124454021454,-0.02430015802383423,-0.10363489389419556,-0.06030721962451935,0.016847968101501465,-0.0019101500511169434,0.09837615489959717,0.0815945416688919,-0.026814162731170654,0.08927679061889648,-0.09194371104240417,0.019086435437202454,0.018912911415100098,0.0677131712436676,-0.02639220654964447,-0.016317933797836304,0.030136853456497192,0.1057911217212677,-0.10116612911224365,0.004735082387924194,-0.026851043105125427,0.03528028726577759,-0.055397212505340576,0.08295038342475891,-0.014298319816589355,0.012503132224082947,0.1002882570028305,0.030720040202140808,-0.08767247200012207,-0.12133100628852844,0.03275744616985321,-0.08433976769447327,-0.03605395555496216,0.0842902660369873,-0.02694357931613922,0.03275531530380249,-0.09380845725536346,-0.08628612756729126,-0.017319515347480774,0.021814405918121338,-0.02965538203716278,-0.09970049560070038,-0.08825211226940155,0.03622335195541382,-0.09717634320259094,-0.024315640330314636,0.08585554361343384,0.06232728064060211,0.0425715446472168,-0.0875198245048523,-0.09109926223754883,-0.037729546427726746,0.09331870079040527,-0.10991448163986206,-0.03202056884765625,-0.01909002661705017,0.08842907845973969,0.017898306250572205,-0.07496991753578186,0.04770238697528839,0.018859833478927612,-0.024700209498405457,0.0670069009065628,-0.043022871017456055,0.031239911913871765,0.10426557064056396,-0.05882716178894043,0.07192917168140411,0.04396262764930725,-0.018725261092185974,0.04311691224575043,-0.07389990985393524,0.08026193082332611,0.09522315859794617,-0.04402807354927063,-0.04307079315185547,0.11642713844776154,-0.07943730056285858,-0.07354596257209778,0.05668015778064728,0.014839231967926025,-0.043544620275497437,-0.05128955841064453,0.12386153638362885,0.046575769782066345,-0.08958742022514343,-0.0478782057762146,0.06838351488113403,-0.055931732058525085,-0.11360616981983185,-0.0001551210880279541,0.022473230957984924,-0.01552078127861023,0.01178017258644104,-0.0501033216714859,-0.023383766412734985,0.10916610062122345,-0.0348946750164032,0.07518507540225983,-0.07974803447723389,0.06003214418888092,-0.10172376036643982,-0.08181864023208618,-0.038237109780311584,0.12191566824913025,-0.08860357105731964,-0.037117600440979004,0.051012977957725525,-0.05203980207443237,-0.042470782995224,0.095549076795578,-0.10811074078083038,0.09854578971862793,-0.09338437020778656,0.03040282428264618,-0.0964413732290268,0.07287515699863434,-0.08680322766304016,-0.09407952427864075,0.12091927230358124,0.022509261965751648,0.07793442904949188,-0.12183696031570435,-0.065744549036026,0.0302114337682724,0.06400586664676666,0.01907120645046234,0.04795995354652405,-0.030916109681129456,0.08064049482345581,-0.11620739102363586,0.017252236604690552,-0.01402062177658081,-0.06235969066619873,0.06368598341941833,0.09877657890319824,-0.010707899928092957,0.006553828716278076,0.01253288984298706,-0.09753067791461945,-0.007435441017150879,-0.0201227068901062,-0.0714600682258606,-0.09951303899288177,-0.11675743758678436,-0.008105337619781494,-0.06627093255519867,0.10211947560310364,-0.0027719736099243164,0.0958552211523056,-0.014983460307121277,0.05926723778247833,-0.10553427040576935,-0.11581996083259583,0.0862131118774414,0.0130825936794281,-0.1237374097108841,-0.026493549346923828,-0.0986291915178299,0.08972688019275665,0.040680065751075745,0.12419372797012329,-0.05925275385379791,-0.06606021523475647,0.10385866463184357,-0.06715832650661469,-0.05424349009990692,-0.11126644909381866,0.07036517560482025,-0.10617977380752563,0.0633554607629776,-0.08822515606880188,0.03644099831581116,0.12153191864490509,-0.08743216097354889,-0.02112153172492981,0.06464983522891998,-0.05286124348640442,0.03361910581588745,-0.08616051077842712,0.028563112020492554,0.011074960231781006,0.07107092440128326,-0.0765204131603241,-0.12127166986465454,0.055569544434547424,0.08171549439430237,0.05094216763973236,0.0457034558057785,0.10226039588451385,0.11742621660232544,0.07298438251018524,0.11072005331516266,-0.1060321033000946,0.026498839259147644,-0.04202984273433685,0.03564347326755524,0.06323014199733734,0.0620027631521225,-0.05880868434906006,0.10458965599536896,0.11520762741565704,0.055936336517333984,0.015914186835289,-0.059971973299980164,0.008756756782531738,-0.028967544436454773,0.08495303988456726,-0.0011388063430786133,-0.037645235657691956,-0.10374073684215546,-0.033710867166519165,-0.10163244605064392,0.08596831560134888,0.08189444243907928,0.03901641070842743,-0.011143550276756287,0.07068412005901337,0.03445787727832794,0.10311491787433624,-0.02374616265296936,-0.05541609227657318,0.057328760623931885,0.05522093176841736,-0.11148770153522491,0.029218435287475586,-0.12108638882637024,0.05699814856052399,-0.11317653954029083,0.005719318985939026,-0.07225458323955536,-0.017220258712768555,-0.09445938467979431,0.007840022444725037,-0.055249035358428955,0.105283722281456,-0.023904874920845032,0.04542939364910126,0.03692573308944702,-0.09674744307994843,0.041700348258018494,0.06985253095626831,-0.0953989028930664,-0.049212947487831116,0.10203169286251068,0.032213255763053894,-0.03983108699321747,-0.06505468487739563,0.09169860184192657,-0.09818963706493378,0.08788731694221497,-0.024306684732437134,0.03134876489639282,0.008398935198783875,-0.09429444372653961,-0.05599533021450043,0.06902259588241577,-0.09319962561130524,-0.039605945348739624,0.07114429771900177,0.021224245429039,-0.08867275714874268,0.01607327163219452,0.11456117033958435,-0.00829988718032837,0.03852057456970215,0.09910224378108978,0.059609636664390564,-0.07898993790149689,-0.0768430233001709,-0.10593627393245697,0.07066814601421356,-0.013331338763237,-0.053161054849624634,0.01878969371318817,-0.09422612190246582,-0.014301672577857971,-0.07966098189353943,-0.10098192095756531,0.09936408698558807,-0.04234105348587036,-0.053009599447250366,0.08243481814861298,-0.05889660120010376,-0.06697395443916321,0.0651686042547226,0.04139067232608795,0.032590195536613464,-0.030748426914215088,-0.06272004544734955,-0.01309598982334137,-0.0923270583152771,0.011383786797523499,0.04325661063194275,0.10779249668121338,0.11971384286880493,0.05903688073158264,0.04403764009475708,0.09264880418777466,-0.11324863135814667,-0.12320935726165771,0.048485368490219116,0.083010733127594,0.11581219732761383,0.09063376486301422,0.08889028429985046,0.0018547922372817993,0.04812216758728027,-0.0812273770570755,0.08289170265197754,0.04080663621425629,0.013344913721084595,-0.08739781379699707,-0.10603572428226471,0.007128462195396423,0.12372460961341858,-0.029514014720916748,-0.03181764483451843,-0.124417245388031,0.11998327076435089,0.07749833166599274,0.03845436871051788,0.007394716143608093,0.12134543061256409,-0.03543473780155182,0.07861548662185669,-0.009906485676765442,-0.05272075533866882,0.10937584936618805,-0.10702918469905853,-0.0481414794921875,0.12266932427883148,-0.07807858288288116,-0.0830201655626297,0.09904055297374725,0.11184141039848328,0.01185046136379242,0.03368319571018219,-0.10718275606632233,0.00920085608959198,-0.11482490599155426,-0.017037928104400635,0.1220506876707077,0.046348556876182556,0.07747781276702881,-0.07196350395679474,-0.028318345546722412