-0.08999298512935638,-0.09464651346206665,0.03372018039226532,0.044112831354141235,-0.10534155368804932,0.07263743877410889,0.0821213573217392,0.0990169495344162,-0.07897794246673584,-0.05181160569190979,0.06140042841434479,0.040460005402565,0.0982910692691803,0.03202584385871887,0.054962679743766785,-0.007348582148551941,0.04418852925300598,-0.004265442490577698,0.085132896900177,0.02045491337776184,-0.10165022313594818,0.02684439718723297,-0.054807066917419434,-0.025478407740592957,0.025857731699943542,-0.07103215157985687,0.03981257975101471,0.031532734632492065,-0.11568786203861237,-0.1051330715417862,-0.07970641553401947,0.05409333109855652,0.09271341562271118,0.08819365501403809,0.002139344811439514,-0.08452269434928894,0.08575418591499329,0.10385942459106445,-0.10016694664955139,0.10861106216907501,0.09393090009689331,0.030064523220062256,0.009072929620742798,-0.1119384765625,-0.08240693807601929,-0.08113463222980499,-0.08378957211971283,0.09511177241802216,0.06374357640743256,0.10513348877429962,-0.025278404355049133,-0.06370760500431061,0.07756473124027252,0.043169066309928894,0.03162001073360443,0.06632980704307556,0.1127644032239914,0.10131330788135529,0.08982650935649872,0.042237088084220886,0.02515128254890442,0.03699427843093872,-0.05402645468711853,-0.007070168852806091,0.0497175008058548,0.09397026896476746,0.03885418176651001,-0.053908467292785645,0.08780467510223389,-0.08132994174957275,0.11563493311405182,0.12247361242771149,0.07220183312892914,0.11293555796146393,0.10344953835010529,0.003228306770324707,0.12036584317684174,-0.047104641795158386,0.0590643584728241,0.1049078106880188,0.0755653828382492,-0.04821300506591797,0.014477282762527466,-0.0021168291568756104,-0.11632728576660156,-0.10268749296665192,0.08735913038253784,-0.0054309070110321045,-0.06678988039493561,-0.016541585326194763,0.07481059432029724,0.07477037608623505,-0.054029643535614014,0.11320503056049347,0.013278946280479431,0.10153810679912567,0.09184293448925018,0.01219300925731659,-0.056079134345054626,-0.04035988450050354,0.10632665455341339,-0.03714197874069214,0.08932808041572571,-0.05447499454021454,-0.0572890043258667,0.010067149996757507,-0.00032132863998413086,0.0864952951669693,0.03343088924884796,0.013662651181221008,-0.009925037622451782,0.12127453088760376,0.1096096932888031,-0.08601541817188263,0.04171931743621826,0.050138458609580994,0.1160697489976883,0.0900450050830841,-0.07812878489494324,0.06212879717350006,-0.10100491344928741,0.07585041224956512,-0.017346084117889404,-0.05699913203716278,0.05705854296684265,0.03977218270301819,-0.07849736511707306,0.09743626415729523,0.02679707109928131,0.06672647595405579,-0.07401375472545624,-0.0035064220428466797,-0.06801730394363403,0.05966675281524658,-0.001972004771232605,-0.03235533833503723,-0.08411623537540436,0.04306744039058685,-0.04569630324840546,0.06508742272853851,0.06541979312896729,0.049206241965293884,0.06873099505901337,-0.017700597643852234,0.002907589077949524,-0.10430099070072174,0.06901594996452332,-0.07510475814342499,0.07913413643836975,0.002240508794784546,0.019018813967704773,0.06746324896812439,-0.03661815822124481,-0.021286696195602417,0.0595666766166687,0.004767119884490967,-0.045398905873298645,-0.004871442914009094,-0.01565760374069214,-0.1240767240524292,-0.10012036561965942,-0.026076540350914,-0.08912138640880585,0.06081405282020569,0.08058527112007141,0.014338493347167969,0.055102214217185974,-0.057704389095306396,0.03175047039985657,-0.1000077873468399,-0.024716898798942566,0.0056851208209991455,0.0923319011926651,-0.02398313581943512,-0.03543098270893097,-0.058816954493522644,0.017258331179618835,0.023686498403549194,0.0038010776042938232,0.09306858479976654,0.0027247965335845947,0.004641100764274597,0.023404046893119812,0.0612386018037796,-0.006218969821929932,-0.0808325707912445,0.0065246522426605225,0.050102949142456055,0.07635737955570221,0.05298641324043274,-0.0972212702035904,-0.09811295568943024,0.11123596131801605,-0.10680289566516876,-0.030865803360939026,0.1227605938911438,-0.07484123110771179,0.1175803542137146,-0.0644281804561615,0.09092570841312408,-0.005260780453681946,-0.0914425253868103,0.11402712762355804,0.020251840353012085,0.07507464289665222,-0.00930851697921753,-0.09127101302146912,0.004839062690734863,-0.006533697247505188,-0.053425610065460205,-0.011990249156951904,-0.009189888834953308,-0.09187762439250946,-0.12217655777931213,0.09805414080619812,-0.006989896297454834,0.10831022262573242,0.10762205719947815,0.08946681022644043,-0.10448984801769257,-0.0915842354297638,0.11783851683139801,-0.023693889379501343,-0.06629647314548492,0.0682491809129715,0.06372660398483276,0.017383456230163574,0.009364157915115356,-0.02086016535758972,0.0753827840089798,0.09960517287254333,0.026335731148719788,-0.02716381847858429,-0.11651624739170074,-0.04489223659038544,-0.10331623256206512,0.09318555891513824,0.08594773709774017,-0.12159699201583862,-0.11320766806602478,-0.12268544733524323,0.10073986649513245,-0.05548962950706482,-0.12355497479438782,-0.09159666299819946,-0.07309654355049133,0.11871728301048279,0.12498438358306885,-0.014420047402381897,0.10470022261142731,-0.03787393867969513,-0.010771974921226501,-0.08679017424583435,0.07260686159133911,-0.08043469488620758,-0.050582826137542725,-0.0916086733341217,-0.09297573566436768,-0.018169507384300232,-0.035196200013160706,-0.041154056787490845,0.05641186237335205,0.054216742515563965,-0.11992986500263214,0.08150869607925415,-0.0017259567975997925,0.029071956872940063,-0.002319902181625366,0.09412053227424622,-0.07781361043453217,-0.057543426752090454,-0.05060744285583496,-0.09502263367176056,-0.10397092998027802,0.039397403597831726,-0.02967946231365204,0.04239015281200409,0.10292376577854156,-0.09464015066623688,-0.05926722288131714,0.11458271741867065,0.07014331221580505,-0.10877948999404907,-0.05554768443107605,-0.04742951691150665,-0.0503493994474411,0.10348711907863617,-0.10987453162670135,-0.02895955741405487,-0.10417105257511139,-0.10473664104938507,0.003587484359741211,-0.022238165140151978,-0.0012637972831726074,0.0010142773389816284,0.01637294888496399,0.12293659150600433,-0.07064573466777802,0.024224787950515747,0.050328418612480164,-0.060966745018959045,-0.036777839064598083,-0.08705799281597137,0.06050515174865723,-0.09822049736976624,-0.05888861417770386,0.0824219137430191,-0.04127344489097595,-0.0077145397663116455,0.032962486147880554,0.08196800947189331,-0.005461394786834717,0.02845779061317444,-0.10966673493385315,-0.06712208688259125,-0.08352890610694885,-0.11400216817855835,0.05507543683052063,0.006829366087913513,-0.014461129903793335,-0.07246793806552887,-0.036486074328422546,-0.03302851319313049,-0.09588831663131714,0.09771271049976349,-0.00847536325454712,-0.1194644421339035,-0.11643537878990173,0.09122850000858307,-0.11896301805973053,0.09777633845806122,0.04653280973434448,-0.11656981706619263,0.05814170837402344,0.08629725873470306,0.010141417384147644,-0.04578770697116852,-0.10627616941928864,0.10190404951572418,0.08190126717090607,0.10221312940120697,0.09344352781772614,-0.08286324143409729,0.08932562172412872,-0.022013157606124878,-0.07436691224575043,-0.10154695808887482,-0.013463184237480164,0.06970037519931793,0.04330518841743469,0.11461268365383148,0.05983532965183258,0.08798640966415405,0.09041787683963776,0.09459836781024933,-0.04623781144618988,-0.07297442853450775,0.06204627454280853,-0.10438559949398041,-0.02306312322616577,0.09447377920150757,-0.06216919422149658,-0.022927597165107727,0.05512838065624237,-0.03219936788082123,-0.02398146688938141,0.105741947889328,0.059748247265815735,-0.047876402735710144,0.07825401425361633,0.07543931901454926,0.03194333612918854,-0.07960067689418793,0.09872905910015106,-0.0429818332195282,0.09056276082992554,-0.07817460596561432,-0.0018460452556610107,-0.07638226449489594,0.11943840980529785,-0.11841729283332825,0.032650575041770935,0.11224950850009918,0.055074840784072876,0.06674832105636597,0.11868953704833984,0.0853949636220932,0.061858758330345154,-0.12325213849544525,0.0011778175830841064,-0.009347289800643921,-0.06373833119869232,0.08830006420612335,-0.09889769554138184,-0.05413594841957092,-0.037888601422309875,-0.12214973568916321,0.09146153926849365,0.039577826857566833,0.10467296838760376,0.05712467432022095,-0.12257528305053711,-0.04711754620075226,0.11986155807971954,-0.04298391938209534,-0.03197118639945984,0.037146955728530884,-0.08031041920185089,0.09904232621192932,0.036364391446113586,-0.014377087354660034,0.10778720676898956,0.023823335766792297,-0.0037294626235961914,-0.07137361168861389,-0.04525670409202576,-0.07966557145118713,-0.10967637598514557,-0.06426475942134857,0.12371005117893219,0.11596502363681793,0.08346979320049286,-0.032510146498680115,-0.09989309310913086,0.01634623110294342,-0.08376076817512512,0.07981409132480621,-0.057888805866241455,0.054063960909843445,-0.07943157851696014,-0.01140981912612915,0.12027150392532349,0.006627783179283142,-0.1221739798784256,0.04308483004570007,0.02825246751308441,0.09587280452251434,0.09375755488872528,0.00010272860527038574,0.027716994285583496,-0.07894808053970337,-0.06928247213363647,-0.0505024790763855,0.01204615831375122,-0.00878162682056427,0.0286884605884552,0.00964289903640747,0.06727655231952667,0.02646780014038086,-0.08334003388881683,-0.017345428466796875,0.005751848220825195,-0.09049943089485168,0.09427933394908905,-0.03904539346694946,0.11215321719646454,-0.11479821801185608,0.10962532460689545,0.024062156677246094,-0.05192375183105469,-0.07464472949504852,-0.07852770388126373,0.08636172115802765,0.029720529913902283,-0.10465355217456818,-0.006692796945571899,0.02708648145198822,-0.06507855653762817,0.059951215982437134,-0.07627139985561371,0.11144572496414185,-0.09058041870594025,-0.10182638466358185,0.10252408683300018,0.12187282741069794,0.11516384780406952,-0.0027367323637008667,-0.11262401938438416,-0.0379633754491806,-0.02695007622241974,-0.0157385915517807,0.017847150564193726,-0.005084708333015442,-0.03552858531475067,0.021308794617652893,-0.016677334904670715,-0.008686259388923645,-0.07742886245250702,0.06761708855628967,0.020380377769470215,-0.08180983364582062,0.07396899163722992,-0.022979676723480225,0.04043440520763397,-0.06171640753746033,-0.049491316080093384,0.02541521191596985,0.06694602966308594,0.06529770791530609,0.021418407559394836,-0.0925571471452713,-0.01821047067642212,-0.1069212555885315,0.03414379060268402,-0.047425031661987305,-0.04847864806652069,0.10957075655460358,-0.035144880414009094,0.051826730370521545,0.05340747535228729,-0.015962839126586914,0.03859172761440277,0.10268546640872955,-0.020265549421310425,0.09782704710960388,-0.12486375868320465,0.046497806906700134,0.09621958434581757,-0.032100990414619446,-0.07692541182041168,-0.012654215097427368,0.08555431663990021,-0.009262382984161377,-0.07943394780158997,-0.06521055102348328,-0.03222563862800598,0.018737375736236572,-0.12117354571819305,-0.019957974553108215,-0.08633187413215637,-0.08722418546676636,-0.07766316831111908,0.07968324422836304,0.039832234382629395,-0.05450582504272461,-0.09869007766246796,0.058892130851745605,-0.09969928860664368,0.050378814339637756,0.04923488199710846,-0.024607211351394653,-0.09871336817741394,-0.051499977707862854,0.12129086256027222,-0.0046074241399765015,-0.09570246934890747,-0.03349405527114868,-0.12009938061237335,0.007979542016983032,0.008880779147148132,-0.0032096952199935913,-0.07915796339511871,0.1022876501083374,-0.019391819834709167,0.11700259149074554,0.04705037176609039,0.058866456151008606,0.06241409480571747,-0.1002819687128067,-0.07320398092269897,0.10301952064037323,-0.07268382608890533,-0.06012929975986481,-0.042271822690963745,0.04957881569862366,-0.008796289563179016,0.11475849151611328,-0.08693006634712219,-0.11752457916736603,-0.04602272808551788,0.09435175359249115,0.06700155138969421,0.006619974970817566,0.06824484467506409,-0.11457370221614838,0.09811639785766602,0.11004917323589325,0.003511965274810791,0.013621732592582703,0.04186113178730011,-0.06902532279491425,-0.11258460581302643,-0.102680504322052,0.10274995863437653,-0.012553945183753967,-0.0641600638628006,0.06269623339176178,-0.08375580608844757,-0.041807979345321655,0.07920023798942566,0.05341900885105133,0.07330390810966492,0.02437332272529602,0.06296239793300629,0.06146678328514099,0.061028555035591125,-0.08137831091880798,0.009039372205734253,-0.1169620156288147,0.05472670495510101,-0.10089704394340515,0.04784384369850159,0.09998869895935059,0.06998568773269653,0.07165269553661346,0.06534542143344879,-0.007071822881698608,-0.031762540340423584,-0.05898532271385193,-0.04338148236274719,-0.030605554580688477,0.11854258179664612,0.009345874190330505,0.03644193708896637,-0.0501815527677536,-0.10974165797233582,0.023078709840774536,-0.01369236409664154,-0.08274266123771667,-0.0943356603384018,-0.02556946873664856,-0.026974618434906006,-0.09444679319858551,-0.08110201358795166,-0.11282418668270111,0.02932456135749817,-0.07586295902729034,-0.08671645820140839,-0.08531942963600159,-0.04106628894805908,0.12277817726135254,-0.07649746537208557,0.09619924426078796,0.029148727655410767,-0.11196550726890564,-0.02810308337211609,-0.09096634387969971,0.05056329071521759,-0.072636678814888,-0.04210755228996277,-0.04099084436893463,0.08664637804031372,-0.00692768394947052,0.028061985969543457,-0.07121542096138,0.021946877241134644,-0.038126781582832336,-0.11845256388187408,0.11336016654968262,0.07747937738895416,0.057883650064468384,-0.11279033124446869,-0.03524938225746155,0.039693981409072876,-0.037707775831222534,-0.06637358665466309,0.03406710922718048,0.004437699913978577,0.10384149849414825,-0.1207612156867981,0.032922595739364624,-0.11066320538520813,0.0074338167905807495,0.0006546974182128906,0.07153266668319702,0.08277176320552826,0.08666431903839111,0.08180814981460571,-0.12207646667957306,0.059664323925971985,-0.11068455874919891,-0.01902267336845398,-0.06405806541442871,-0.04380723834037781,0.11533093452453613,-0.0711863785982132,-0.04371151328086853,-0.04031163454055786,0.02261100709438324,0.03699541091918945,0.013990193605422974,-0.09670479595661163,0.01885412633419037,-0.049094364047050476,0.03352588415145874,0.03217557072639465,-0.08055934309959412,-0.01642681658267975,-0.06727981567382812,0.014807924628257751,-0.0135335773229599,-0.06919147074222565,0.03419865667819977,-0.057053953409194946,-0.11184343695640564,-0.05591204762458801,-0.030396074056625366,-0.0018026083707809448,0.1201024204492569,-0.04271920025348663,0.055004239082336426,-0.0947929173707962,-0.04814572632312775,0.041391149163246155,-0.015219852328300476,-0.1187378466129303,0.0909731388092041,-0.11871607601642609,0.09304708242416382,0.11957594752311707,-0.047294050455093384,-0.06820723414421082,-0.11847923696041107,0.035489752888679504,-0.029905974864959717,0.036840081214904785,-0.03446342051029205,0.09398697316646576,-0.01791730523109436,0.017524734139442444,0.1004653126001358,-0.025149434804916382,-0.09358733892440796,0.032488152384757996,-0.06460562348365784,0.01925480365753174,0.08064828813076019,-0.08547371625900269,0.023699119687080383,-0.050119176506996155,-0.11957608163356781,0.049841418862342834,-0.031131207942962646,0.02398058772087097,0.08758923411369324,0.0031423717737197876,-0.03764335811138153,0.1184428483247757,-0.10161979496479034,-0.11759252846240997,0.06239134073257446,0.09733061492443085,-0.09638896584510803,0.00496259331703186,-0.07962816953659058,0.05604155361652374,0.014368802309036255,0.025046423077583313,0.004306316375732422,-0.01684536039829254,0.10523009300231934,0.015916749835014343,0.07738344371318817,0.04183618724346161,-0.02979274094104767,0.020496562123298645,0.0333210825920105,0.09965772926807404,0.04176631569862366,0.12088556587696075,0.10789218544960022,-0.03183090686798096,0.026462778449058533,-0.028182461857795715,-0.1062813401222229,0.014435812830924988,-0.025166958570480347,0.020787253975868225,0.08230012655258179,0.11616525053977966,-0.04256738722324371,0.07156102359294891,0.047035157680511475,0.09298746287822723,-0.10050836205482483,0.06724537909030914,0.060570746660232544,0.06303893029689789,-0.031181171536445618,0.022088482975959778,-0.01642051339149475,0.026682063937187195,-0.08631013333797455,-0.002910599112510681,-0.10242216289043427,-0.0796593427658081,0.08933134377002716,-0.02810308337211609,-0.0756089836359024,-0.09143967926502228,0.0762539952993393,-0.10624828934669495,0.08385750651359558,-0.007520556449890137,-0.11480432748794556,-0.07245081663131714,0.0020815134048461914,0.0953512191772461,-0.058362603187561035,0.032203733921051025,-0.07180120050907135,0.03876620531082153,0.03510339558124542,-0.03495866060256958,-0.06863529980182648,0.05017845332622528,-0.09987753629684448,0.07035650312900543,-0.11291970312595367,-0.10473467409610748,0.023252367973327637,0.10194063186645508,0.06246860325336456,0.10568991303443909,-0.12485969066619873,0.11711297929286957,-0.09054087102413177,-0.023382902145385742,0.06829464435577393,0.09996798634529114,0.10788197815418243,0.04969225823879242,0.010132461786270142,-0.09493643045425415,0.0377747118473053,0.02500981092453003,-0.08617961406707764,0.10709322988986969,0.05637639760971069,0.059224218130111694,-0.09618440270423889,-0.04367664456367493,0.04346352815628052,-0.045512616634368896,-0.06028755009174347,-0.02155555784702301,-0.06424976885318756,-0.06054148077964783,-0.12389861047267914,0.018173158168792725,-0.007524996995925903,-0.03156097233295441,-0.07919956743717194,0.10575100779533386,-0.007148146629333496,-0.018828004598617554,0.05009779334068298,0.027127236127853394,-0.09221155941486359,-0.0007408857345581055,-0.05455039441585541,0.0028287023305892944,0.01343555748462677,-0.12260173261165619,0.0012363046407699585,0.06352490186691284,0.10053560137748718,-0.012726381421089172,-0.09626573324203491,0.093918576836586,0.08574181795120239,-0.06414167582988739,-0.008591368794441223,-0.0065413713455200195,-0.11151155829429626,0.12136977910995483,0.04153279960155487,-0.060534000396728516,0.01608501374721527,-0.08368118107318878,0.01948799192905426,-0.015361443161964417,-0.11167238652706146,-0.04002365469932556,-0.10948546230792999,0.03537875413894653,0.08467645943164825,-0.07149364054203033,0.07573476433753967,0.025525569915771484,-0.08280523121356964,0.03132206201553345,-0.11744895577430725,-0.04723981022834778,-0.09826461970806122,-0.06552693247795105,-0.032218486070632935,0.09794758260250092,-0.008113011717796326,0.06820422410964966,0.05990429222583771,0.10865724086761475,0.10160230100154877,0.016961947083473206,-0.07003799080848694,0.022279560565948486,-0.07000212371349335,-0.057500869035720825,0.06526145339012146,0.07275092601776123,0.10119268298149109,-0.014120563864707947,-0.08398307859897614,0.030843988060951233,0.08626896142959595,-0.10457250475883484,-0.04693612456321716,0.05466276407241821,0.12122835218906403,0.06517679989337921,0.006531372666358948,-0.08171264827251434,-0.062462106347084045,0.08903731405735016,0.04435059428215027,0.04620864987373352,0.06253017485141754,0.08105432987213135,-0.09961359202861786,-0.013368368148803711,-0.019808053970336914,-0.03909410536289215,0.0978751927614212,0.007081925868988037,0.035453736782073975,0.12408564984798431,-0.0603405237197876,0.050838619470596313,-0.08755530416965485,0.02747321128845215,-0.05477778613567352,-0.00741221010684967,0.014540508389472961,0.03660742938518524,-0.029991760849952698,0.036200955510139465,0.07688786089420319,-0.12450374662876129,0.004058763384819031,-0.04699145257472992,0.10662819445133209,0.06891308724880219,0.0976676195859909,-0.0682259351015091,0.011114537715911865,0.06590074300765991,0.10628625750541687,-0.10586920380592346,0.11935573816299438,-0.10701538622379303,-0.08664503693580627,-0.09985069930553436,0.0797252506017685,-0.03854149580001831,0.053424835205078125,0.08869306743144989,0.1097477525472641,-0.017890945076942444,-0.04317617416381836,-0.06729862093925476,0.12244626879692078,-0.04846556484699249,-0.05579143762588501,0.013275668025016785,0.11889544129371643,-0.0889967679977417,-0.12328305840492249,-0.12406304478645325,0.12388800084590912,-0.11868008971214294,-0.08950582146644592,-0.003531619906425476,-0.022035881876945496,-0.10931146144866943,-0.06480672955513,0.012570351362228394,-0.0410899817943573,0.024531051516532898,-0.11218282580375671,-0.04177984595298767,-0.03386130928993225,0.12032732367515564,-0.028983503580093384,-0.03246462345123291,-0.03488554060459137,0.053977906703948975,0.026362106204032898,0.03228013217449188,-0.12329792976379395,0.0662102997303009,-0.044835999608039856,-0.002470254898071289,0.04481685161590576,-0.07636420428752899,-0.008751198649406433,-0.11060830950737,0.07659353315830231,-0.084959477186203,0.11009134352207184,-0.08515691757202148,-0.032571494579315186,-0.07927821576595306,-0.008734062314033508,0.09919098019599915,-0.0435599684715271,-0.06623592972755432,0.06863859295845032,-0.12490887939929962,0.049361199140548706,-0.06449736654758453,-0.06783932447433472,-0.09545961022377014,-0.1235547810792923,0.010374709963798523,0.03855210542678833,-0.11495982110500336,0.09946894645690918,-0.012543529272079468,0.05781678855419159,0.0019596368074417114,0.11153203248977661,-0.011118590831756592,-0.07288654148578644,-0.10677528381347656,0.07284346222877502,-0.023872196674346924,-0.10197150707244873,-0.03561954200267792,-0.07926206290721893,0.0011896640062332153,-0.0376933217048645,0.04363808035850525,-0.014179050922393799,0.07462498545646667,-0.04712679982185364,-0.07791505753993988,-0.011988326907157898,-0.02849137783050537,0.017322197556495667,-0.10772430896759033,-0.030144482851028442,0.1058083176612854,0.12318824231624603,-0.0008080601692199707,-0.045249804854393005,0.016077205538749695,0.021720468997955322,0.034236252307891846,-0.10070933401584625,-0.031710609793663025,-0.1232401579618454,-0.06879819929599762,-0.05062468349933624,0.0002263784408569336,0.08018045127391815,-0.0819479376077652,-0.011562526226043701,0.09644095599651337,-0.110420823097229,-0.06257174909114838,-0.04019193351268768,-0.05161908268928528,-0.03064092993736267,0.1237073540687561,-0.08126276731491089,0.10756923258304596,0.014045372605323792,-0.09644518792629242,-0.10695275664329529,0.002790778875350952,-0.09477613866329193,-0.021575838327407837,0.048564374446868896,0.09609769284725189,-0.038347259163856506,-0.018388941884040833,0.09050494432449341,-0.08765269815921783,-0.07708083093166351,-0.11711432039737701,0.05665847659111023,-0.06873412430286407,-0.0855412632226944,-0.024525001645088196,0.06642919778823853,-0.07674863934516907,-0.11965614557266235,-0.09869009256362915,0.053398773074150085,0.020625442266464233,-0.12301424145698547,-0.04279986023902893,0.10196974873542786,0.07464586198329926,-0.09744532406330109,0.12373171746730804,0.09719973802566528,0.09816917777061462,0.08805243670940399,-0.051585838198661804,-0.03769521415233612,-0.001759350299835205,-0.03713907301425934,0.05915330350399017,0.03896012902259827,-0.019718095660209656,-0.01931266486644745,-0.004688143730163574,-0.11062821745872498,0.07525329291820526,0.08157779276371002,0.022949859499931335,-0.04494370520114899,0.11254914104938507,-0.08452846109867096,-0.09712725877761841,-0.11855541169643402,-0.058064356446266174,0.07494083046913147,-0.10710819065570831,-0.05564993619918823,0.019351452589035034,-0.031050190329551697,-0.05018572509288788,-0.11643317341804504,0.07068420946598053,0.08192408084869385,-0.08597865700721741,0.03360836207866669,0.11834795773029327,-0.06783226132392883,0.025490805506706238,-0.12010741233825684,0.04687449336051941,-0.08705487847328186,-0.012609273195266724,-0.040440723299980164,0.040766194462776184,0.0825277715921402,-0.12415210902690887,0.09778539836406708,-0.10913076996803284,-0.029475271701812744,-0.06269939243793488,-0.08082564175128937,-0.06898742914199829,-0.0022127628326416016,-0.028935253620147705,-0.04462429881095886,0.023330584168434143,-0.11113838851451874,-0.10179311037063599,-0.08444903790950775,0.08997966349124908,-0.07130841910839081,0.0736091285943985,-0.11488240957260132,0.031076818704605103,0.059469372034072876,0.009812682867050171,-0.1131334900856018,0.05642019212245941,-0.020655617117881775,-0.07518285512924194,-0.11053839325904846,0.018469274044036865,0.07269036769866943,-0.07178030908107758,-0.06613199412822723,-0.08646644651889801,-0.02632308006286621,0.07722558081150055,0.008022591471672058,-0.08946910500526428,-0.12126928567886353,-0.04086688160896301,-0.045816123485565186,0.033808618783950806,-0.04027837514877319,-0.0036146044731140137,0.04919344186782837,0.04449169337749481,0.12277887761592865,0.061046600341796875,0.05952994525432587,-0.06665836274623871,0.08828200399875641,0.07104100286960602,0.013674616813659668,0.001399800181388855,0.10186982154846191,-0.11743263900279999,-0.03527677059173584,0.04607759416103363,-0.08026871085166931,0.07816547155380249,-0.11248545348644257,0.09296299517154694,-0.08026784658432007,0.1150827407836914,0.08508756756782532,0.0887470543384552,-0.11656248569488525,-0.0813416838645935,-0.11700962483882904,-0.06870266795158386,0.12298335134983063,0.0024977922439575195,0.10615140199661255,0.03953009843826294,0.09738551080226898,-0.10790140926837921,0.00045652687549591064,0.08482816815376282,-0.05886940658092499,0.11034044623374939,0.12439261376857758,-0.0864458978176117,-0.005508840084075928,0.03743843734264374,0.08051995933055878,-0.10788986086845398,0.0912284106016159,-0.01612575352191925,-0.08993002772331238,0.035547032952308655,0.0837755799293518,-0.09598688781261444,0.07973721623420715,0.10312508046627045,-0.11120341718196869,-0.10080309212207794,-0.0427471399307251,0.08249381184577942,0.09177383780479431,-0.053328365087509155,-0.008685514330863953,0.06822812557220459,0.025051221251487732,-0.09918119013309479,0.010741651058197021,0.004953160881996155,0.06780380010604858,0.052740678191185,-0.027541980147361755,-0.1180153340101242,0.06279343366622925,-0.07248537242412567,-0.11802692711353302,-0.045550450682640076,0.056937336921691895,0.11696700751781464,-0.006320178508758545,0.04117417335510254,-0.09048071503639221,0.05528287589550018,0.08453390002250671,0.07063372433185577,0.08519263565540314,0.09016607701778412,-0.06689174473285675,-0.08041447401046753,-0.049635931849479675,-0.09875831007957458,-0.01892051100730896,0.004848867654800415,-0.1139988899230957,-0.08520273864269257,-0.030223220586776733,-0.045906975865364075,0.024666696786880493,0.03844539821147919,-0.09203580021858215,0.11063501238822937,-0.012248620390892029,0.014820128679275513,-0.11320525407791138,-0.07601161301136017,-0.0600227415561676,-0.09589201211929321,-0.025174245238304138,0.12464991211891174,0.022815927863121033,0.11295071244239807,0.11850550770759583,0.0594942569732666,0.07230480015277863,-0.0516534298658371,0.09518910944461823,-0.019682064652442932,0.006671592593193054,-0.03700326383113861,0.09879611432552338,0.11891135573387146,-0.08466410636901855,-0.015473172068595886,0.08814696967601776,0.12167666852474213,0.0379626601934433,-0.03208625316619873,-0.05533584952354431,0.08497674763202667,0.04652272164821625,0.038645774126052856,-0.11244091391563416,-0.11250980198383331,0.0757262259721756,0.10533489286899567,-0.09999158978462219,-0.09627409279346466,0.10569147765636444,-0.11980876326560974,0.07594023644924164,-0.06551758944988251,-0.11936673521995544,-0.059123069047927856,0.07289734482765198,0.0516575425863266,0.0062189847230911255,-0.10937218368053436,0.029906734824180603,-0.0643799901008606,-0.0685342401266098,-0.004547476768493652,0.118337482213974,0.07673119008541107,0.1170797049999237,-0.03571806848049164,0.048911869525909424,0.09011800587177277,0.11933353543281555,-0.0960763692855835,0.02476978302001953,-0.057631537318229675,-0.06195269525051117,0.05496808886528015,0.04061557352542877,-0.017814144492149353,0.09621809422969818,0.11948060989379883,0.11491462588310242,0.020215362310409546,-0.03856745362281799,0.1188448965549469,0.049258261919021606,-0.013655751943588257,-0.12032647430896759,0.11279578506946564,-0.061503469944000244,0.11862429976463318,-0.08368346095085144,-0.06981022655963898,-0.034640029072761536,0.09458591043949127,-0.0071041882038116455,-0.07568061351776123,0.06106068193912506,0.09554274380207062,0.10746918618679047,-0.007540002465248108,-0.07348960638046265,-0.04662388563156128,-0.0670204758644104,0.08699803054332733,-0.12128420174121857,0.09991736710071564,-0.08381876349449158,0.006059110164642334,0.022838637232780457,0.06155553460121155,-0.06724341213703156,-0.014865562319755554,-0.06520374119281769,0.11172661185264587,-0.059697121381759644,0.041215911507606506,0.07344721257686615,-0.04187275469303131,-0.06006282567977905,-0.026972636580467224,-0.09933432936668396,0.06865131855010986,-0.04430392384529114,0.11830997467041016,-0.05139362812042236,0.06701101362705231,0.10156035423278809,-0.07977007329463959,-0.02223929762840271,-0.10148321092128754,-0.055432289838790894,0.10643568634986877,-0.11957019567489624,-0.11692391335964203,0.09840895235538483,-0.0021983981132507324,-0.014057338237762451,-0.007613807916641235,-0.12228335440158844,0.07969942688941956,-0.07687842845916748,0.11151504516601562,-0.0766945630311966,-0.02896536886692047,0.11108662188053131,-0.0033133774995803833,-0.11179675161838531,0.011248499155044556,-0.05220074951648712,-0.06063288450241089,0.07861672341823578,-0.007715433835983276,0.10250198841094971,0.008036479353904724,0.027949154376983643,-0.10837526619434357,-0.04659205675125122,-0.07802878320217133,-0.0970480740070343,0.03973031044006348,0.0842399001121521,-0.11491325497627258,-0.11395412683486938,-0.006248578429222107,0.027652114629745483,-0.014778673648834229,0.060442909598350525,0.09309975802898407,0.08783102035522461,-0.03087766468524933,0.05800993740558624,-0.11444982886314392,-0.05093128979206085,0.06121513247489929,-0.09886164963245392,-0.05918440222740173,0.1214146763086319,-0.05045221745967865,0.02382868528366089,-0.09224651753902435,-0.11769518256187439,0.05404943227767944,-0.023307740688323975,0.10275818407535553,0.027704253792762756,0.057156458497047424,-0.002478480339050293,0.0907973051071167,-0.07323601841926575,-0.026472732424736023,0.06403924524784088,0.006744548678398132,0.1193869411945343,-0.02610635757446289,0.09607933461666107,0.11023290455341339,-0.02635568380355835,-0.03390812873840332,0.06194871664047241,-0.059166476130485535,-0.074974924325943,0.06587953865528107,0.04323528707027435,0.07936209440231323,-0.034527286887168884,-0.11924168467521667,0.11003467440605164,-0.001873210072517395,-0.09493830800056458,0.08317345380783081,-0.054747238755226135,-0.11612626910209656,-0.00771331787109375,-0.11088159680366516,0.030920445919036865,-0.11428584158420563,-0.03300759196281433,0.06010749936103821,-0.10893481969833374,0.07070747017860413,0.10122741758823395,-0.015641868114471436,0.11665315926074982,-0.0866062343120575,-0.08520816266536713,-0.08595409989356995,-0.08748014271259308,-0.09444895386695862,-0.10574182868003845,-0.08745916187763214,0.03163488209247589,0.12438175082206726,-0.08048522472381592,-0.04867461323738098,-0.008549124002456665,-0.09941011667251587,-0.07959099113941193,0.03788973391056061,-0.02128186821937561,0.09273643791675568,0.021719425916671753,0.0509769469499588,0.035865336656570435,0.03922325372695923,-0.04548268020153046,0.034856975078582764,0.04390667378902435,0.006233826279640198,0.10668589174747467,-0.08538669347763062,0.08859209716320038,0.10335427522659302,-0.0496387779712677,-0.03790484368801117,0.07696075737476349,0.03898553550243378,-0.06839889287948608,-0.06579171121120453,0.016564875841140747,-0.10065627098083496,-0.0702657550573349,0.041579991579055786,-0.04439626634120941,-0.04200156033039093,-0.018871843814849854,0.0301501601934433,-0.009946927428245544,0.09429936110973358,-0.09598581492900848,0.00772404670715332,0.11106982827186584,0.017801746726036072,-0.02487654983997345,0.05798812210559845,0.04349993169307709,0.11857795715332031,-0.09803430736064911,-0.0647612065076828,-0.06148722767829895,-0.12152683734893799,-0.008447647094726562,-0.020418882369995117,0.09510350227355957,0.0009201169013977051,-0.0320315957069397,-0.012467533349990845,-0.016613304615020752,-0.019422531127929688,-0.044637590646743774,0.05985410511493683,-0.01592220366001129,-0.0669548362493515,0.10721009969711304,-0.06161177158355713,-0.045731499791145325,-0.12494726479053497,0.09277158975601196,-0.08162294328212738,-0.03933273255825043,-0.10538813471794128,-0.10528643429279327,-0.02235044538974762,0.07228156924247742,0.00865800678730011,-0.011626645922660828,-0.010448664426803589,-0.031360238790512085,-0.015048131346702576,0.07181808352470398,-0.12118944525718689,-0.11928777396678925,0.05775280296802521,-0.07666946947574615,0.12095144391059875,0.01673591136932373,-0.050408557057380676,-0.10063043236732483,-0.060313016176223755,0.10297584533691406,-0.032526642084121704,0.11460623145103455,0.11322496831417084,-0.10133391618728638,0.11555950343608856,-0.028463944792747498,-0.04074455797672272,-0.06909242272377014,-0.02826233208179474,-0.03665223717689514,0.08912953734397888,-0.08936662971973419,-0.048145294189453125,-0.11241455376148224,0.10415500402450562,-0.00791841745376587,0.11230957508087158,0.06070894002914429,-0.08822375535964966,-0.10759539902210236,0.10105441510677338,0.02325691282749176,-0.022979021072387695,-0.005569890141487122,0.10939085483551025,-0.11212533712387085,0.02196905016899109,-0.10114596784114838,-0.07444845139980316,0.02694164216518402,0.040237173438072205,0.09017635881900787,0.09161622822284698,-0.011094018816947937,0.02709871530532837,0.07998336851596832,-0.05031652748584747,-0.11615121364593506,0.07081927359104156,-0.01364070177078247,-0.10624997317790985,0.05807697772979736,0.02700120210647583,-0.11288803815841675,-0.06729629635810852,0.006589367985725403,-0.058344170451164246,0.11379502713680267,-0.10622023046016693,-0.05040128529071808,0.015180528163909912,-0.08050662279129028,-0.02048410475254059,-0.030965447425842285,0.10299244523048401,-0.07308453321456909,-0.07219479978084564,-0.10051466524600983,-0.06414195895195007,0.057806000113487244,-0.10372933745384216,0.11610274016857147,-0.006290048360824585,-0.04414844512939453,0.024787813425064087,0.008257195353507996,-0.05590042471885681,-0.0867687463760376,0.053535595536231995,-0.08299104869365692,-0.07999047636985779,-0.06459552049636841,-0.033282339572906494,0.05741824209690094,0.06968444585800171,0.017213329672813416,-0.03827570378780365,-0.11023750901222229,0.02335035800933838,-0.12313970923423767,-0.0604737251996994,-0.12156258523464203,-0.010793343186378479,0.08282066881656647,0.05636732280254364,0.07886862754821777,-0.022445082664489746,0.09925603866577148,-0.11771850287914276,0.05098597705364227,0.030011892318725586,0.017595648765563965,-0.06803762912750244,-0.01593950390815735,-0.05553142726421356,-0.0507659912109375,0.04951182007789612,-0.06538358330726624,0.11911433935165405,0.049264922738075256,-0.03860214352607727,-0.06040620803833008,-0.11384475231170654,0.007501333951950073,-0.06032060086727142,0.08229394257068634,-0.03608423471450806,-0.005758315324783325,0.07258759438991547,0.07053187489509583,-0.1159483939409256,-0.0729960948228836,-0.07896406948566437,-0.08201655745506287,0.0066034793853759766,-0.031191542744636536,-0.028863534331321716,0.07676422595977783,-0.02969488501548767,0.01773323118686676,0.09023845195770264,-0.03857684135437012,0.01364104449748993,0.04669082164764404,-0.10283242166042328,-0.10942910611629486,0.05610758066177368,-0.07095509767532349,0.012760162353515625,0.0005169957876205444,-0.0051593780517578125,-0.014071181416511536,0.01825469732284546,-0.07479247450828552,0.072247713804245,0.0892171561717987,0.1112501323223114,-0.047957271337509155,-0.07874393463134766,-0.10536754131317139,-0.020574957132339478,-0.0009018629789352417,-0.09320229291915894,0.06381654739379883,0.0812767744064331,0.07601454854011536,-0.0534452348947525,-0.09293243288993835,0.007890954613685608,-0.006670594215393066,0.07040397822856903,0.094387486577034,-0.05472545325756073,0.09472067654132843,0.09925100207328796,0.02206149697303772,0.0587664395570755,-0.020181655883789062,-0.04220624268054962,0.05680888891220093,0.06442832946777344,0.019813552498817444,-0.10472239553928375,-0.011535391211509705,0.02985939383506775,-0.10473383963108063,0.01899610459804535,-0.005731016397476196,0.03776051104068756,-0.11065444350242615,0.05314013361930847,-0.10732118785381317,0.0824759304523468,0.0004574805498123169,-0.05408182740211487,0.06117638945579529,0.05028018355369568,-0.020610928535461426,-0.11924755573272705,-0.03171198070049286,-0.015956148505210876,-0.08319231867790222,0.07619094848632812,-0.03668913245201111,-0.10755220055580139,0.07260048389434814,-0.01483774185180664,0.018879026174545288,0.12120406329631805,-0.06401531398296356,-0.12372556328773499,0.028255358338356018,0.018635332584381104,0.05450119078159332,-0.089017853140831,-0.049124062061309814,-0.08866716921329498,-0.10499900579452515,0.0669977217912674,-0.10293443500995636,0.056380897760391235,0.052501946687698364,-0.08185270428657532,-0.013385459780693054,-0.09336785972118378,0.09254206717014313,0.018598973751068115,0.06235378980636597,0.01023837924003601,0.019841492176055908,0.06951892375946045,-0.0844755470752716,0.021008029580116272,-0.09755685925483704,0.06972253322601318,-0.01615484058856964,0.05088329315185547,0.11845210194587708,0.04355740547180176,-0.005423426628112793,0.014105454087257385,0.07693800330162048,-0.09559173882007599,-0.0957232266664505,0.12314298748970032,-0.09453976154327393,-0.06483905017375946,-0.01658719778060913,-0.10965342819690704,-0.12431012094020844,0.032910287380218506,0.07855449616909027,-0.025180399417877197,-0.04616774618625641,0.03644472360610962,0.10370883345603943,0.0462312251329422,0.019589215517044067,0.016355007886886597,0.036015719175338745,-0.048991501331329346,0.12154284119606018,-0.07030761241912842,-0.10297800600528717,-0.12027047574520111,-0.029025346040725708,0.06593123078346252,-0.08835481107234955,0.08999352157115936,-0.013436898589134216,0.08606411516666412,-0.12019717693328857,0.030914515256881714,-0.06940479576587677,-0.09673859179019928,0.0704963207244873,0.06741784512996674,-0.10792919993400574,-0.02020592987537384,-0.01800161600112915,0.03852291405200958,0.08169659972190857,-0.10427838563919067,-0.044229865074157715,0.006381288170814514,-0.12237916886806488,0.03931029140949249,0.06133195757865906,0.11454831063747406,0.11139647662639618,-0.03997965157032013,-0.0014701634645462036,-0.12387527525424957,-0.07978802919387817,-0.083732008934021,0.03669236600399017,-0.028673186898231506,0.018238067626953125,0.07515998184680939,0.09724940359592438,0.06264026463031769,-0.0996224582195282,0.09189401566982269,0.05997060239315033,0.05150440335273743,0.0651288777589798,-0.046277716755867004,0.026535823941230774,0.09687539935112,-0.008387461304664612,0.023092254996299744,0.0374370813369751,0.08817754685878754,0.09125271439552307,0.053393930196762085,0.01219797134399414,0.0883694440126419,0.04188703000545502,0.0697825700044632,-0.07133877277374268,0.023284658789634705,0.07580167055130005,-0.007498249411582947,0.03610125184059143,-0.06994163990020752,-0.02749653160572052,0.11119377613067627,-0.015974506735801697,0.023472636938095093,0.07861904799938202,-0.08717028796672821,0.11787891387939453,0.009475082159042358,0.011358052492141724,-0.06606018543243408,-0.11669863760471344,-0.01998390257358551,-0.12295606732368469,-0.09112945199012756,0.11961008608341217,-0.08664032816886902,-0.09090301394462585,0.023074686527252197,0.08824200928211212,0.060768693685531616,-0.06343008577823639,-0.08416292071342468,0.06528274714946747,0.019330650568008423,0.029108926653862,-0.11145223677158356,-0.1001657098531723,0.03978726267814636,0.07770226895809174,-0.042213067412376404,0.06069172918796539,0.08036455512046814,0.06626196205615997,-0.054947108030319214,0.03570854663848877,-0.01364542543888092,-0.018641680479049683,-0.03944271802902222,0.03414449095726013,-0.07364436984062195,0.017229899764060974,0.09815338253974915,-0.037043496966362,0.08942647278308868,0.03330548107624054,-0.09727008640766144,-0.10692322254180908,0.06108593940734863,-0.10083428025245667,-0.03655502200126648,-0.004218339920043945,0.11575235426425934,0.04158271849155426,-0.12421901524066925,0.07771523296833038,-0.029644683003425598,0.11142975091934204,-0.11620533466339111,0.0705621987581253,0.010051459074020386,0.09572270512580872,0.08774673938751221,0.038938626646995544,-0.07429167628288269,0.0926494151353836,0.07731024920940399,0.06237155199050903,-0.09082953631877899,-0.006464928388595581,0.09272472560405731,0.1227211207151413,0.08464479446411133,-0.050250932574272156,-0.02634809911251068,-0.11346510052680969,-0.056338414549827576,0.05519266426563263,0.04829849302768707,0.0034381747245788574,0.11753708124160767,0.12214364111423492,-0.11516201496124268,0.029784992337226868,-0.07463470101356506,-0.05357679724693298,0.03300756216049194,0.11023765802383423,-0.06306178867816925,-0.014025166630744934,-0.028651759028434753,-0.08750709891319275,-0.06868569552898407,-0.049237653613090515,-0.0861431211233139,-0.03308078646659851,-0.12469765543937683,0.04202830791473389,0.10262566804885864,-0.10281184315681458,-0.0260714590549469,-0.08376511931419373,0.04848787188529968,-0.1213594526052475,0.11644881963729858,-0.07444065809249878,-0.047474876046180725,0.06827493011951447,0.11669869720935822,0.05887676775455475,0.008053943514823914,0.09768642485141754,-0.0802512913942337,-0.06285969913005829,0.09773074090480804,0.037448346614837646,0.08484837412834167,-0.033243730664253235,0.11298741400241852,0.0014354884624481201,0.06061553955078125,-0.09026849269866943,0.11917299032211304,-0.08836276829242706,-0.015307098627090454,-0.01006154716014862,0.019048824906349182,-0.0338832288980484,0.07003578543663025,0.09752008318901062,-0.05451023578643799,-0.004386022686958313,-0.12282261252403259,0.024368450045585632,0.07667246460914612,0.10265319049358368,-0.09828826785087585,0.11845140159130096,-0.10083156824111938,0.04111160337924957,0.07315891981124878,0.12230710685253143,-0.10165441036224365,-0.01565636694431305,-0.10211172699928284,0.05204872786998749,0.028827667236328125,0.030786603689193726,0.013881266117095947,0.009373709559440613,0.10813432931900024,-0.08838430047035217,-0.12231206893920898,0.07125157117843628,0.08013483881950378,0.029773235321044922,0.06383165717124939,-0.10130093991756439,-0.019221022725105286,-0.10220935940742493,0.07864686846733093,-0.08283878862857819,0.10307447612285614,0.038583457469940186,0.03310483694076538,5.662441253662109e-07,-0.003698393702507019,-0.056523337960243225,0.11109639704227448,-0.07980047166347504,0.034751713275909424,-0.022432416677474976,-0.011724874377250671,0.039788782596588135,0.05388854444026947,-0.05516701936721802,0.06099444627761841,-0.01902112364768982,0.10004588961601257,-0.04141141474246979,0.11629162728786469,-0.12015795707702637,-0.10295514762401581,-0.07651548087596893,0.0793265700340271,-0.11983342468738556,-0.09252597391605377,0.0017946809530258179,-0.029333338141441345,0.05908678472042084,0.07590727508068085,-0.05643609166145325,-0.09743490815162659,0.07631492614746094,0.10334688425064087,0.10866308212280273,-0.0745200365781784,0.06799554824829102,0.014139831066131592,-0.02580903470516205,-0.0063500553369522095,0.025536149740219116,0.05989404022693634,0.012318283319473267,0.08662594854831696,0.03448009490966797,-0.08268637955188751,0.00852791965007782,0.10513000190258026,-0.0973847508430481,-0.050815075635910034,-0.05077475309371948,0.0173567533493042,0.013892978429794312,0.044869765639305115,0.08980625867843628,0.10059115290641785,0.08535194396972656,0.037400633096694946,0.007435426115989685,-0.03836366534233093,0.01751767098903656,0.08148063719272614,0.10980336368083954,0.056850865483284,0.0009537935256958008,0.09732058644294739,-0.09352840483188629,-0.06912443041801453,-0.08289673924446106,0.018696561455726624,0.08769866824150085,0.006275996565818787,-0.10840919613838196,0.010322213172912598,0.09101901948451996,-0.12430554628372192,-0.030263617634773254,-0.100544273853302,0.11211413145065308,0.022820323705673218,-0.03978368639945984,0.0801067054271698,0.007983416318893433,-0.12286880612373352,-0.03391355276107788,-0.06894780695438385,0.09873992204666138,-0.09531266987323761,-0.01673668622970581,-0.09290824830532074,-0.09736946225166321,0.01355600357055664,0.07236315310001373,0.04981034994125366,-0.08534130454063416,-0.108080193400383,-0.09599113464355469,0.059780508279800415,-0.08268256485462189,-0.12018068134784698,-0.12050369381904602,-0.10222478210926056,0.008772239089012146,-0.1131739616394043,-0.07291029393672943,-0.07130110263824463,-0.11437129974365234,0.08680148422718048,-0.07951663434505463,-0.00038160383701324463,0.0750470906496048,-0.008501812815666199,0.015457481145858765,-0.011677712202072144,0.05713425576686859,-0.04156917333602905,0.03924785554409027,-0.07033352553844452,-0.04786226153373718,-0.06673845648765564,0.0868692547082901,0.010624304413795471,-0.11613115668296814,0.033612191677093506,0.08303241431713104,-0.10708534717559814,0.11479885876178741,0.02880316972732544,-0.051779747009277344,-0.0672554075717926,-0.03578843176364899,-0.012454673647880554,0.06328447163105011,-0.025524139404296875,0.0891515463590622,0.08369578421115875,-0.08325327932834625,0.07370436191558838,-0.10725291073322296,-0.10959455370903015,-0.054107725620269775,0.10344302654266357,-0.04354764521121979,-0.10024428367614746,0.06535151600837708,0.06161649525165558,-0.014194667339324951,0.024793729186058044,-0.03496144711971283,-0.08811073005199432,0.01910361647605896,-0.07416681945323944,-0.05418334901332855,0.018373891711235046,-0.12168735265731812,-0.004091128706932068,-0.11242853105068207,-0.12038852274417877,0.045644521713256836,0.12448829412460327,-0.09032320976257324,0.031650424003601074,-0.06488694250583649,-0.11687302589416504,-0.06680434942245483,0.03319630026817322,0.024587705731391907,-0.07890041172504425,-0.05248916149139404,-0.028827115893363953,-0.1032593697309494,-0.11554333567619324,-0.04996053874492645,0.11092580854892731,0.009445548057556152,-0.06501781940460205,0.026964619755744934,-0.06485944986343384,0.027928903698921204,-0.049664273858070374,0.044709816575050354,0.021730631589889526,-0.11093218624591827,0.03890775144100189,-0.0537242591381073,-0.039160117506980896,0.016774654388427734,-0.029138565063476562,0.017871573567390442,-0.10089792311191559,0.12252123653888702,0.07621821761131287,-0.09966392815113068,0.024080872535705566,0.06419883668422699,0.0008799135684967041,0.08993923664093018,0.07497331500053406,0.05680115520954132,0.0373295396566391,0.09091506898403168,0.015443086624145508,-0.09256641566753387,0.04781422019004822,-0.09381623566150665,0.011929169297218323,0.11713945865631104,0.07145729660987854,-0.06738941371440887,-0.0777396708726883,0.04494701325893402,-0.08096878230571747,-0.042076900601387024,0.051465168595314026,-0.07035093009471893,0.03065231442451477,0.07485917210578918,0.09078693389892578,-0.00511777400970459,0.09709501266479492,0.08601461350917816,-0.0784471184015274,0.034039974212646484,0.10187561810016632,-0.09046678245067596,0.006876632571220398,-0.0965527594089508,0.10979138314723969,0.08849166333675385,-0.030162155628204346,0.09093746542930603,0.049241796135902405,0.05581025779247284,0.11793442070484161,0.022607237100601196,0.00836208462715149,0.09851136803627014,-0.12102942168712616,0.07793170213699341,0.03627125918865204,0.09630665183067322,0.022148996591567993,0.10125815868377686,0.054435938596725464,0.02829231321811676,-0.06571340560913086,0.09349124133586884,-0.08818395435810089,-0.11606872081756592,0.11512282490730286,-0.06393806636333466,0.007654324173927307,0.06219413876533508,0.09984132647514343,-0.041128769516944885,-0.07403109967708588,0.1106996089220047,-0.06653836369514465,0.03714495897293091,0.12163443863391876,0.014119505882263184,0.11739747226238251,-0.10223047435283661,-0.09955057501792908,-0.01155880093574524,0.08871480822563171,-0.10043315589427948,-0.06053006649017334,0.005683824419975281,0.09435699880123138,0.08077505230903625,0.05329233407974243,-0.02952861785888672,-0.0028243958950042725,-0.030390486121177673,-0.06528960168361664,-0.12431144714355469,-0.11355909705162048,-0.11236441135406494,-0.05162709951400757,0.10290864109992981,0.06801573932170868,-0.02450333535671234,0.00309164822101593,-0.11187821626663208,0.04869990050792694,0.07469519972801208,-0.10855787992477417,-0.06697613000869751,0.003515958786010742,0.0727880597114563,0.12323850393295288,0.047058701515197754,-0.025683850049972534,0.04116734862327576,0.007689237594604492,0.0948791652917862,-0.012851208448410034,0.01214282214641571,0.1099652349948883,-0.1012323647737503,0.004158496856689453,-0.05687972903251648,0.04272069036960602,0.05553814768791199,-0.06926116347312927,-0.06327001750469208,0.031768977642059326,-0.07985489070415497,-0.042254894971847534,0.022278860211372375,0.060992151498794556,0.01698218286037445,-0.013170495629310608,-0.06827487051486969,0.023965075612068176,0.08825357258319855,-0.10084821283817291,0.08106492459774017,-0.1204129308462143,-0.0345158725976944,0.011845290660858154,0.0803278237581253,0.09139348566532135,0.046229809522628784,-0.10141105949878693,0.12086737155914307,0.039304256439208984,-0.0880894809961319,0.027332350611686707,-0.0752970427274704,-0.04539169371128082,0.039187848567962646,-0.0411810427904129,0.0671747624874115,0.07664991915225983,-0.04811790585517883,-0.09088876843452454,-0.10886810719966888,0.054157331585884094,0.08063642680644989,0.02095024287700653,0.006337881088256836,0.05921420454978943,-0.11427098512649536,-0.03215779364109039,0.10993888974189758,0.002358362078666687,-0.03189648687839508,-0.08627261221408844,0.09732455015182495,0.023870155215263367,-0.0940949022769928,-0.09737610816955566,0.07668094336986542,-0.02615949511528015,0.0875026136636734,0.01836089789867401,-0.08469188213348389,-0.02286301553249359,-0.0025194138288497925,-0.029098019003868103,-0.022010132670402527,-0.06352059543132782,0.006603345274925232,-0.10363514721393585,0.08944655954837799,-0.12058795988559723,-0.08553630113601685,-0.03653468191623688,-0.00520595908164978,0.11056666076183319,0.11278264224529266,-0.05357189476490021,-0.03860519826412201,0.0238255113363266,0.03327023983001709,0.09228454530239105,-0.06368131935596466,0.051695406436920166,-0.1086411327123642,0.047827571630477905,-0.08611786365509033,0.064037024974823,-0.02773091197013855,-0.009515151381492615,0.10443104803562164,-0.12491469085216522,0.1014733761548996,0.008258610963821411,0.06249794363975525,0.0836087167263031,-0.05258330702781677,0.09670431911945343,-0.07767108082771301,-0.03960603475570679,0.113613560795784,0.03854110836982727,-0.039415791630744934,-0.08005395531654358,-0.08123879134654999,0.0866626650094986,0.01102013885974884,-0.023422911763191223,-0.06401263177394867,0.03334721922874451,-0.10308213531970978,0.005591407418251038,-0.0717204213142395,-0.06687004864215851,0.07785189151763916,-0.042830199003219604,0.09546518325805664,0.013110727071762085,0.07027730345726013,0.06630507111549377,0.051413193345069885,-0.10401646792888641,0.024843811988830566,-0.08199633657932281,0.046454548835754395,0.06996643543243408,0.0917411595582962,0.06327250599861145,0.06456105411052704,-0.05551108717918396,-0.12211628258228302,-0.006434127688407898,0.10068954527378082,-0.09104803204536438,-0.06161820888519287,-0.0269404798746109,-0.04225863516330719,-0.02771557867527008,-0.10475744307041168,-0.022748425602912903,0.04400448501110077,-0.005632475018501282,0.10394641757011414,0.09905071556568146,0.105040043592453,0.11074775457382202,-0.11688888072967529,-0.10846282541751862,0.05430258810520172,-0.035903796553611755,0.11914187669754028,0.017852798104286194,-0.09599055349826813,0.07194414734840393,-0.0709204375743866,0.07912418246269226,0.0449405312538147,-0.0906447172164917,0.0671948492527008,0.056065499782562256,0.017269164323806763,0.12178440392017365,-0.10528534650802612,0.045769527554512024,-0.06666895747184753,0.01694515347480774,-0.06099851429462433,-0.09319771826267242,-0.040978044271469116,0.011711850762367249,0.0727546364068985,0.07584723830223083,0.018227413296699524,-0.036076053977012634,-0.027316570281982422,-0.047601863741874695,-0.01793791353702545,0.08859622478485107,0.02669265866279602,-0.053450122475624084,0.027652472257614136,-0.10213063657283783,0.10585054755210876,-0.05559670925140381,0.04455608129501343,0.07285363972187042,0.11058813333511353,0.08273321390151978,-0.10611903667449951,-0.08645699918270111,-0.027709662914276123,-0.010183215141296387,-0.027108684182167053,0.11668495833873749,-0.00921747088432312,0.006608426570892334,0.06635209918022156,0.00319671630859375,0.09824647009372711,0.071723073720932,-0.1049719750881195,-0.10439690947532654,0.08950909972190857,-0.028969809412956238,0.06375116109848022,-0.06180647015571594,0.12465880811214447,-0.12085139751434326,0.05819539725780487,0.07811261713504791,0.06587830185890198,-0.07524581253528595,0.11045290529727936,0.09306907653808594,-0.06352883577346802,-0.0658184140920639,0.023789435625076294,-0.07290402054786682,0.11581884324550629,0.05031809210777283,0.06461459398269653,0.06871801614761353,-0.06362996995449066,0.08095915615558624,0.05563117563724518,0.0596461296081543,0.09556363523006439,0.1110086590051651,-0.02985154092311859,0.05773341655731201,-0.07061831653118134,0.06176196038722992,-0.039237141609191895,-0.035294994711875916,-0.11696639657020569,-0.06544029712677002,0.07316984236240387,-0.04626399278640747,-0.04589147865772247,-0.01275944709777832,-0.031153157353401184,0.033482760190963745,0.05205172300338745,-0.09123320877552032,-0.1184917539358139,0.12207616865634918,0.028617501258850098,-0.033295050263404846,0.09739488363265991,-0.02361580729484558,0.08463133871555328,-0.05837433040142059,0.09553714096546173,0.019887566566467285,-0.014907464385032654,-0.046343833208084106,-0.07069893181324005,-0.11985589563846588,0.10655172169208527,-0.019487053155899048,-0.11127975583076477,0.012575030326843262,-0.06683093309402466,0.02949787676334381,-0.007895395159721375,-0.0818716287612915,-0.11348320543766022,-0.06032329797744751,0.0393495112657547,0.04619458317756653,-0.012649819254875183,-0.02089524269104004,-0.0844716727733612,0.10966756939888,-0.01619097590446472,-0.07441405951976776,0.020102620124816895,0.01249559223651886,-0.0929766446352005,0.02224409580230713,0.007093802094459534,-0.07041926681995392,-0.11836814880371094,-0.08028571307659149,-0.017077714204788208,-0.015013188123703003,0.10296353697776794,0.0879134088754654,0.04473491013050079,-0.025436371564865112,0.04425913095474243,-0.029469698667526245,-0.11182157695293427,-0.05421692132949829,0.04865020513534546,0.04918314516544342,-0.034737035632133484,0.11006331443786621,0.09615853428840637,0.06972266733646393,-0.09153670072555542,0.025417238473892212,0.1031796783208847,0.05913230776786804,0.05141556262969971,-0.02622772753238678,0.054824113845825195,0.07267184555530548,0.09687672555446625,0.04284264147281647,0.10227005183696747,0.014169573783874512,-0.07108825445175171,0.06986702978610992,0.11952602863311768,-0.1243094950914383,0.11357960104942322,-0.10096640884876251,0.0029465705156326294,0.1142507791519165,0.02482561767101288,-0.09728783369064331,-0.06058226525783539,-0.07485748827457428,-0.03634944558143616,-0.013721540570259094,0.12368813157081604,0.11985248327255249,-0.050526365637779236,-0.06310375034809113,0.11105553805828094,0.023015737533569336,0.04806940257549286,-0.04992839694023132,0.03914004564285278,-0.0595182329416275,0.07325546443462372,0.0522325336933136,-0.11168685555458069,0.011667311191558838,-0.10703253746032715,0.08703665435314178,-0.0009650439023971558,0.11918781697750092,0.020254164934158325,0.03968764841556549,0.06681761145591736,-0.11182442307472229,-0.09027568995952606,0.037485092878341675,-0.0029446035623550415,-0.02285192906856537,0.02378922700881958,0.11158473789691925,-0.05668976902961731,0.03123660385608673,-0.07244089245796204,-0.05195799469947815,-0.014752417802810669,-0.025373220443725586,0.006551042199134827,0.06380899250507355,0.07017461955547333,0.030949890613555908,0.0916583389043808,0.04291518032550812,0.10753825306892395,-0.05508112907409668,-0.014885902404785156,0.04844506084918976,-0.0393378883600235,-0.11922276020050049,0.10010571777820587,-0.04535241425037384,0.1200171709060669,-0.0173770934343338,-0.05401436984539032,0.016382992267608643,0.07054829597473145,-0.02914293110370636,-0.10135722160339355,0.010785713791847229,-0.034768715500831604,-0.03374607861042023,0.01180306077003479,-0.024922117590904236,-0.11306138336658478,0.03791104257106781,0.015828967094421387,-0.11056137084960938,0.02296927571296692,0.11906871199607849,-0.06563228368759155,-0.09855683147907257,-0.11418743431568146,-0.0032092034816741943,0.11998721957206726,0.005805119872093201,0.07662826776504517,0.11621403694152832,0.07447482645511627,0.057214364409446716,-0.05304010212421417,0.0053708553314208984,-0.10314992070198059,-0.052835121750831604,0.08725778758525848,0.10477842390537262,-0.09780696034431458,-0.11081765592098236,0.039655402302742004,0.12214137613773346,0.08621396124362946,-0.11804810166358948,-0.03602743148803711,0.08651953935623169,0.03809453547000885,0.06256057322025299,0.12391236424446106,0.11593727767467499,-0.09129384160041809,-0.026094451546669006,0.004162430763244629,-0.12091976404190063,-0.0321926474571228,0.1003907322883606,0.024050086736679077,0.10731677711009979,0.08040453493595123,-0.08062875270843506,0.034713104367256165,0.08524832129478455,0.11423219740390778,0.010681435465812683,0.04889249801635742,0.11209100484848022,0.10166019201278687,-0.04703052341938019,0.04759266972541809,0.012128308415412903,0.0447792112827301,0.06659029424190521,0.03154239058494568,-0.021982192993164062,0.026149585843086243,0.10555517673492432,0.014657184481620789,-0.026509061455726624,0.10675029456615448,0.03862503170967102,0.043781280517578125,-0.12050288915634155,0.014295503497123718,-0.0692623108625412,0.0735686719417572,0.04680028557777405,-0.06690780818462372,-0.0952850729227066,0.02217353880405426,-0.10686631500720978,-0.0009569525718688965,0.0943625271320343,0.06939530372619629,0.07336172461509705,0.07494138181209564,-0.08888483047485352,-0.05567246675491333,-0.0786818414926529,0.048304587602615356,0.10823796689510345,0.10809209942817688,0.017307832837104797,0.10417379438877106,0.03328409790992737,-0.110830157995224,0.018576771020889282,0.07457795739173889,0.08683279156684875,-0.002046912908554077,0.01138964295387268,0.02917569875717163,0.08056549727916718,0.04640917479991913,0.10768713057041168,0.06796802580356598,-0.050615787506103516,-0.04838410019874573,0.020014002919197083,0.07124711573123932,0.013021543622016907,-0.021623671054840088,-0.12272672355175018,-0.12329822778701782,-0.116584911942482,0.07976388931274414,-0.05601498484611511,0.04010529816150665,0.10191486775875092,0.0818399041891098,0.07285501062870026,-0.07258330285549164,-0.03692300617694855,-0.029137104749679565,-0.12425576150417328,0.0977698266506195,-0.08489726483821869,-0.07095697522163391,0.013750359416007996,-0.09053859114646912,0.0530095249414444,0.0521547794342041,0.08126354217529297,-0.051134660840034485,0.051949888467788696,0.09882393479347229,-0.016889914870262146,0.064690500497818,0.009685635566711426,-0.09769430756568909,0.0579485148191452,-0.025978803634643555,-0.06465904414653778,0.04713946580886841,0.09090223908424377,-0.07469609379768372,-0.011023715138435364,-0.03779016435146332,-0.003173545002937317,-0.11556471884250641,0.11702786386013031,0.061567455530166626,0.046942636370658875,0.06733100116252899,0.10793422162532806,0.055978238582611084,-0.07971881330013275,-0.018422871828079224,0.04632468521595001,-0.009003520011901855,0.07605546712875366,0.0186985582113266,-0.02752736210823059,-0.016068771481513977,-0.06677287817001343,0.03306850790977478,-0.042293399572372437,0.0323493629693985,0.07284876704216003,-0.07093589007854462,-0.11031712591648102,-0.06591852009296417,0.0625467598438263,0.11919635534286499,-0.05702166259288788,-0.030096083879470825,-0.08672918379306793,-0.11624366044998169,0.02595508098602295,0.06417720019817352,0.07092563807964325,-0.061180099844932556,0.05945894122123718,-0.09053362905979156,-0.013078376650810242,0.02926252782344818,-0.09507644176483154,0.05342511832714081,-0.10389281809329987,-0.03977467119693756,-0.0982920378446579,0.09550631046295166,-0.09015166759490967,-0.021366849541664124,-0.06355515122413635,-0.003934115171432495,0.08345027267932892,-0.12142360210418701,-0.07634590566158295,0.04003961384296417,0.06523030996322632,0.12069876492023468,0.0005513280630111694,-0.07890120148658752,0.07528233528137207,-0.03795132040977478,-0.09234766662120819,0.11138087511062622,-0.09913107752799988,0.01761309802532196,0.08986969292163849,0.040633425116539,-0.07983632385730743,-0.026292994618415833,-0.06945106387138367,0.07729969918727875,-0.04857584834098816,-0.12247452139854431,0.08389633893966675,0.07369837164878845,-0.0019908249378204346,-0.03713974356651306,-0.008425623178482056,-0.11750242114067078,-0.030688300728797913,0.007181242108345032,0.06038011610507965,-0.11639007925987244,0.10859119892120361,0.039202287793159485,-0.053850725293159485,0.0038517415523529053,0.11320164799690247,0.0625670850276947,-0.06165046989917755,-0.10673829913139343,-0.045066818594932556,-0.0010667294263839722,0.042732447385787964,0.1186196506023407,0.10981124639511108,-0.0412553995847702,-0.031976938247680664,0.024753734469413757,-0.08197726309299469,0.06594432890415192,0.033519670367240906,0.09214819967746735,0.09242263436317444,0.09112296998500824,-0.07680076360702515,0.02041812241077423,-0.05057573318481445,0.07825033366680145,-0.10626189410686493,0.007467880845069885,-0.028927117586135864,0.09728457033634186,0.1212778240442276,0.03617711365222931,0.09449109435081482,-0.017689526081085205,0.06412498652935028,0.0713922381401062,-0.09777238965034485,-0.013379320502281189,-0.00638464093208313,-0.04589858651161194,0.02827341854572296,0.10963626205921173,0.07293537259101868,0.05421225726604462,0.03143131732940674,-0.05473032593727112,0.007709786295890808,-0.02727799117565155,-0.09334923326969147,-0.058698639273643494,0.038083434104919434,-0.10962913930416107,0.07270175218582153,-0.006917044520378113,0.010843470692634583,-0.002272874116897583,0.08369070291519165,-0.11700296401977539,0.003869473934173584,-0.03702227771282196,-0.09357394278049469,0.08175785839557648,-0.014706328511238098,-0.0909280925989151,0.06351538002490997,-0.056674808263778687,-0.11527413129806519,-0.05038164556026459,0.10809271037578583,0.11973993480205536,-0.015953972935676575,-0.01402522623538971,0.04173831641674042,-0.031512171030044556,0.05906789004802704,0.06785018742084503,0.03391546010971069,-0.0940043181180954,0.1227668970823288,-0.04022713005542755,0.010117903351783752,-0.021338388323783875,-0.12037046253681183,-0.07245449721813202,0.06701609492301941,-0.05223076045513153,0.09812568128108978,0.08386699855327606,0.11336231231689453,-0.02145959436893463,0.11404606699943542,0.051073119044303894,-0.0408959835767746,0.030009344220161438,0.10918869078159332,-0.03787970542907715,-0.12031970918178558,0.0470135360956192,0.07267475128173828,-0.034799546003341675,0.017036020755767822,-0.009306803345680237,0.03943672776222229,0.05111253261566162,0.007563546299934387,0.12298105657100677,-0.022370606660842896,-0.06928002834320068,-0.0006947368383407593,-0.016324207186698914,-0.11139774322509766,-0.11585952341556549,0.020197823643684387,-0.010090723633766174,0.046426862478256226,0.06911472976207733,0.12053908407688141,0.10170523822307587,0.04401807487010956,0.1067654937505722,-0.05940404534339905,-0.04763112962245941,-0.05520014464855194,0.030030161142349243,-0.1051015704870224,-0.06917330622673035,0.06527246534824371,0.10632602870464325,-0.07793214917182922,0.024201273918151855,0.050229862332344055,0.03912730515003204,0.013084501028060913,-0.018267527222633362,-0.019780129194259644,0.07718139886856079,0.01108899712562561,-0.08071576058864594,-0.11907759308815002,-0.1034335196018219,-0.016408294439315796,0.08608627319335938,0.031900301575660706,-0.032362788915634155,-0.07360264658927917,-0.09325918555259705,0.04292447865009308,-0.07823450863361359,-0.04842141270637512,0.02313894033432007,-0.11827681958675385,0.0969313383102417,0.03828243911266327,0.06241269409656525,0.10680365562438965,0.009523585438728333,-0.11540408432483673,0.0032287240028381348,-0.10457286238670349,-0.09355263411998749,-0.02895379066467285,-0.0748797357082367,0.027525827288627625,0.06263014674186707,-0.03195638954639435,-0.07642142474651337,0.029411956667900085,-0.09648966789245605,0.03483295440673828,-0.042961180210113525,0.08471664786338806,0.12050068378448486,-0.009653687477111816,-0.034836843609809875,0.07491530478000641,0.04652971029281616,-0.09251420199871063,0.030644550919532776,0.07034409046173096,-0.020639002323150635,-0.031017929315567017,-0.11849138140678406,-0.052832722663879395,0.03493461012840271,0.06286630034446716,-0.0988234132528305,-0.09029592573642731,0.07658152282238007,-0.09372147917747498,-0.027718305587768555,-0.04465077817440033,-0.02624306082725525,-0.0253305584192276,0.03632757067680359,-0.09035208821296692,-0.05966523289680481,0.08819131553173065,0.05745363235473633,0.09205028414726257,-0.030297741293907166,-0.036719709634780884,0.01659548282623291,-0.009344503283500671,0.04030825197696686,-0.04285326600074768,-0.1047244668006897,-0.05518880486488342,0.007831647992134094,0.0791863203048706,0.10686765611171722,-0.050548434257507324,-0.06048813462257385,-0.0350540429353714,0.11425340175628662,0.04755808413028717,-0.0994533896446228,0.09597831964492798,-0.10372290015220642,-0.12426429986953735,-0.04907941818237305,0.04129767417907715,0.03088894486427307,0.06630590558052063,0.09868745505809784,-0.05236147344112396,-0.11376017332077026,0.04989983141422272,-0.07869960367679596,-0.042616769671440125,-0.02885565161705017,0.10475260019302368,-0.10421620309352875,-0.11669684946537018,-0.1011354923248291,-0.1035003811120987,0.11880157887935638,-0.07502381503582001,0.086153045296669,-0.10250487923622131,-0.07680588960647583,0.06741975247859955,-0.010723292827606201,-0.10030446946620941,-0.043406397104263306,0.10818593204021454,0.020923912525177002,0.09539738297462463,-0.07471220195293427,-0.01782064139842987,0.11100409924983978,-0.08607371151447296,-0.09289537370204926,-0.008863359689712524,-0.07901468873023987,0.10525977611541748,-0.044694602489471436,0.060504838824272156,-0.0038668811321258545,0.12301771342754364,0.03520481288433075,0.06522338092327118,-0.015618622303009033,-0.049858421087265015,-0.08919501304626465,-0.10673840343952179,0.057650476694107056,0.03403705358505249,0.029489845037460327,0.04079832136631012,0.011705935001373291,-0.0828169733285904,0.10377524793148041,-0.09492579102516174,-0.049113884568214417,0.10932660102844238,-0.08536955714225769,0.08557680249214172,-0.09251551330089569,0.08383344113826752,-0.005725100636482239,-0.03617453575134277,-0.018717467784881592,-0.043854668736457825,0.11695066094398499,-0.06552101671695709,0.06630708277225494,0.09593167901039124,-0.020845279097557068,-0.05384305119514465,-0.04306560754776001,0.024692729115486145,-0.012773975729942322,-0.09857174754142761,-0.10011681914329529,0.04680313169956207,0.03230486810207367,-0.06961682438850403,0.06187319755554199,-0.04615987837314606,0.11266675591468811,0.10915255546569824,-0.03761987388134003,0.05771847069263458,-0.0893145501613617,0.05112820863723755,0.024502024054527283,0.11831019818782806,-0.016290724277496338,-0.09359769523143768,-0.017448201775550842,-0.008898794651031494,0.05990539491176605,0.038205355405807495,-0.11971114575862885,0.06312160193920135,0.0453404039144516,0.09008902311325073,0.04012414813041687,-0.031194373965263367,0.00014793872833251953,0.07856865227222443,0.025695785880088806,-0.023472651839256287,-0.09296263754367828,-0.07504142820835114,0.10548563301563263,0.016099706292152405,-0.08572424948215485,0.08615042269229889,0.10309764742851257,0.03552018105983734,-0.023389607667922974,0.07783302664756775,-0.04067607223987579,-0.001684814691543579,0.01522490382194519,0.05969777703285217,0.0862329751253128,-0.07970364391803741,0.10217347741127014,-0.008758097887039185,-0.0016112178564071655,-0.08674907684326172,-0.005964264273643494,-0.10498778522014618,0.02123032510280609,-0.01038224995136261,-0.0703573077917099,0.0632946640253067,0.12046077847480774,-0.07266022264957428,-0.05553044378757477,0.06700219213962555,0.06495021283626556,-0.054139599204063416,0.004575490951538086,0.012394294142723083,-0.026085808873176575,0.10546207427978516,-0.04478643834590912,0.11311045289039612,0.0863523781299591,-0.019444003701210022,0.018556460738182068,0.017846956849098206,-0.09948238730430603,-0.10714049637317657,-0.10429678857326508,0.1193704754114151,-0.06208294630050659,-0.10446693003177643,0.018551573157310486,0.10391320288181305,-0.11375798285007477,-0.017813533544540405,0.10988467931747437,-0.018227294087409973,0.12361353635787964,-0.005228355526924133,0.04794582724571228,0.10070811212062836,-0.039076074957847595,0.07550157606601715,0.01535765826702118,0.025065019726753235,0.06254987418651581,0.10937710106372833,0.09491975605487823,-0.00916600227355957,-0.035000428557395935,0.09346263110637665,0.1037384569644928,-0.05146192014217377,-0.0566592812538147,-0.12400379776954651,0.07278864085674286,-0.06744043529033661,-0.01676243543624878,0.09455357491970062,0.06985965371131897,0.05289645493030548,0.0857195109128952,-0.07420440018177032,0.011006712913513184,-0.04471510648727417,0.01046299934387207,0.07806180417537689,0.03383365273475647,0.08325091004371643,-0.01824416220188141,-0.12280383706092834,0.1147235780954361,0.08754183351993561,-0.08364477753639221,-0.051172733306884766,-0.007063955068588257,0.0953296571969986,-0.09308671951293945,0.11128012835979462,0.04151350259780884,-0.002389967441558838,-0.07497189939022064,0.00836162269115448,-0.0017813146114349365,-0.11390900611877441,-0.0931231826543808,0.08796937763690948,0.07994048297405243,-0.10983645915985107,-0.07491281628608704,0.06613993644714355,0.0779341459274292,0.09453386068344116,-0.08705879747867584,0.07004429399967194,0.10405731201171875,-0.08294801414012909,-0.08829258382320404,-0.10183003544807434,0.06372836232185364,-0.11772303283214569,0.0752580314874649,-0.062126487493515015,-0.1158878356218338,-0.044710636138916016,0.09974890947341919,-0.120570108294487,0.045166149735450745,0.11459188163280487,-0.11788579821586609,0.05217649042606354,-0.11620782315731049,-0.10602176189422607,-0.11584708094596863,-0.06843584775924683,0.11464956402778625,0.026091277599334717,0.09948696196079254,-0.08005690574645996,-0.00032845139503479004,-0.1161079853773117,-0.0737791359424591,-0.12105053663253784,0.07459546625614166,-0.09266254305839539,-0.06743669509887695,-0.11966770887374878,0.09541983902454376,-0.10335206985473633,0.07242520153522491,0.010568782687187195,0.03260934352874756,-0.01470029354095459,-0.04182210564613342,0.11619465053081512,-0.08015325665473938,0.01514345407485962,-0.10706338286399841,-0.048212841153144836,-0.10114552080631256,-0.05320608615875244,0.10325735807418823,-0.004278287291526794,0.057847440242767334,-0.04476918280124664,-0.09953735768795013,0.06702205538749695,0.04734979569911957,-0.05168779194355011,0.06682360172271729,0.034960582852363586,0.0393235981464386,0.10490468144416809,-0.044544532895088196,0.06241375207901001,-0.01577429473400116,0.024848654866218567,-0.08515755832195282,-0.07842978835105896,0.013612672686576843,0.027960866689682007,0.03875820338726044,-0.09471756219863892,0.05434796214103699,-0.11830466985702515,-0.015164539217948914,-0.08575443923473358,-0.00070229172706604,-0.024801477789878845,-0.03695113956928253,-0.07792113721370697,-0.0016341358423233032,0.10153141617774963,-0.08083994686603546,0.0671938955783844,0.10524438321590424,0.10585607588291168,-0.0888165831565857,-0.11930035054683685,0.006887570023536682,0.060565173625946045,-0.006917834281921387,0.08523395657539368,-0.011804759502410889,-0.04180893301963806,-0.08520866930484772,-0.0970471054315567,-0.07942838966846466,0.096783846616745,-0.0825544148683548,-0.09184928238391876,0.07298319041728973,0.046625345945358276,0.06801064312458038,0.12250973284244537,0.11992503702640533,-0.05336745083332062,0.005438029766082764,-0.03237399458885193,-0.049466684460639954,0.11031778156757355,-0.11283829808235168,0.08049508929252625,-0.0200890451669693,0.022380635142326355,-0.017637327313423157,-0.04558457434177399,-0.03969945013523102,-0.06638200581073761,0.06224735081195831,0.007460564374923706,0.0995686948299408,-0.00996445119380951,0.025885939598083496,0.004352182149887085,-0.007773056626319885,-0.019603043794631958,-0.012314438819885254,0.08415627479553223,9.799003601074219e-05,-0.04295961558818817,0.006780356168746948,-0.05336661636829376,-0.01683233678340912,-0.05230063199996948,0.05962902307510376,0.11547538638114929,-0.020312786102294922,0.07138486206531525,-0.08724775910377502,0.009916037321090698,0.08497314155101776,-0.05524091422557831,-0.016118735074996948,-0.07139341533184052,-0.10495948791503906,0.07229994237422943,-0.011888772249221802,-0.07611459493637085,0.09613700211048126,-0.11514686048030853,-0.10603581368923187,-0.12421014904975891,0.10358433425426483,0.01277633011341095,0.03141157329082489,0.009158462285995483,-0.018063247203826904,-0.03915926814079285,-0.008809506893157959,-0.10388755798339844,0.10435967147350311,-0.09744253754615784,0.05885349214076996,-0.10987924039363861,-0.09334872663021088,-0.02120324969291687,0.03734111785888672,-0.10346877574920654,-0.042462244629859924,-0.10733439028263092,-0.062340572476387024,0.0295352041721344,0.08469066023826599,-0.04022739827632904,0.11442464590072632,-0.02679036557674408,-0.03926101326942444,-0.12448704242706299,-0.05860118567943573,0.0709780603647232,-0.06757132709026337,0.026798725128173828,-0.12027555704116821,0.054982781410217285,0.0803011804819107,-0.036851897835731506,0.052520111203193665,0.05486223101615906,-0.12273669242858887,-0.0944434404373169,-0.09690448641777039,-0.020063430070877075,0.01243293285369873,0.1212749183177948,-0.03228074312210083,-0.0047238171100616455,-0.09424708783626556,0.06929796934127808,0.1136026680469513,0.12003836035728455,0.06487588584423065,-0.002208530902862549,-0.12030163407325745,0.09167701005935669,-0.07123252749443054,-0.019205719232559204,0.10625168681144714,-0.12409374117851257,-0.011172115802764893,0.12460468709468842,-0.01673746109008789,-0.04986095428466797,-0.10537119209766388,0.09012149274349213,0.07362724840641022,0.07140578329563141,-0.10959015786647797,0.04483616352081299,0.030744045972824097,0.046389490365982056,-0.007061511278152466,0.09477885067462921,0.09676486253738403,-0.08420553803443909,0.0004890561103820801,-0.002811923623085022,0.10283325612545013,-0.032782986760139465,-0.03386940062046051,-0.09503759443759918,0.09323357045650482,-0.10206307470798492,-0.08274883031845093,-0.005726829171180725,0.0788726657629013,-0.025198444724082947,-0.01855243742465973,-0.0686572939157486,0.07857319712638855,-0.07768751680850983,0.0013292878866195679,-0.019763007760047913,0.06625860929489136,-0.03513173758983612,-0.02653627097606659,-0.04798567295074463,0.061019375920295715,-0.0954078882932663,-0.0004432946443557739,-0.008724033832550049,0.09624035656452179,0.04646986722946167,0.07437430322170258,-0.07376985251903534,0.11663772165775299,-0.09722453355789185,0.08143061399459839,-0.05415850877761841,-0.0550544410943985,-0.09781521558761597,-0.056487634778022766,0.07473109662532806,-0.0750475525856018,0.05939629673957825,0.0945514440536499,-0.058479443192481995,-0.04915273189544678,0.06364898383617401,0.016913220286369324,-0.12039168179035187,0.00483173131942749,-0.02297966182231903,-0.06378047168254852,-0.013185784220695496,0.0073241740465164185,0.04200008511543274,0.11447538435459137,0.029303833842277527,-0.006589725613594055,-0.11229325830936432,-0.09889218211174011,0.04266199469566345,0.1105753630399704,-0.06692835688591003,-0.021258965134620667,-0.0013585388660430908,-0.11938101053237915,-0.03122219443321228,-0.05801790952682495,0.05713042616844177,0.061269715428352356,-0.04991866648197174,-0.025106504559516907,0.12481851875782013,0.08375686407089233,0.10444867610931396,0.09138990938663483,-0.05006968975067139,-0.11383756995201111,0.09579741954803467,0.07216931879520416,-0.0751534253358841,0.06731902062892914,-0.030269533395767212,-0.07547223567962646,-0.11047454178333282,-0.012273818254470825,0.12370704114437103,-0.05586898326873779,-0.03826870024204254,-0.10304471850395203,0.04708127677440643,0.03232693672180176,0.07951350510120392,0.01826636493206024,0.09122444689273834,-0.0775107741355896,0.06531323492527008,0.03139524161815643,0.05456598103046417,0.033961281180381775,-0.09990197420120239,-0.04027998447418213,0.046898216009140015,0.020144477486610413,0.030510202050209045,0.029061928391456604,0.08568808436393738,-0.013370081782341003,0.01495620608329773,-0.11466255784034729,0.011934101581573486,0.11640866100788116,0.04545159637928009,0.04420195519924164,-0.05553878843784332,-0.08223265409469604,-0.029665037989616394,-0.04016387462615967,0.10454913973808289,0.030735939741134644,0.06232228875160217,-0.06091710925102234,-0.07332564890384674,-0.11705097556114197,0.01957210898399353,-0.11381590366363525,0.07230868935585022,-0.035657256841659546,-0.03126952052116394,-0.056009531021118164,0.11632940173149109,-0.02432990074157715,0.03330656886100769,0.05735653638839722,-0.07129664719104767,-0.010463625192642212,-0.10968385636806488,-0.06533539295196533,-0.10100796818733215,0.03734901547431946,0.025884389877319336,0.10649265348911285,0.06401850283145905,0.07513223588466644,-0.08402319252490997,-0.06608310341835022,-0.046437978744506836,0.11637577414512634,0.07384222745895386,-0.07928898930549622,0.11461761593818665,0.02233847975730896,0.02662140130996704,0.0734611451625824,-0.03180652856826782,-0.10667125880718231,-0.044316187500953674,-0.052815765142440796,0.014557763934135437,-0.05800725519657135,-0.06646691262722015,0.02642226219177246,0.010809004306793213,-0.103818878531456,-0.05746753513813019,0.08729135990142822,0.047635823488235474,0.093457892537117,-0.08393208682537079,-0.0408829003572464,0.02711501717567444,0.0793638825416565,-0.026121288537979126,0.04589538276195526,-0.05652669072151184,0.10577906668186188,-0.05079585313796997,0.07695312798023224,-0.03480866551399231,-0.0850217193365097,-0.11988808214664459,0.02214527130126953,0.05632290244102478,-0.07418081164360046,-0.11974228918552399,-0.11716893315315247,0.09580223262310028,0.07720129191875458,-0.03184895217418671,0.02425156533718109,0.008722156286239624,0.08913400769233704,-0.04942767322063446,-0.08230812847614288,0.0009647160768508911,-0.009747818112373352,0.07641167938709259,0.04723857343196869,-0.07396990060806274,0.08352454006671906,0.04320812225341797,-0.020004436373710632,-0.10408896207809448,0.10190248489379883,-0.10239647328853607,-0.11757725477218628,-0.11819431185722351,0.0625147670507431,0.0077399760484695435,0.04912886023521423,0.01582077145576477,-0.060934752225875854,-0.011267483234405518,-0.055514752864837646,-0.0793047845363617,0.03442753851413727,0.013363972306251526,0.07398928701877594,-0.09957103431224823,0.04917535185813904,0.08024416863918304,-0.08338069915771484,-0.09362132847309113,-0.0540199875831604,-0.0738869458436966,-0.08549365401268005,0.08984360098838806,0.030546799302101135,0.11564241349697113,0.11904920637607574,0.0029967427253723145,0.09367351233959198,-0.031953662633895874,-0.004127517342567444,0.08456110954284668,-0.014502733945846558,0.06014318764209747,0.11252647638320923,0.0706215500831604,-0.04587726294994354,-0.05863593518733978,-0.002498030662536621,0.028499379754066467,-0.12391948699951172,0.0916290134191513,-0.06828378140926361,0.03993558883666992,-0.03237783908843994,0.08237652480602264,-0.03376327455043793,0.10840773582458496,0.012840300798416138,-0.05594901740550995,0.06742121279239655,-0.03024853765964508,-0.04579441249370575,0.05722835659980774,-0.10885319113731384,0.04198309779167175,-0.10821816325187683,0.07368044555187225,-0.11775460839271545,0.09447275102138519,0.07959224283695221,-0.05116327106952667,0.040666818618774414,0.12496092915534973,0.11389507353305817,-0.0720425397157669,0.08467401564121246,0.10344302654266357,-0.05621917545795441,0.03650067746639252,0.08923502266407013,-0.047800108790397644,0.08672118186950684,-0.023048117756843567,-0.10444720089435577,0.06269778311252594,0.10613323748111725,-0.10869129002094269,0.054693788290023804,-0.11163456737995148,0.048310786485672,-0.005375474691390991,-0.08670014142990112,-0.008527308702468872,-0.07959170639514923,0.02203083038330078,-0.07232454419136047,-0.11140318214893341,-0.08513177931308746,-0.04389268159866333,-0.02542109787464142,0.005776688456535339,-0.036469072103500366,-0.06484189629554749,0.04325586557388306,0.10293886065483093,0.09894825518131256,0.05088016390800476,0.11369730532169342,0.1081918329000473,0.031474366784095764,-0.03847891092300415,0.08316589891910553,-0.08895568549633026,-0.03782114386558533,-0.0304730087518692,-0.012157991528511047,0.08072459697723389,-0.015051543712615967,0.006498172879219055,0.0677080899477005,0.04779605567455292,0.08114224672317505,-0.08448712527751923,-0.05815690755844116,0.035595864057540894,0.02463577687740326,-0.029507040977478027,-0.11684399843215942,-0.004095733165740967,0.036301806569099426,-0.08417071402072906,-0.03331795334815979,0.11835348606109619,-0.054045647382736206,0.007862597703933716,0.05816091597080231,-0.0854458212852478,0.05689075589179993,0.06389303505420685,-0.00866369903087616,-0.007473960518836975,0.08295582234859467,-0.11048077046871185,0.11339916288852692,-0.014656871557235718,0.032595276832580566,0.021927520632743835,0.05042754113674164,-0.086430624127388,-0.016979709267616272,-0.05486287176609039,-0.058603107929229736,-0.020529359579086304,0.0068088918924331665,0.10672535002231598,0.02666531503200531,-0.11611393094062805,0.03221040964126587,0.040716201066970825,-0.03402002155780792,0.02666698396205902,-0.04811552166938782,-0.04552154242992401,0.04050351679325104,0.02272193133831024,-0.10707038640975952,-0.05248740315437317,-0.05813048779964447,0.05115744471549988,0.06814508140087128,-0.09070467948913574,-0.05779285728931427,-0.042447760701179504,0.09348565340042114,0.02815096080303192,-0.012360647320747375,-0.030249103903770447,0.09707117080688477,0.04802720248699188,0.022139772772789,-0.04218430817127228,0.10208207368850708,0.01761104166507721,-0.08012375235557556,-0.06820933520793915,-0.11021114885807037,0.07541060447692871,0.03224074840545654,-0.02452130615711212,-0.0027499347925186157,-0.04650731384754181,-0.020618170499801636,-0.019361287355422974,0.08287899196147919,0.034402042627334595,0.003295004367828369,-0.11878640949726105,-0.08964546024799347,0.1173311322927475,0.08510652184486389,-0.0022933632135391235,0.09983095526695251,-0.052477359771728516,0.005158618092536926,0.10807377099990845,-0.07080963253974915,-0.024114608764648438,-0.1011199951171875,-0.027477756142616272,0.02075934410095215,-0.07673037052154541,-0.1249246597290039,0.019961506128311157,0.0980188399553299,-0.09550538659095764,-0.009454131126403809,-0.08064550161361694,0.05080336332321167,-0.10279762744903564,0.02001039683818817,0.0957350879907608,-0.03259351849555969,-0.005358561873435974,-0.06402325630187988,-0.04262351989746094,-0.059241652488708496,-0.011898800730705261,0.08452676236629486,0.03604254126548767,-0.05923818051815033,0.002941519021987915,-0.034438684582710266,-0.04250261187553406,-0.12363079190254211,-0.11621886491775513,-0.035128429532051086,-0.001802206039428711,-0.03778117895126343,0.11345469951629639,0.01922793686389923,0.09923562407493591,-0.04810316860675812,0.07389244437217712,0.05709688365459442,-0.1171407401561737,0.11084160208702087,0.07133275270462036,0.09001819789409637,0.091612309217453,-0.12209248542785645,0.029893457889556885,0.025663107633590698,0.031486645340919495,-0.02459298074245453,0.07496652007102966,-0.07357080280780792,0.11386238038539886,0.07094575464725494,-0.07978998124599457,0.01058042049407959,0.05142584443092346,0.055861666798591614,0.007963880896568298,0.0015003979206085205,-0.0427962988615036,-0.00843934714794159,-0.08633321523666382,0.007655665278434753,-0.06918603181838989,-0.05084340274333954,0.022817164659500122,0.07799053192138672,0.02887292206287384,0.10403142869472504,-0.07417671382427216,-0.08471207320690155,0.06428617238998413,0.03280949592590332,0.02358664572238922,-0.04025419056415558,0.0828942358493805,-0.04306374490261078,-0.05958528816699982,-0.08171804249286652,0.004514157772064209,-0.06030772626399994,0.11047568917274475,0.10760679841041565,0.0685114860534668,0.051278725266456604,0.02714921534061432,-0.10996396839618683,-0.003919810056686401,-0.0012545883655548096,-0.08448955416679382,0.0779782086610794,-0.06450594961643219,-0.036003485321998596,0.11645372211933136,0.06307636201381683,-0.057490572333335876,-0.003979101777076721,-0.03300046920776367